<?xml version="1.0"?>
<opencv_storage>
<stage7>
  <maxWeakCount>62</maxWeakCount>
  <stageThreshold>-8.9947068691253662e-01</stageThreshold>
  <weakClassifiers>
    <_>
      <internalNodes>
        0 -1 6370 -931738693 -289846433 1059540959 -97096068 -283399798
        894394226 -405366785 -16843009</internalNodes>
      <leafValues>
        -1.4974619448184967e-01 2.5541126728057861e-01</leafValues></_>
    <_>
      <internalNodes>
        0 -1 17801 -1403247341 -1937717778 -61940071 -322635692
        -281686857 -1115779075 1287745813 -1070305168</internalNodes>
      <leafValues>
        -2.9395380616188049e-01 1.2547519803047180e-01</leafValues></_>
    <_>
      <internalNodes>
        0 -1 88 -540754020 -153054524 1028754330 2135281872 681969406
        -957126742 57610488 865804027</internalNodes>
      <leafValues>
        -2.1548399329185486e-01 1.6318272054195404e-01</leafValues></_>
    <_>
      <internalNodes>
        0 -1 66314 -74473497 1767531460 122090900 -1332437566 533593599
        -936619500 -1614065752 3176074</internalNodes>
      <leafValues>
        -1.8882054090499878e-01 1.9971421360969543e-01</leafValues></_>
    <_>
      <internalNodes>
        0 -1 59606 1291300643 414249698 -1798145216 -1971004032
        1247491165 -1091901213 2028242880 213261701</internalNodes>
      <leafValues>
        -2.9598477482795715e-01 1.1328729987144470e-01</leafValues></_>
    <_>
      <internalNodes>
        0 -1 44558 1598930874 179777134 341312114 -42146348 -1592378402
        -1883714564 -1395721486 1433771442</internalNodes>
      <leafValues>
        -2.2403180599212646e-01 1.6166825592517853e-01</leafValues></_>
    <_>
      <internalNodes>
        0 -1 45640 151126136 147210571 -2071310495 -1405990347
        1205602416 -1625780028 -334206124 -286227808</internalNodes>
      <leafValues>
        -3.2101467251777649e-01 1.2294903397560120e-01</leafValues></_>
    <_>
      <internalNodes>
        0 -1 67365 -81265784 -702495991 -2147319168 -1056407103
        -729486708 -972898301 -728833972 -2010982544</internalNodes>
      <leafValues>
        -2.7670162916183472e-01 1.5369300544261932e-01</leafValues></_>
    <_>
      <internalNodes>
        0 -1 67079 -117273358 -223114186 -1741316369 1927216875
        -540099208 86513576 -1084325141 -136335474</internalNodes>
      <leafValues>
        -1.7096158862113953e-01 2.4000543355941772e-01</leafValues></_>
    <_>
      <internalNodes>
        0 -1 22739 710543229 1312577759 765408692 -1373860276 644855920
        -1077009541 1581004612 283145540</internalNodes>
      <leafValues>
        -3.3489966392517090e-01 1.2886257469654083e-01</leafValues></_>
    <_>
      <internalNodes>
        0 -1 56788 -1569782523 25344948 -419048587 -2066548558
        1143933216 1045453995 -840139243 -1467059088</internalNodes>
      <leafValues>
        -3.1729131937026978e-01 1.0261012613773346e-01</leafValues></_>
    <_>
      <internalNodes>
        0 -1 3367 1833491449 -485263280 -1317323418 2145897633
        -1536624193 203891568 319889873 467637725</internalNodes>
      <leafValues>
        -1.6259625554084778e-01 2.3097974061965942e-01</leafValues></_>
    <_>
      <internalNodes>
        0 -1 50251 525701050 1460681890 -1784074192 -287352815 723861688
        -294120727 -11076726 1911938219</internalNodes>
      <leafValues>
        -2.0505388081073761e-01 1.8918435275554657e-01</leafValues></_>
    <_>
      <internalNodes>
        0 -1 122 -433682794 473182202 -1678374209 -1115705997 -460050753
        -841437314 -548008801 1374487067</internalNodes>
      <leafValues>
        -1.7091755568981171e-01 2.2444158792495728e-01</leafValues></_>
    <_>
      <internalNodes>
        0 -1 67392 -113251457 -151061598 -226706065 1376955626 -3244423
        -411510380 -236987830 -199643142</internalNodes>
      <leafValues>
        -1.5738445520401001e-01 2.6419609785079956e-01</leafValues></_>
    <_>
      <internalNodes>
        0 -1 15377 -227630033 1691152766 748919164 -697005304 2035316985
        1006243574 449067109 -127667689</internalNodes>
      <leafValues>
        -2.2219391167163849e-01 1.7462950944900513e-01</leafValues></_>
    <_>
      <internalNodes>
        0 -1 47620 -532192171 -1621775162 -2024575627 -1079557916
        818913204 -12942760 1769731221 174064897</internalNodes>
      <leafValues>
        -2.1159651875495911e-01 1.8336051702499390e-01</leafValues></_>
    <_>
      <internalNodes>
        0 -1 34525 242306074 1218732173 1334480919 -856797295
        -1616949966 -1124378888 -422024656 -72213968</internalNodes>
      <leafValues>
        -2.4965904653072357e-01 1.5415649116039276e-01</leafValues></_>
    <_>
      <internalNodes>
        0 -1 43298 1549379459 911519036 762076456 535239289 1349301921
        -198789451 1912160403 1511723511</internalNodes>
      <leafValues>
        -1.6797114908695221e-01 2.3067770898342133e-01</leafValues></_>
    <_>
      <internalNodes>
        0 -1 56570 -2036588783 -1881971433 -749910241 -989980679
        -302748064 -129112955 -2051326864 -353046635</internalNodes>
      <leafValues>
        -2.5499719381332397e-01 1.5258604288101196e-01</leafValues></_>
    <_>
      <internalNodes>
        0 -1 67390 -540017337 -144773206 -471224340 -204095526
        -579143477 1150091010 -519373509 -1416907777</internalNodes>
      <leafValues>
        -1.0313301533460617e-01 3.7697651982307434e-01</leafValues></_>
    <_>
      <internalNodes>
        0 -1 5807 210024564 -592222204 -1600095044 2044382410 46983388
        -468709908 1518362190 1228932096</internalNodes>
      <leafValues>
        -3.9074337482452393e-01 9.8715402185916901e-02</leafValues></_>
    <_>
      <internalNodes>
        0 -1 28845 -399604689 -1836926171 -83922945 -1346404703
        1545422476 -990971954 144655663 1825456687</internalNodes>
      <leafValues>
        -1.7126908898353577e-01 2.3690192401409149e-01</leafValues></_>
    <_>
      <internalNodes>
        0 -1 23905 205002992 575700558 -1445056700 1074790102 1044593988
        -299063026 1585999985 438387320</internalNodes>
      <leafValues>
        -3.2708436250686646e-01 1.3027152419090271e-01</leafValues></_>
    <_>
      <internalNodes>
        0 -1 1638 -407441489 -306401430 1073586108 -206526464 1244753841
        -571011081 1725535331 -13121554</internalNodes>
      <leafValues>
        -1.6518893837928772e-01 2.6182928681373596e-01</leafValues></_>
    <_>
      <internalNodes>
        0 -1 49274 315240227 -2120217343 -336288047 -1762675008
        -1233761153 -1967817700 2147466847 -1093779476</internalNodes>
      <leafValues>
        -1.8054562807083130e-01 2.2780333459377289e-01</leafValues></_>
    <_>
      <internalNodes>
        0 -1 29900 -421757094 -288891686 -67438882 -629604440 -135075444
        809556149 -1632070820 -610659111</internalNodes>
      <leafValues>
        -2.1151679754257202e-01 1.8970890343189240e-01</leafValues></_>
    <_>
      <internalNodes>
        0 -1 60892 1855349365 -1008926736 1817023621 -1676085276
        -1578994844 -1826576288 -1996423440 1603404284</internalNodes>
      <leafValues>
        -2.4999891221523285e-01 1.7557261884212494e-01</leafValues></_>
    <_>
      <internalNodes>
        0 -1 6696 218420924 -922473984 1163380079 854507732 784971900
        -1928642035 410737147 2012189134</internalNodes>
      <leafValues>
        -2.3391959071159363e-01 1.7633186280727386e-01</leafValues></_>
    <_>
      <internalNodes>
        0 -1 66206 -535831501 1009963493 -1760952429 -1374773346
        -124479132 -738424441 1662306448 -1983362826</internalNodes>
      <leafValues>
        -2.2866532206535339e-01 1.8856221437454224e-01</leafValues></_>
    <_>
      <internalNodes>
        0 -1 66327 -1183056649 -33737178 430992125 1350206884 -239288004
        1182580622 -1947230216 -617365794</internalNodes>
      <leafValues>
        -1.2880337238311768e-01 3.1806769967079163e-01</leafValues></_>
    <_>
      <internalNodes>
        0 -1 64765 775364213 -2013009670 -27693129 -1124294761
        2129944182 -878709993 -839054475 413307620</internalNodes>
      <leafValues>
        -2.9440745711326599e-01 1.4432333409786224e-01</leafValues></_>
    <_>
      <internalNodes>
        0 -1 54492 1795065240 320546328 -1018554480 -182632835
        -1009847344 -1343676141 -1062704054 578926122</internalNodes>
      <leafValues>
        -2.5840783119201660e-01 1.6713659465312958e-01</leafValues></_>
    <_>
      <internalNodes>
        0 -1 67335 -228336387 -962707224 1274589006 2131365196
        -1829182183 -2132590111 1051119235 2073993887</internalNodes>
      <leafValues>
        -1.8321746587753296e-01 2.3671101033687592e-01</leafValues></_>
    <_>
      <internalNodes>
        0 -1 59780 1319160048 -690684415 -3491151 493146812 -579413527
        -1865483657 -1139459091 -274795443</internalNodes>
      <leafValues>
        -1.7341580986976624e-01 2.4725575745105743e-01</leafValues></_>
    <_>
      <internalNodes>
        0 -1 19007 1014730064 -575394318 2135735255 -1818957761
        561823072 -606149290 -1436880933 -1354802669</internalNodes>
      <leafValues>
        -1.6748517751693726e-01 2.5742650032043457e-01</leafValues></_>
    <_>
      <internalNodes>
        0 -1 31955 1223353347 1426419690 -358172037 1038443474
        1390277813 2144775828 -432669794 100035539</internalNodes>
      <leafValues>
        -1.8673323094844818e-01 2.2981603443622589e-01</leafValues></_>
    <_>
      <internalNodes>
        0 -1 12820 616375633 -230813835 2120667469 -219889994
        -1624593091 -1091592905 -572830152 -276109356</internalNodes>
      <leafValues>
        -2.0784345269203186e-01 2.1902585029602051e-01</leafValues></_>
    <_>
      <internalNodes>
        0 -1 32491 -890705419 -848537468 -1159211050 1309431556
        -623751181 -2002152620 1545212912 -1959872452</internalNodes>
      <leafValues>
        -2.3287452757358551e-01 1.8690964579582214e-01</leafValues></_>
    <_>
      <internalNodes>
        0 -1 58172 -464147580 815325456 1305059250 929281906 -645354752
        906103184 -186956636 14464880</internalNodes>
      <leafValues>
        -3.3715113997459412e-01 1.3242726027965546e-01</leafValues></_>
    <_>
      <internalNodes>
        0 -1 30021 -453054768 2138800169 -378471536 794906387 -626009923
        -417559012 -361522978 -1056647672</internalNodes>
      <leafValues>
        -2.2785061597824097e-01 1.8822211027145386e-01</leafValues></_>
    <_>
      <internalNodes>
        0 -1 39563 705189125 -1828717097 -1159327944 657300864 550843320
        -872417885 -516404177 -1398116301</internalNodes>
      <leafValues>
        -2.2243356704711914e-01 2.0316620171070099e-01</leafValues></_>
    <_>
      <internalNodes>
        0 -1 47352 -799561819 297048100 -1355977440 -1112018309
        1868301479 1593624060 -1065609831 1028389167</internalNodes>
      <leafValues>
        -1.7686924338340759e-01 2.5207751989364624e-01</leafValues></_>
    <_>
      <internalNodes>
        0 -1 3563 -58728313 -88651081 1889014603 2142891532 -320013282
        1159629629 -187248460 926729577</internalNodes>
      <leafValues>
        -1.9037860631942749e-01 2.2947692871093750e-01</leafValues></_>
    <_>
      <internalNodes>
        0 -1 17734 351642174 -1106618930 -1877990888 -1730130776
        -2068864504 1486885184 -1169630661 739557568</internalNodes>
      <leafValues>
        -3.5940876603126526e-01 1.2122292071580887e-01</leafValues></_>
    <_>
      <internalNodes>
        0 -1 38680 150281138 -1885204803 1073686341 -1454621887
        760636859 -343032727 -1754175737 981987671</internalNodes>
      <leafValues>
        -1.9717024266719818e-01 2.3484832048416138e-01</leafValues></_>
    <_>
      <internalNodes>
        0 -1 55652 -1779717247 280554938 -594980640 -1673745163
        1188805500 46164625 1771167872 390552</internalNodes>
      <leafValues>
        -3.3103436231613159e-01 1.3721375167369843e-01</leafValues></_>
    <_>
      <internalNodes>
        0 -1 51185 209846402 578948992 1816143556 705835802 -1551807469
        -1409081153 937749348 -345050452</internalNodes>
      <leafValues>
        -2.9122641682624817e-01 1.5227286517620087e-01</leafValues></_>
    <_>
      <internalNodes>
        0 -1 40228 -1023613051 2065987039 -1410679110 1762504255
        -1652797549 -696418891 562472955 -1824827737</internalNodes>
      <leafValues>
        -1.5735003352165222e-01 2.8534799814224243e-01</leafValues></_>
    <_>
      <internalNodes>
        0 -1 27111 -382733867 -630537710 994897789 -575442408 1426686364
        -11489971 717643993 -666284001</internalNodes>
      <leafValues>
        -1.5644979476928711e-01 2.8597399592399597e-01</leafValues></_>
    <_>
      <internalNodes>
        0 -1 32122 -791236724 1073276029 1150813206 -1174294378
        -924301424 -156106576 1616267199 432076434</internalNodes>
      <leafValues>
        -2.5577580928802490e-01 1.7466598749160767e-01</leafValues></_>
    <_>
      <internalNodes>
        0 -1 55207 -2067895673 604504951 -586486817 777498515 -46243531
        722379152 -386488555 2083832849</internalNodes>
      <leafValues>
        -3.1708589196205139e-01 1.5724973380565643e-01</leafValues></_>
    <_>
      <internalNodes>
        0 -1 61862 -1658345613 394658944 1624458895 880829660
        -1340101024 1665124661 713810455 -1964077576</internalNodes>
      <leafValues>
        -2.4193105101585388e-01 1.8483471870422363e-01</leafValues></_>
    <_>
      <internalNodes>
        0 -1 581 1058464338 1210364659 -1736198490 -1889610794
        -2143123551 -1979964886 1289014206 -313581551</internalNodes>
      <leafValues>
        -2.1458996832370758e-01 2.1632100641727448e-01</leafValues></_>
    <_>
      <internalNodes>
        0 -1 23722 -238047321 -776344693 -16882443 -978330376 1432991150
        -258670657 -1124847701 1903871863</internalNodes>
      <leafValues>
        -1.6325528919696808e-01 2.8166711330413818e-01</leafValues></_>
    <_>
      <internalNodes>
        0 -1 199 1317150270 1301214807 -917515865 -1790725502 -738744677
        -977624650 -1276820080 -2117007616</internalNodes>
      <leafValues>
        -2.5375846028327942e-01 1.8508903682231903e-01</leafValues></_>
    <_>
      <internalNodes>
        0 -1 62920 -78127499 -311829803 -1163829629 -622213429
        -655364404 -545206788 -548793198 -1615163155</internalNodes>
      <leafValues>
        -1.6708439588546753e-01 2.8498381376266479e-01</leafValues></_>
    <_>
      <internalNodes>
        0 -1 43365 1682883664 140533441 -1801796591 1816573970
        1230447680 -1153827142 -15576000 -87812496</internalNodes>
      <leafValues>
        -3.3473709225654602e-01 1.3916465640068054e-01</leafValues></_>
    <_>
      <internalNodes>
        0 -1 58630 -675827277 678286884 267438815 -240911188 1291119763
        -450497548 1575878295 2075868243</internalNodes>
      <leafValues>
        -1.6089032590389252e-01 2.8713533282279968e-01</leafValues></_>
    <_>
      <internalNodes>
        0 -1 60771 786796193 1174245 356523456 264423116 1393429733
        -1399357436 156234005 -554266244</internalNodes>
      <leafValues>
        -2.6179972290992737e-01 1.6984221339225769e-01</leafValues></_>
    <_>
      <internalNodes>
        0 -1 39133 -733679625 1902112517 2146995896 2070525759
        1564534765 -172741123 2738363 -548168485</internalNodes>
      <leafValues>
        -1.1568883806467056e-01 3.8280230760574341e-01</leafValues></_>
    <_>
      <internalNodes>
        0 -1 49236 -826102000 1440148132 -1389283 -1141043564 1312335859
        -1133662968 -143429347 143327719</internalNodes>
      <leafValues>
        -2.0404803752899170e-01 2.2040666639804840e-01</leafValues></_></weakClassifiers></stage7>
</opencv_storage>
