<?xml version="1.0"?>
<opencv_storage>
<stage13>
  <maxWeakCount>67</maxWeakCount>
  <stageThreshold>-9.1578608751296997e-01</stageThreshold>
  <weakClassifiers>
    <_>
      <internalNodes>
        0 -1 65169 -884808064 -357261176 -970911336 -307702912
        1352706485 -1701003095 692410368 671095296</internalNodes>
      <leafValues>
        -4.0084898471832275e-01 7.9152196645736694e-02</leafValues></_>
    <_>
      <internalNodes>
        0 -1 3231 1229965299 -520568073 -114711044 -1224841110
        -1012723371 -13172325 -146892356 -1364272561</internalNodes>
      <leafValues>
        -1.7740878462791443e-01 1.7323690652847290e-01</leafValues></_>
    <_>
      <internalNodes>
        0 -1 46110 -1511032513 -524355478 -1208041481 879148088
        -59170991 1717763141 -757187339 1871320529</internalNodes>
      <leafValues>
        -1.6610194742679596e-01 1.8537980318069458e-01</leafValues></_>
    <_>
      <internalNodes>
        0 -1 27000 -848118999 -1371518643 -608999939 -301714278
        -121475937 -1648395017 -43175906 -21333930</internalNodes>
      <leafValues>
        -1.8592642247676849e-01 1.6186831891536713e-01</leafValues></_>
    <_>
      <internalNodes>
        0 -1 67483 -345735363 -198123972 -1364900140 -262911828
        -1754337481 -434245644 -386082232 -172229402</internalNodes>
      <leafValues>
        -1.5308912098407745e-01 1.9397959113121033e-01</leafValues></_>
    <_>
      <internalNodes>
        0 -1 38463 264511039 -812513698 -624554131 -363886485
        -1562776806 -1692218495 -901205792 453097138</internalNodes>
      <leafValues>
        -2.0250304043292999e-01 1.5369318425655365e-01</leafValues></_>
    <_>
      <internalNodes>
        0 -1 10336 2088244220 -901027220 1611783314 1889824988
        -1264004536 -1028511231 1884935634 1406814668</internalNodes>
      <leafValues>
        -2.1475377678871155e-01 1.4304910600185394e-01</leafValues></_>
    <_>
      <internalNodes>
        0 -1 16133 -732101007 -7379508 -1607438710 -487959838 172546821
        2020797585 638600179 507120844</internalNodes>
      <leafValues>
        -2.3922529816627502e-01 1.2542183697223663e-01</leafValues></_>
    <_>
      <internalNodes>
        0 -1 58370 1134302240 764035872 -1447256895 -1345365422
        982929690 -1079435028 -2130886575 -1366541072</internalNodes>
      <leafValues>
        -2.7917170524597168e-01 1.1113131791353226e-01</leafValues></_>
    <_>
      <internalNodes>
        0 -1 35999 2136057532 513691948 -1967124706 2096466590
        -2006149742 -1709673808 1066646426 1426172934</internalNodes>
      <leafValues>
        -1.9709827005863190e-01 1.6279062628746033e-01</leafValues></_>
    <_>
      <internalNodes>
        0 -1 9820 -2113043948 -208010985 116332657 1981493046 262773293
        1112005158 322375060 2146906106</internalNodes>
      <leafValues>
        -1.7751331627368927e-01 1.8489626049995422e-01</leafValues></_>
    <_>
      <internalNodes>
        0 -1 28617 -1374011684 -2098579367 -1006494099 -764533158
        13663296 -1429118459 -614940399 308834774</internalNodes>
      <leafValues>
        -2.9474943876266479e-01 9.5413655042648315e-02</leafValues></_>
    <_>
      <internalNodes>
        0 -1 60705 1331015443 -1074480480 1941958449 -572654723
        1483874149 -807874933 -403405135 -52431625</internalNodes>
      <leafValues>
        -1.3709148764610291e-01 2.3324671387672424e-01</leafValues></_>
    <_>
      <internalNodes>
        0 -1 23750 761992913 -2017979658 296768845 580313055 -1719555048
        -1082484605 2144970503 210249161</internalNodes>
      <leafValues>
        -2.0783498883247375e-01 1.6482959687709808e-01</leafValues></_>
    <_>
      <internalNodes>
        0 -1 61932 -1126074393 -219426588 -454987300 -3231820
        -1885145131 -428278051 -930553928 -1279639813</internalNodes>
      <leafValues>
        -1.3372093439102173e-01 2.5327128171920776e-01</leafValues></_>
    <_>
      <internalNodes>
        0 -1 59795 -1844407227 1796121024 -640323947 32113534 1624460013
        -1678936180 -1618745308 -1550133511</internalNodes>
      <leafValues>
        -1.7726443707942963e-01 1.9279585778713226e-01</leafValues></_>
    <_>
      <internalNodes>
        0 -1 24331 -940773929 2126822256 -1694535810 1952656747
        1422675450 693165797 -96829622 2134976855</internalNodes>
      <leafValues>
        -1.8061994016170502e-01 1.8729571998119354e-01</leafValues></_>
    <_>
      <internalNodes>
        0 -1 66413 -83106883 573224350 -383623080 -1326785662 264322000
        1143474728 -90160632 616070882</internalNodes>
      <leafValues>
        -2.2111243009567261e-01 1.6463516652584076e-01</leafValues></_>
    <_>
      <internalNodes>
        0 -1 43736 -2009159043 868208217 2130619492 -77085344
        -1346614279 1651146183 734309609 -615812982</internalNodes>
      <leafValues>
        -1.6468724608421326e-01 2.1923959255218506e-01</leafValues></_>
    <_>
      <internalNodes>
        0 -1 8987 2118952742 274050276 -1265237697 1522886956 1888606388
        -1534035583 -2079827750 1880437485</internalNodes>
      <leafValues>
        -2.0491215586662292e-01 1.7386288940906525e-01</leafValues></_>
    <_>
      <internalNodes>
        0 -1 46665 1660864420 2007574523 1067589037 1601540641 471306157
        -1095690699 1070118811 -1216694339</internalNodes>
      <leafValues>
        -1.6220068931579590e-01 2.1290805935859680e-01</leafValues></_>
    <_>
      <internalNodes>
        0 -1 6704 -91755936 -1905502655 235422266 1820785182 -795572852
        -734328765 -258029160 1220861803</internalNodes>
      <leafValues>
        -2.8099358081817627e-01 1.1882231384515762e-01</leafValues></_>
    <_>
      <internalNodes>
        0 -1 60921 308283988 958632291 -914346093 -682294827 433658409
        -68014943 2140947028 -2145377968</internalNodes>
      <leafValues>
        -3.2299289107322693e-01 1.1380098760128021e-01</leafValues></_>
    <_>
      <internalNodes>
        0 -1 21983 -420093957 -572133889 -202685021 -77742669
        -1224804183 -808486827 -1143416402 -1061381</internalNodes>
      <leafValues>
        -7.5880862772464752e-02 4.6877762675285339e-01</leafValues></_>
    <_>
      <internalNodes>
        0 -1 12759 1543539056 -982429167 -1796160097 365171890
        1354542496 817139129 1946421802 1847632928</internalNodes>
      <leafValues>
        -2.7612015604972839e-01 1.2684056162834167e-01</leafValues></_>
    <_>
      <internalNodes>
        0 -1 34983 -455346413 -905955274 -2042400734 1141293734
        -2097488272 -1876519888 1606976018 1165207927</internalNodes>
      <leafValues>
        -2.6080256700515747e-01 1.4014549553394318e-01</leafValues></_>
    <_>
      <internalNodes>
        0 -1 35380 -1962975563 -1507509224 -1350562923 -1072769859
        -1647420475 177409269 -381620029 417564122</internalNodes>
      <leafValues>
        -2.0433673262596130e-01 1.7367796599864960e-01</leafValues></_>
    <_>
      <internalNodes>
        0 -1 22039 137034772 -1801694356 -1743332202 -1343653860
        1323305086 -2038656859 1895892111 -2144525814</internalNodes>
      <leafValues>
        -2.1672059595584869e-01 1.6746675968170166e-01</leafValues></_>
    <_>
      <internalNodes>
        0 -1 65868 -35949983 -773104618 1049251457 1085233231
        -1943876648 -704722450 -1457069504 1999167579</internalNodes>
      <leafValues>
        -2.1976928412914276e-01 1.6389365494251251e-01</leafValues></_>
    <_>
      <internalNodes>
        0 -1 30790 -70783281 2045513575 -1074614539 2066205415
        1006477219 1321770705 -2044842365 -100667249</internalNodes>
      <leafValues>
        -9.0737409889698029e-02 4.1820186376571655e-01</leafValues></_>
    <_>
      <internalNodes>
        0 -1 50946 -949702895 -1128419738 2130509138 -281912719
        654625748 -1481486360 -118662051 782455094</internalNodes>
      <leafValues>
        -1.8033792078495026e-01 2.0297512412071228e-01</leafValues></_>
    <_>
      <internalNodes>
        0 -1 2872 2038394769 -1256620076 -1074090513 903980716
        2134232825 -336206018 -34837442 -348425293</internalNodes>
      <leafValues>
        -1.1537363380193710e-01 3.3777949213981628e-01</leafValues></_>
    <_>
      <internalNodes>
        0 -1 65260 -179221721 -671089235 519322432 -253791935 -62937445
        -1895319660 -1829744599 -887387166</internalNodes>
      <leafValues>
        -1.2530508637428284e-01 2.8795486688613892e-01</leafValues></_>
    <_>
      <internalNodes>
        0 -1 45238 713568672 671764496 5343168 940336769 -1721988455
        -2085615308 1366679778 1028135784</internalNodes>
      <leafValues>
        -3.1017273664474487e-01 1.2642715871334076e-01</leafValues></_>
    <_>
      <internalNodes>
        0 -1 1495 -250329769 -170113659 -648550456 -219885314 -488840522
        1076730147 1708962272 -1253571140</internalNodes>
      <leafValues>
        -1.9458776712417603e-01 1.9491966068744659e-01</leafValues></_>
    <_>
      <internalNodes>
        0 -1 4875 -1342334979 1139572214 -203862866 -645597298
        2004354450 475774274 -941633366 -1079787094</internalNodes>
      <leafValues>
        -1.3658855855464935e-01 2.8788486123085022e-01</leafValues></_>
    <_>
      <internalNodes>
        0 -1 0 -134654787 -237168361 -2006735892 1624916638 1360945188
        1548231190 358466715 419961966</internalNodes>
      <leafValues>
        -2.7000224590301514e-01 1.3856257498264313e-01</leafValues></_>
    <_>
      <internalNodes>
        0 -1 40952 1943513007 2142285345 -570526604 2144156197
        2069212574 -144610191 578342570 -607169865</internalNodes>
      <leafValues>
        -1.1886066198348999e-01 3.2086783647537231e-01</leafValues></_>
    <_>
      <internalNodes>
        0 -1 52628 1857315345 156477581 -525341791 -1126707148
        1892371436 1541145281 -332796601 -1929621024</internalNodes>
      <leafValues>
        -2.3970057070255280e-01 1.6079615056514740e-01</leafValues></_>
    <_>
      <internalNodes>
        0 -1 65384 704478735 713573942 1956556642 -1685529248 -37589443
        -431426433 1588880724 1984543916</internalNodes>
      <leafValues>
        -2.5624188780784607e-01 1.5428997576236725e-01</leafValues></_>
    <_>
      <internalNodes>
        0 -1 62920 -10551325 -1890603778 -21934404 1666186548 -203737178
        1855778045 -1124167989 -72673141</internalNodes>
      <leafValues>
        -1.1572488397359848e-01 3.4626826643943787e-01</leafValues></_>
    <_>
      <internalNodes>
        0 -1 32072 -540483199 388703269 -927069844 293170341 1819710687
        -33895310 961660923 1783567617</internalNodes>
      <leafValues>
        -1.6435509920120239e-01 2.3262700438499451e-01</leafValues></_>
    <_>
      <internalNodes>
        0 -1 45200 -2078080972 -1164675374 -2096490469 1334067270
        1618020389 -1442639391 -661051118 -892800508</internalNodes>
      <leafValues>
        -2.7987328171730042e-01 1.3926905393600464e-01</leafValues></_>
    <_>
      <internalNodes>
        0 -1 34840 -1237811337 -781492195 -218122518 -9446468 -453470472
        -1250128596 -254541189 -76561175</internalNodes>
      <leafValues>
        -1.3125859200954437e-01 3.1144678592681885e-01</leafValues></_>
    <_>
      <internalNodes>
        0 -1 67588 -1743339454 -1856563185 503472028 -1610599600
        728243287 103563284 -1695099520 46869340</internalNodes>
      <leafValues>
        -2.7897521853446960e-01 1.4295509457588196e-01</leafValues></_>
    <_>
      <internalNodes>
        0 -1 52609 -724654335 -1632106787 -612323072 478319365
        1218912753 1489707696 542534384 203301132</internalNodes>
      <leafValues>
        -3.0021569132804871e-01 1.3170509040355682e-01</leafValues></_>
    <_>
      <internalNodes>
        0 -1 60827 1898115730 906557825 526399252 -1996187800 1101025449
        551135940 -1069477776 155867201</internalNodes>
      <leafValues>
        -2.9601165652275085e-01 1.3454663753509521e-01</leafValues></_>
    <_>
      <internalNodes>
        0 -1 59800 -690323531 -38764116 -624567584 -1807682162
        -351152760 -215682175 -1383713960 1593874775</internalNodes>
      <leafValues>
        -2.2363197803497314e-01 1.7781116068363190e-01</leafValues></_>
    <_>
      <internalNodes>
        0 -1 60150 -598514327 -762494636 -669855332 -1658358951
        1805280528 -538850941 1489030410 -1925547515</internalNodes>
      <leafValues>
        -2.1981452405452728e-01 1.8663468956947327e-01</leafValues></_>
    <_>
      <internalNodes>
        0 -1 43536 -2110116223 710646769 1141076824 -393330077 848180280
        -66163833 1993109303 -358719769</internalNodes>
      <leafValues>
        -2.2555673122406006e-01 1.9140073657035828e-01</leafValues></_>
    <_>
      <internalNodes>
        0 -1 37059 -533414469 866381487 -537278824 924947711 2062157034
        -1638354956 -2069608373 1780155587</internalNodes>
      <leafValues>
        -1.4971673488616943e-01 2.7537906169891357e-01</leafValues></_>
    <_>
      <internalNodes>
        0 -1 60836 35030156 1452806220 2082944605 -2004842492 766415461
        1577945355 984072053 1003137432</internalNodes>
      <leafValues>
        -2.8322818875312805e-01 1.4931723475456238e-01</leafValues></_>
    <_>
      <internalNodes>
        0 -1 36203 660018358 1711819486 -1182595768 1089014570
        1801271635 -580218536 -392513566 321983249</internalNodes>
      <leafValues>
        -2.6851090788841248e-01 1.5193425118923187e-01</leafValues></_>
    <_>
      <internalNodes>
        0 -1 1007 1441720413 360447959 -824197559 -839987318 1227375036
        -194568713 371039839 -1737628017</internalNodes>
      <leafValues>
        -1.4763998985290527e-01 2.8229230642318726e-01</leafValues></_>
    <_>
      <internalNodes>
        0 -1 44926 363976634 167600892 -2147449018 152001760 1784580898
        -1258515832 1800223692 1600489194</internalNodes>
      <leafValues>
        -2.0825642347335815e-01 1.9632741808891296e-01</leafValues></_>
    <_>
      <internalNodes>
        0 -1 27572 719319559 -434964236 -342055726 1413532820 -609588895
        -261019648 1261354098 -1353726729</internalNodes>
      <leafValues>
        -2.2023540735244751e-01 1.8952478468418121e-01</leafValues></_>
    <_>
      <internalNodes>
        0 -1 66810 -793836978 1068958321 982567293 -141478255 460231854
        24445683 57166839 1421777032</internalNodes>
      <leafValues>
        -2.1722337603569031e-01 1.8851473927497864e-01</leafValues></_>
    <_>
      <internalNodes>
        0 -1 64587 -538227388 791911440 -458931 -1827480526 -176193650
        -174829898 1862142601 -2078810833</internalNodes>
      <leafValues>
        -1.9360640645027161e-01 2.1096748113632202e-01</leafValues></_>
    <_>
      <internalNodes>
        0 -1 48315 202507284 1612339164 -2121550698 -1342376654 21325396
        -340514575 -1377111756 648415332</internalNodes>
      <leafValues>
        -3.8426846265792847e-01 1.0767166316509247e-01</leafValues></_>
    <_>
      <internalNodes>
        0 -1 53453 267806373 290811697 -25673743 -1849610497 -52453431
        -70746363 -1134543222 1248293395</internalNodes>
      <leafValues>
        -1.7959718406200409e-01 2.3108200728893280e-01</leafValues></_>
    <_>
      <internalNodes>
        0 -1 66376 -688541899 -1178670138 -12650830 -1317373847
        -1023577222 -1159731278 -816686523 -1146385250</internalNodes>
      <leafValues>
        -1.4852294325828552e-01 2.7809682488441467e-01</leafValues></_>
    <_>
      <internalNodes>
        0 -1 2860 -2123448067 -864856315 -536067740 1912890990 551845656
        1244094732 1026032516 2003192700</internalNodes>
      <leafValues>
        -2.8507795929908752e-01 1.5082082152366638e-01</leafValues></_>
    <_>
      <internalNodes>
        0 -1 29076 -368071138 1332144962 1367348076 2129299464 548540645
        437291172 -363303985 813189877</internalNodes>
      <leafValues>
        -2.8248721361160278e-01 1.4370255172252655e-01</leafValues></_>
    <_>
      <internalNodes>
        0 -1 34705 -655708784 496048205 2055897940 -1474417776
        -536428519 -313744483 -1918895495 -390183004</internalNodes>
      <leafValues>
        -2.2976486384868622e-01 1.8008637428283691e-01</leafValues></_>
    <_>
      <internalNodes>
        0 -1 3321 612868484 1746472289 1241585876 73073476 49304917
        1075380247 180590794 -1691914150</internalNodes>
      <leafValues>
        -2.8140324354171753e-01 1.5202936530113220e-01</leafValues></_>
    <_>
      <internalNodes>
        0 -1 9869 -1934159724 1829077644 1418875558 -184060723
        -1289598851 169902087 323257074 500977884</internalNodes>
      <leafValues>
        -2.6188513636589050e-01 1.6861948370933533e-01</leafValues></_>
    <_>
      <internalNodes>
        0 -1 44809 450063533 578369661 -628748008 -1945546623
        -1999063292 -273552496 -493049408 405537078</internalNodes>
      <leafValues>
        -2.8896397352218628e-01 1.4739131927490234e-01</leafValues></_></weakClassifiers></stage13>
</opencv_storage>
