<?xml version="1.0"?>
<opencv_storage>
<stage4>
  <maxWeakCount>53</maxWeakCount>
  <stageThreshold>-1.0633523464202881e+00</stageThreshold>
  <weakClassifiers>
    <_>
      <internalNodes>
        0 -1 3117 -986781778 -158142910 2086030476 -937384318 347478516
        -67161427 -87527425 -324739070</internalNodes>
      <leafValues>
        -3.2136651873588562e-01 1.6956920921802521e-01</leafValues></_>
    <_>
      <internalNodes>
        0 -1 2990 -209731067 -822475929 -1239952314 -486608954
        -157330427 1444305789 1405080116 2012127197</internalNodes>
      <leafValues>
        -2.7335202693939209e-01 1.9134582579135895e-01</leafValues></_>
    <_>
      <internalNodes>
        0 -1 39007 4532275 203327846 -605573195 -1426664706 -97052889
        -1409734173 -341150896 -320276688</internalNodes>
      <leafValues>
        -2.9804167151451111e-01 1.6310955584049225e-01</leafValues></_>
    <_>
      <internalNodes>
        0 -1 66198 -1452857597 -1568094466 765650751 -894779731
        -52528267 -269784399 -52091052 -1360200347</internalNodes>
      <leafValues>
        -2.4385587871074677e-01 1.9752964377403259e-01</leafValues></_>
    <_>
      <internalNodes>
        0 -1 62667 2010513300 -552539462 -1321145576 -537006552
        -731255395 -1398216037 1540213376 -41827456</internalNodes>
      <leafValues>
        -2.8462728857994080e-01 1.5049758553504944e-01</leafValues></_>
    <_>
      <internalNodes>
        0 -1 1294 1121300926 471778554 -515763876 -538907056 202512663
        -1303136304 484894800 1540445846</internalNodes>
      <leafValues>
        -2.3860938847064972e-01 2.0030421018600464e-01</leafValues></_>
    <_>
      <internalNodes>
        0 -1 67164 -203424231 -258337658 -259555239 1354785020
        -606670258 -251680394 1117379456 -201659976</internalNodes>
      <leafValues>
        -2.3429316282272339e-01 1.9496767222881317e-01</leafValues></_>
    <_>
      <internalNodes>
        0 -1 42754 641343779 841902963 1998872493 -274399343 1623671002
        -74989169 -596177067 720659012</internalNodes>
      <leafValues>
        -2.7386265993118286e-01 1.8425628542900085e-01</leafValues></_>
    <_>
      <internalNodes>
        0 -1 55720 606798268 89074336 1401452341 -1398884814 920874096
        -1258700017 -1175773900 -325301260</internalNodes>
      <leafValues>
        -3.3826461434364319e-01 1.1252354085445404e-01</leafValues></_>
    <_>
      <internalNodes>
        0 -1 47058 1927783329 1060697972 -1166083080 1058376208
        -466801223 1299511184 1785262077 956268503</internalNodes>
      <leafValues>
        -1.7355240881443024e-01 2.5181230902671814e-01</leafValues></_>
    <_>
      <internalNodes>
        0 -1 67106 -740968860 -371455298 73168804 -461379338 -209260296
        -1005276680 1326739584 361431240</internalNodes>
      <leafValues>
        -2.8419044613838196e-01 1.4972539246082306e-01</leafValues></_>
    <_>
      <internalNodes>
        0 -1 20777 1498932514 -143138898 -1661460756 2095443494
        1412805882 1559516828 966299083 2134979010</internalNodes>
      <leafValues>
        -1.7643752694129944e-01 2.4468474090099335e-01</leafValues></_>
    <_>
      <internalNodes>
        0 -1 60560 706937617 -1154051175 -1680179181 -1361482907
        -496213211 859646116 -1885929744 -325262540</internalNodes>
      <leafValues>
        -2.8943714499473572e-01 1.4081504940986633e-01</leafValues></_>
    <_>
      <internalNodes>
        0 -1 41627 584451377 -799753316 1319524209 2110793435 -336
        -1074692828 -1366466197 -1965479935</internalNodes>
      <leafValues>
        -1.9170343875885010e-01 2.3106272518634796e-01</leafValues></_>
    <_>
      <internalNodes>
        0 -1 67367 -993614966 -532614608 1414685492 -1603755808
        -348067212 -1739812844 -711417332 402688520</internalNodes>
      <leafValues>
        -3.7098604440689087e-01 1.2476078420877457e-01</leafValues></_>
    <_>
      <internalNodes>
        0 -1 47370 212472401 -1840344108 -1240942315 -1896966668
        -708165227 -342866214 -113316940 -19392608</internalNodes>
      <leafValues>
        -2.9755008220672607e-01 1.3796308636665344e-01</leafValues></_>
    <_>
      <internalNodes>
        0 -1 30008 -399072768 -1816793500 -918779956 262744579
        -1562569552 -1908890852 -387110302 155464202</internalNodes>
      <leafValues>
        -2.9712355136871338e-01 1.6402791440486908e-01</leafValues></_>
    <_>
      <internalNodes>
        0 -1 29521 -958208411 812035720 -1398112516 -773083480
        1715884021 2094327006 1575575263 733770503</internalNodes>
      <leafValues>
        -2.0750994980335236e-01 2.2501142323017120e-01</leafValues></_>
    <_>
      <internalNodes>
        0 -1 67338 -90664895 -263509286 774560007 2130386170 894578442
        1756024339 -665275866 -1147163718</internalNodes>
      <leafValues>
        -1.9576813280582428e-01 2.4943651258945465e-01</leafValues></_>
    <_>
      <internalNodes>
        0 -1 41240 141951282 754639092 -261852097 -1360203171 -862626164
        -84597884 -99297673 -24497808</internalNodes>
      <leafValues>
        -2.5787347555160522e-01 1.8598435819149017e-01</leafValues></_>
    <_>
      <internalNodes>
        0 -1 3718 -229871458 -45072140 -452393968 -800759672 -1750756352
        -1777787880 -2018496025 1360664318</internalNodes>
      <leafValues>
        -2.7018332481384277e-01 1.7400863766670227e-01</leafValues></_>
    <_>
      <internalNodes>
        0 -1 45616 36708952 153232208 1872687068 -1236527688 1024076848
        -101027012 -1171119319 -355962460</internalNodes>
      <leafValues>
        -3.6428016424179077e-01 1.2333897501230240e-01</leafValues></_>
    <_>
      <internalNodes>
        0 -1 2926 -134234177 -109621684 -405062819 1881668542
        -1124484584 2069763893 -1189618785 -177212609</internalNodes>
      <leafValues>
        -1.0243275016546249e-01 4.2718911170959473e-01</leafValues></_>
    <_>
      <internalNodes>
        0 -1 29 -1933127964 258139975 -279271111 -1410807658 -310315900
        -520948759 1183634608 586396195</internalNodes>
      <leafValues>
        -2.7830874919891357e-01 1.6735911369323730e-01</leafValues></_>
    <_>
      <internalNodes>
        0 -1 16160 780056195 -1871007473 580622550 -1396649386
        -2068610393 -1611091952 231654681 -924763136</internalNodes>
      <leafValues>
        -2.3447655141353607e-01 2.1104332804679871e-01</leafValues></_>
    <_>
      <internalNodes>
        0 -1 52277 -2030434255 280666705 -771608233 -306189681
        1715109348 -95425973 -277250562 -1460793227</internalNodes>
      <leafValues>
        -2.8160488605499268e-01 1.7056410014629364e-01</leafValues></_>
    <_>
      <internalNodes>
        0 -1 57196 -1439395151 -85399084 -1188104627 -31836300
        -1191721240 -1661141649 922480565 -58013260</internalNodes>
      <leafValues>
        -2.0238424837589264e-01 2.4498085677623749e-01</leafValues></_>
    <_>
      <internalNodes>
        0 -1 50759 1925046945 -1741639763 -1415627248 766965625
        -723009651 1704394729 1373476298 1239278838</internalNodes>
      <leafValues>
        -2.1035844087600708e-01 2.2975812852382660e-01</leafValues></_>
    <_>
      <internalNodes>
        0 -1 9868 -1979710976 704989906 -1994686448 239668032 -187957776
        37837360 -1685991674 387517596</internalNodes>
      <leafValues>
        -3.8714215159416199e-01 1.2491913139820099e-01</leafValues></_>
    <_>
      <internalNodes>
        0 -1 62123 -816345780 801048853 -777385016 621925294 -215685696
        -184705147 -397114932 541576402</internalNodes>
      <leafValues>
        -2.5998371839523315e-01 1.8685048818588257e-01</leafValues></_>
    <_>
      <internalNodes>
        0 -1 29993 318046035 1534836511 -1090538119 -1486127222
        1567929785 -25399439 803077759 -373088397</internalNodes>
      <leafValues>
        -1.2213495373725891e-01 3.7483137845993042e-01</leafValues></_>
    <_>
      <internalNodes>
        0 -1 2379 -1389957175 -420852107 788135897 -433271308 -52570338
        -160442537 -1934279016 -5570725</internalNodes>
      <leafValues>
        -1.9142611324787140e-01 2.5771409273147583e-01</leafValues></_>
    <_>
      <internalNodes>
        0 -1 1496 -579674219 -824776475 -1424782982 -221288516
        -672344476 -837359316 1364890272 1181548548</internalNodes>
      <leafValues>
        -2.5823435187339783e-01 1.9322679936885834e-01</leafValues></_>
    <_>
      <internalNodes>
        0 -1 169 2120041704 -85929920 269889754 -330754737 -1338263038
        -1115799474 1078235338 1880667295</internalNodes>
      <leafValues>
        -2.9728305339813232e-01 1.7101518809795380e-01</leafValues></_>
    <_>
      <internalNodes>
        0 -1 29276 -1395677677 -1001862242 -845116117 -360354490
        -285531564 1859488171 -1166193707 -20452410</internalNodes>
      <leafValues>
        -2.3317253589630127e-01 2.1515038609504700e-01</leafValues></_>
    <_>
      <internalNodes>
        0 -1 16453 1362666492 14606730 -2126675610 -581901330 -464059885
        -971460576 1942323400 1502986002</internalNodes>
      <leafValues>
        -2.7631399035453796e-01 1.8635828793048859e-01</leafValues></_>
    <_>
      <internalNodes>
        0 -1 46850 -1058349047 -730611805 -151306445 -1144539469
        339575697 -973613611 -689025046 209704738</internalNodes>
      <leafValues>
        -1.9991561770439148e-01 2.5837358832359314e-01</leafValues></_>
    <_>
      <internalNodes>
        0 -1 55792 22022323 -1735603254 -1802022113 521206097 -953517724
        689625227 -1442905375 -19996960</internalNodes>
      <leafValues>
        -2.4127933382987976e-01 2.1701854467391968e-01</leafValues></_>
    <_>
      <internalNodes>
        0 -1 41472 -2071986383 311717873 1038626616 353331059 520456113
        2136801276 920460746 999154967</internalNodes>
      <leafValues>
        -2.0221796631813049e-01 2.6659423112869263e-01</leafValues></_>
    <_>
      <internalNodes>
        0 -1 3094 -49292463 -445108466 1727982950 2047486348 1068989821
        894901573 785368193 1932506264</internalNodes>
      <leafValues>
        -2.2374436259269714e-01 2.4023158848285675e-01</leafValues></_>
    <_>
      <internalNodes>
        0 -1 50730 330498423 -1441955635 -1718608999 -1105845831
        -1445639505 -1295298296 -188013381 -1171381583</internalNodes>
      <leafValues>
        -2.4202546477317810e-01 2.1065312623977661e-01</leafValues></_>
    <_>
      <internalNodes>
        0 -1 37075 -222484433 148836405 1762079759 1391751182 1996442482
        -30332765 -74555369 -1104617884</internalNodes>
      <leafValues>
        -2.6564249396324158e-01 1.9881738722324371e-01</leafValues></_>
    <_>
      <internalNodes>
        0 -1 67325 -228154652 -1007113158 1274891889 -916342028
        -1798009554 -576627275 2097127717 -1065256</internalNodes>
      <leafValues>
        -2.1317385137081146e-01 2.5257048010826111e-01</leafValues></_>
    <_>
      <internalNodes>
        0 -1 60582 -732852447 575863061 261125152 -2001653520 1366392144
        617369926 -421125376 1424094226</internalNodes>
      <leafValues>
        -4.0372499823570251e-01 1.3417701423168182e-01</leafValues></_>
    <_>
      <internalNodes>
        0 -1 19782 -1475723403 656409616 -1949033512 464319430
        -130794627 601569447 -86743276 1241538576</internalNodes>
      <leafValues>
        -4.2971342802047729e-01 1.2148053199052811e-01</leafValues></_>
    <_>
      <internalNodes>
        0 -1 50662 -235503483 -673120371 -1212793563 -1747731047
        1191146942 -2057519187 1149116395 450192684</internalNodes>
      <leafValues>
        -1.8671514093875885e-01 2.7929246425628662e-01</leafValues></_>
    <_>
      <internalNodes>
        0 -1 1235 -1289390283 -53103244 -180120679 -823363460 -1257200
        -264188647 -715075072 1956814910</internalNodes>
      <leafValues>
        -2.6939097046852112e-01 1.9290907680988312e-01</leafValues></_>
    <_>
      <internalNodes>
        0 -1 31339 -1969348574 718208442 -1881486255 616846602
        1400842230 -1732611426 1092513889 1722592465</internalNodes>
      <leafValues>
        -3.8608199357986450e-01 1.3624684512615204e-01</leafValues></_>
    <_>
      <internalNodes>
        0 -1 29289 -496783481 -1339926762 129805347 1072002662
        1820100056 1591864742 2121880669 1733020207</internalNodes>
      <leafValues>
        -2.1352928876876831e-01 2.5232607126235962e-01</leafValues></_>
    <_>
      <internalNodes>
        0 -1 67378 -353600908 -1063098222 1883637896 -140090666
        -376773704 680058258 587909068 2142931084</internalNodes>
      <leafValues>
        -2.4848154187202454e-01 2.1830394864082336e-01</leafValues></_>
    <_>
      <internalNodes>
        0 -1 4030 -1143669559 -145113346 -228417937 -3257988 -86590816
        -697934064 -162084925 -80853862</internalNodes>
      <leafValues>
        -1.5983526408672333e-01 3.2857730984687805e-01</leafValues></_>
    <_>
      <internalNodes>
        0 -1 29060 -1967815661 -2030131974 -1371646263 -635983145
        1973300107 2083577847 -261582053 -55135737</internalNodes>
      <leafValues>
        -1.9890905916690826e-01 2.6566508412361145e-01</leafValues></_>
    <_>
      <internalNodes>
        0 -1 29442 -1541481612 -1446230796 -579497285 -2104745904
        817200768 -215392907 -667269757 172548100</internalNodes>
      <leafValues>
        -3.3812889456748962e-01 1.5586902201175690e-01</leafValues></_></weakClassifiers></stage4>
</opencv_storage>
