<?xml version="1.0"?>
<opencv_storage>
<stage3>
  <maxWeakCount>52</maxWeakCount>
  <stageThreshold>-9.5895367860794067e-01</stageThreshold>
  <weakClassifiers>
    <_>
      <internalNodes>
        0 -1 2662 -25694258 -635783594 1298190862 -290919392 1238937436
        -124660427 -455554358 -190517589</internalNodes>
      <leafValues>
        -2.8836888074874878e-01 2.2283282876014709e-01</leafValues></_>
    <_>
      <internalNodes>
        0 -1 62711 1743253251 2075047859 -451446462 -1079906894
        -174729456 1065153457 -488777984 -993525917</internalNodes>
      <leafValues>
        -2.7225962281227112e-01 1.8948893249034882e-01</leafValues></_>
    <_>
      <internalNodes>
        0 -1 66342 -10488043 -252580261 -34109953 -1338449808 -210781317
        2018619394 -344855941 -268403942</internalNodes>
      <leafValues>
        -2.2022596001625061e-01 2.2675697505474091e-01</leafValues></_>
    <_>
      <internalNodes>
        0 -1 3487 149335746 -1669167845 743441855 -1349805438 -910085379
        -255285076 1769281933 10305617</internalNodes>
      <leafValues>
        -2.4094559252262115e-01 2.3547589778900146e-01</leafValues></_>
    <_>
      <internalNodes>
        0 -1 4862 -1379135681 -940286284 -1378861188 -331056948
        -1396856259 -1414383326 -1450919340 1413801105</internalNodes>
      <leafValues>
        -3.5976183414459229e-01 1.1956317722797394e-01</leafValues></_>
    <_>
      <internalNodes>
        0 -1 2860 -471874049 -159422553 -385893603 -251725890 -50340017
        -445366481 -1048929 -257</internalNodes>
      <leafValues>
        -1.6944859921932220e-01 3.5037449002265930e-01</leafValues></_>
    <_>
      <internalNodes>
        0 -1 41360 73598468 -1900146879 760647589 -1400097156 1419521376
        -1082207259 -550556307 -289924236</internalNodes>
      <leafValues>
        -2.7337819337844849e-01 1.9853340089321136e-01</leafValues></_>
    <_>
      <internalNodes>
        0 -1 1 -656654308 -13282104 -247406946 -93052906 -661080056
        -1940041364 -395775356 2065708610</internalNodes>
      <leafValues>
        -3.4833931922912598e-01 1.0591468214988708e-01</leafValues></_>
    <_>
      <internalNodes>
        0 -1 47115 2037744288 2064148276 945309104 1071941472 206283432
        1014023353 207506094 180338879</internalNodes>
      <leafValues>
        -2.1743673086166382e-01 2.1793682873249054e-01</leafValues></_>
    <_>
      <internalNodes>
        0 -1 49734 727486740 1259435893 -1823589923 -1212213530
        1003339152 -227983207 -526328152 138782426</internalNodes>
      <leafValues>
        -2.8480601310729980e-01 1.7094428837299347e-01</leafValues></_>
    <_>
      <internalNodes>
        0 -1 60736 -1382939887 -1996947939 -943734362 765214228
        -636018847 -876969699 -1090962128 -1392724816</internalNodes>
      <leafValues>
        -3.1057614088058472e-01 1.5428738296031952e-01</leafValues></_>
    <_>
      <internalNodes>
        0 -1 5005 -549456649 -320477291 -671143919 -1147060 -103164427
        -421528584 -236914974 -138420065</internalNodes>
      <leafValues>
        -1.5945520997047424e-01 3.4703978896141052e-01</leafValues></_>
    <_>
      <internalNodes>
        0 -1 44824 -2013130319 -1575164200 2038426715 -105546796
        1035886389 -1092812809 -614769797 -1369116736</internalNodes>
      <leafValues>
        -1.9427420198917389e-01 2.5247025489807129e-01</leafValues></_>
    <_>
      <internalNodes>
        0 -1 9869 -2012250904 -1056358102 -331950542 549929587
        -1772439230 1091161905 54875061 498996444</internalNodes>
      <leafValues>
        -3.5823467373847961e-01 1.1482954770326614e-01</leafValues></_>
    <_>
      <internalNodes>
        0 -1 2992 -1429139499 824053117 -1102507655 1079387080
        1489765636 158956036 -1157721663 2139036541</internalNodes>
      <leafValues>
        -2.5970634818077087e-01 1.8627025187015533e-01</leafValues></_>
    <_>
      <internalNodes>
        0 -1 15579 -439065216 1528888088 1025104824 -1694434976
        -654468800 -76008728 -2078410488 54546432</internalNodes>
      <leafValues>
        -4.3600249290466309e-01 1.1105893552303314e-01</leafValues></_>
    <_>
      <internalNodes>
        0 -1 67574 -276365473 -611709272 883640380 -372775350 -777786249
        -2079072577 -1140896108 -1212176997</internalNodes>
      <leafValues>
        -1.4302852749824524e-01 3.2708537578582764e-01</leafValues></_>
    <_>
      <internalNodes>
        0 -1 27739 2138946557 2146810736 -1224917066 -1275742988
        265927416 -358753090 1067498554 -715026926</internalNodes>
      <leafValues>
        -1.9722567498683929e-01 2.4441832304000854e-01</leafValues></_>
    <_>
      <internalNodes>
        0 -1 34021 -1540747753 1285737118 -975598052 -1404007702
        1858851285 -1460737025 -374518715 1020329348</internalNodes>
      <leafValues>
        -3.3984011411666870e-01 1.4410807192325592e-01</leafValues></_>
    <_>
      <internalNodes>
        0 -1 67446 -202641793 -76642704 -295013185 272299375 -134499235
        -683213212 -432820082 -784598406</internalNodes>
      <leafValues>
        -1.4744971692562103e-01 3.4831264615058899e-01</leafValues></_>
    <_>
      <internalNodes>
        0 -1 32161 1613229860 1429923342 -91738588 578425520 1425294580
        966200945 -386635684 801799687</internalNodes>
      <leafValues>
        -2.8321984410285950e-01 1.7868676781654358e-01</leafValues></_>
    <_>
      <internalNodes>
        0 -1 2288 -134700105 -502368914 1878716128 -421778462 1291304908
        -1451602595 -743602240 -134230909</internalNodes>
      <leafValues>
        -1.8185622990131378e-01 2.8203165531158447e-01</leafValues></_>
    <_>
      <internalNodes>
        0 -1 32500 -159108221 -583211012 1358290091 1411511034
        -115822763 -161976256 -2113156630 945949721</internalNodes>
      <leafValues>
        -2.4247559905052185e-01 2.0872819423675537e-01</leafValues></_>
    <_>
      <internalNodes>
        0 -1 60905 -508332174 -73656116 -554415309 1478767466 -342303750
        -1508628948 -1519585888 453516536</internalNodes>
      <leafValues>
        -2.5734552741050720e-01 1.9862696528434753e-01</leafValues></_>
    <_>
      <internalNodes>
        0 -1 48395 785917473 715932787 -1983400047 183243692 443030353
        2083977342 524635734 1221605204</internalNodes>
      <leafValues>
        -4.3536460399627686e-01 1.0734696686267853e-01</leafValues></_>
    <_>
      <internalNodes>
        0 -1 9969 1524385748 1604087732 689020282 -1790596716
        -1609652941 868098793 604181274 1112879272</internalNodes>
      <leafValues>
        -3.2793632149696350e-01 1.6003255546092987e-01</leafValues></_>
    <_>
      <internalNodes>
        0 -1 33557 -2110478685 1853885935 -1324581160 -1883885639
        1285845441 -358886725 215615559 544104805</internalNodes>
      <leafValues>
        -3.0333864688873291e-01 1.7990723252296448e-01</leafValues></_>
    <_>
      <internalNodes>
        0 -1 43680 821933367 -679805120 1550880820 -1077465652
        -1002646108 -1263444028 -364008737 -1145404232</internalNodes>
      <leafValues>
        -1.9750423729419708e-01 2.8361296653747559e-01</leafValues></_>
    <_>
      <internalNodes>
        0 -1 41337 -798708600 1412561456 416844948 944548408 1229490840
        -1804429911 2022263422 722162868</internalNodes>
      <leafValues>
        -2.7748635411262512e-01 1.9528874754905701e-01</leafValues></_>
    <_>
      <internalNodes>
        0 -1 19123 -588918274 -335610595 1076195738 -798135618
        -256990092 206621760 -169348702 -1144338312</internalNodes>
      <leafValues>
        -2.0908196270465851e-01 2.5333777070045471e-01</leafValues></_>
    <_>
      <internalNodes>
        0 -1 3354 -1190555696 773999025 1161906273 2004097634 -634062432
        991776802 1460146670 1058999789</internalNodes>
      <leafValues>
        -2.6522317528724670e-01 1.9445320963859558e-01</leafValues></_>
    <_>
      <internalNodes>
        0 -1 59261 248906788 -1104096369 -1448945284 -2088666203
        924256337 1945876388 -119512780 715138064</internalNodes>
      <leafValues>
        -4.9184030294418335e-01 1.1567188799381256e-01</leafValues></_>
    <_>
      <internalNodes>
        0 -1 67353 -18879765 -42177664 48560064 1374677148 -1052382066
        -1007098232 -1649090166 -74455829</internalNodes>
      <leafValues>
        -1.3594922423362732e-01 4.2651709914207458e-01</leafValues></_>
    <_>
      <internalNodes>
        0 -1 24463 -364632223 1242796667 -2066003539 241716390
        -244565936 2133475465 -24462984 -329351581</internalNodes>
      <leafValues>
        -2.5247403979301453e-01 2.1656891703605652e-01</leafValues></_>
    <_>
      <internalNodes>
        0 -1 2996 -1503987042 1956771596 -1181824673 -1340948858
        1293307960 -1390452731 -43532196 -119051913</internalNodes>
      <leafValues>
        -2.3307192325592041e-01 2.2670446336269379e-01</leafValues></_>
    <_>
      <internalNodes>
        0 -1 56089 1530969472 1561613091 457763132 822260553 -1058623028
        -237014479 1485867180 1132234</internalNodes>
      <leafValues>
        -3.2892900705337524e-01 1.6359142959117889e-01</leafValues></_>
    <_>
      <internalNodes>
        0 -1 41456 1847199506 1218656979 -312640093 -386477190
        1092952928 -1376906890 1047772309 -1091692764</internalNodes>
      <leafValues>
        -2.8390651941299438e-01 1.8675687909126282e-01</leafValues></_>
    <_>
      <internalNodes>
        0 -1 42907 1652532096 2065219266 -1073922320 1964055145
        1148552638 -1724036041 2092261885 1780463263</internalNodes>
      <leafValues>
        -2.1151936054229736e-01 2.5450021028518677e-01</leafValues></_>
    <_>
      <internalNodes>
        0 -1 17239 -194345132 -1116837023 -1919380443 -633817916
        -893004096 -1404012414 205820202 1551847823</internalNodes>
      <leafValues>
        -2.6327106356620789e-01 2.0680208504199982e-01</leafValues></_>
    <_>
      <internalNodes>
        0 -1 28724 -1461239984 -300123812 -1350690468 -681233585
        793884465 -1638519320 -1465341248 32354935</internalNodes>
      <leafValues>
        -2.9734241962432861e-01 1.8025387823581696e-01</leafValues></_>
    <_>
      <internalNodes>
        0 -1 66820 -107743273 -456105072 -116839896 -224288732
        -139221826 -2066292655 417952704 -2116303479</internalNodes>
      <leafValues>
        -2.1011434495449066e-01 2.5128373503684998e-01</leafValues></_>
    <_>
      <internalNodes>
        0 -1 34898 -800926315 954330062 -1376211288 -538058908
        1031298205 -1124086197 1186901578 -1701866285</internalNodes>
      <leafValues>
        -1.5835727751255035e-01 3.1939643621444702e-01</leafValues></_>
    <_>
      <internalNodes>
        0 -1 212 1718410691 -1645428741 -1492818327 -1451057398
        -1800092944 -936839708 1153910369 -2066394044</internalNodes>
      <leafValues>
        -2.7964302897453308e-01 1.8552504479885101e-01</leafValues></_>
    <_>
      <internalNodes>
        0 -1 21675 1003423571 -481262604 1497658423 -1394991309
        -1324193727 -1104234219 -470384328 -21087632</internalNodes>
      <leafValues>
        -2.5095102190971375e-01 2.1769970655441284e-01</leafValues></_>
    <_>
      <internalNodes>
        0 -1 41212 1108648836 1397009971 430529620 1337710104 740079033
        1035498129 1338917631 45830850</internalNodes>
      <leafValues>
        -2.5699061155319214e-01 2.0900672674179077e-01</leafValues></_>
    <_>
      <internalNodes>
        0 -1 45752 -937258723 -1963704580 602912468 1178468094
        -1791966083 -1277937825 573979894 -71647496</internalNodes>
      <leafValues>
        -2.1731342375278473e-01 2.5336676836013794e-01</leafValues></_>
    <_>
      <internalNodes>
        0 -1 67597 -234334712 -921212504 1085335065 2027588542
        -1154342642 1612873407 974973704 931891354</internalNodes>
      <leafValues>
        -2.5789302587509155e-01 2.2014689445495605e-01</leafValues></_>
    <_>
      <internalNodes>
        0 -1 10192 -1327610839 -1013174072 -996691863 2017508348
        -600901626 1145489520 1344984594 1529626811</internalNodes>
      <leafValues>
        -3.1769302487373352e-01 1.7835748195648193e-01</leafValues></_>
    <_>
      <internalNodes>
        0 -1 64394 -298340497 719350295 1716658657 -928712724 -47678461
        -432643809 -1031942800 -192839468</internalNodes>
      <leafValues>
        -3.0376809835433960e-01 1.8902361392974854e-01</leafValues></_>
    <_>
      <internalNodes>
        0 -1 66436 -543165953 2061069320 1972554141 807290526 -770746085
        1615966288 -633353704 806027198</internalNodes>
      <leafValues>
        -2.3891034722328186e-01 2.3721666634082794e-01</leafValues></_>
    <_>
      <internalNodes>
        0 -1 11574 4007036 -1373340454 -189251732 1088824284 -2138459311
        -288810976 736542289 139481392</internalNodes>
      <leafValues>
        -4.7294840216636658e-01 1.1579844355583191e-01</leafValues></_>
    <_>
      <internalNodes>
        0 -1 60918 -185471007 -199984003 1342126485 1430146169
        -453334854 -78622048 1911930747 141165833</internalNodes>
      <leafValues>
        -1.9300386309623718e-01 2.8257739543914795e-01</leafValues></_></weakClassifiers></stage3>
</opencv_storage>
