<?xml version="1.0"?>
<opencv_storage>
<stage12>
  <maxWeakCount>67</maxWeakCount>
  <stageThreshold>-9.0182614326477051e-01</stageThreshold>
  <weakClassifiers>
    <_>
      <internalNodes>
        0 -1 2939 -727751496 983135636 -493354678 -469730296 1208027853
        -659873789 1871636584 -1397705094</internalNodes>
      <leafValues>
        -2.4985198676586151e-01 1.2745393812656403e-01</leafValues></_>
    <_>
      <internalNodes>
        0 -1 17897 993031 -1538999322 -934130589 654098800 260727219
        -257633730 1757743652 1147424964</internalNodes>
      <leafValues>
        -3.3169606328010559e-01 8.6911611258983612e-02</leafValues></_>
    <_>
      <internalNodes>
        0 -1 3341 -1593241207 1184001326 266938129 1464809124
        -1645610309 316337935 521666577 1602159088</internalNodes>
      <leafValues>
        -1.7397673428058624e-01 1.7759247124195099e-01</leafValues></_>
    <_>
      <internalNodes>
        0 -1 20102 -1126230163 1273638306 -1380041931 -92569587
        731036178 -1417898833 242496465 944074981</internalNodes>
      <leafValues>
        -1.8600812554359436e-01 1.6157469153404236e-01</leafValues></_>
    <_>
      <internalNodes>
        0 -1 64558 1156923381 -244334866 -2064155540 -723518063
        -637551017 -558956579 -1728381566 984328698</internalNodes>
      <leafValues>
        -1.4998419582843781e-01 2.0138487219810486e-01</leafValues></_>
    <_>
      <internalNodes>
        0 -1 62740 -2137641184 183090916 -1378098513 -1010315918
        370620677 -1681769838 -264296156 -1929456028</internalNodes>
      <leafValues>
        -3.0159598588943481e-01 6.7309744656085968e-02</leafValues></_>
    <_>
      <internalNodes>
        0 -1 31160 -1610316025 -1568229692 -1818442640 1065786346
        1698228965 1856102581 -2003238793 206307360</internalNodes>
      <leafValues>
        -2.5639668107032776e-01 1.3644696772098541e-01</leafValues></_>
    <_>
      <internalNodes>
        0 -1 65780 -36308233 -542331532 -16979448 -243556705 -18049041
        -671300096 -591072070 -743458405</internalNodes>
      <leafValues>
        -8.5282891988754272e-02 3.5279893875122070e-01</leafValues></_>
    <_>
      <internalNodes>
        0 -1 57175 2626561 -1370879443 348110404 -1463378368 -1277325709
        870277159 -2091458192 -1359320636</internalNodes>
      <leafValues>
        -2.6888585090637207e-01 1.0578400641679764e-01</leafValues></_>
    <_>
      <internalNodes>
        0 -1 650 1245974848 -50855086 -1266346130 1108345018 1176504322
        287065646 1376573184 274776076</internalNodes>
      <leafValues>
        -3.9107978343963623e-01 9.7117014229297638e-02</leafValues></_>
    <_>
      <internalNodes>
        0 -1 19048 1014953620 243700423 -823392897 -1114530033
        -722022472 -555813931 -1343930102 -1988132079</internalNodes>
      <leafValues>
        -1.6930800676345825e-01 1.8264685571193695e-01</leafValues></_>
    <_>
      <internalNodes>
        0 -1 3393 -1361244458 -75674067 1390153830 1077172319 -601296101
        -684594112 -1025728245 1536771223</internalNodes>
      <leafValues>
        -2.0779803395271301e-01 1.4973267912864685e-01</leafValues></_>
    <_>
      <internalNodes>
        0 -1 27902 251608532 -62768428 -1972755591 -502659556
        -2125349529 2079932916 -1035747490 -1853379549</internalNodes>
      <leafValues>
        -2.0736446976661682e-01 1.4993585646152496e-01</leafValues></_>
    <_>
      <internalNodes>
        0 -1 56951 171084561 780255922 -365575825 760079601 1416823621
        -1111496731 -89597088 -1057040924</internalNodes>
      <leafValues>
        -1.9981551170349121e-01 1.7173834145069122e-01</leafValues></_>
    <_>
      <internalNodes>
        0 -1 52494 1148625827 1410116531 252499264 498940481 -1865028478
        -306421008 -798116166 174019487</internalNodes>
      <leafValues>
        -1.8904726207256317e-01 1.8396797776222229e-01</leafValues></_>
    <_>
      <internalNodes>
        0 -1 59572 -926433536 -618105004 1571562688 285733248 -801814396
        -592805724 1113650560 587140</internalNodes>
      <leafValues>
        -3.3794590830802917e-01 1.0876450687646866e-01</leafValues></_>
    <_>
      <internalNodes>
        0 -1 52921 1877785006 -1303463377 -1005476269 530058088
        105428866 -2073038518 -959846402 1079062574</internalNodes>
      <leafValues>
        -2.0622055232524872e-01 1.6318628191947937e-01</leafValues></_>
    <_>
      <internalNodes>
        0 -1 67342 -479921083 -540046302 -933789126 -1033583104
        -194149774 -1891844515 -103882197 -1811369464</internalNodes>
      <leafValues>
        -2.3618236184120178e-01 1.4623039960861206e-01</leafValues></_>
    <_>
      <internalNodes>
        0 -1 2092 -345854149 -374473234 -1124321980 -239580312
        1165856638 -839807715 -982935542 -416037150</internalNodes>
      <leafValues>
        -1.5760758519172668e-01 2.3171946406364441e-01</leafValues></_>
    <_>
      <internalNodes>
        0 -1 39080 -356457086 1451664824 -2047730396 1878644471
        1622499569 2021993404 1119366518 579744611</internalNodes>
      <leafValues>
        -2.2251199185848236e-01 1.7049725353717804e-01</leafValues></_>
    <_>
      <internalNodes>
        0 -1 54040 249816065 -1710348304 -553614053 -1701220078
        1395480929 -1702063633 -388145148 -323703423</internalNodes>
      <leafValues>
        -2.4208450317382812e-01 1.3645240664482117e-01</leafValues></_>
    <_>
      <internalNodes>
        0 -1 1366 1572618000 -973330315 -1918515910 -27599944
        -2117085894 -1957997807 1439547664 1395851704</internalNodes>
      <leafValues>
        -2.2024926543235779e-01 1.5980115532875061e-01</leafValues></_>
    <_>
      <internalNodes>
        0 -1 30030 -1329692859 -68785687 -1445005764 1079509662
        1469958668 -1206304696 1087871966 994483660</internalNodes>
      <leafValues>
        -2.2208814322948456e-01 1.5679968893527985e-01</leafValues></_>
    <_>
      <internalNodes>
        0 -1 67337 -89350739 -749851662 922150994 2096914157 -864105683
        -2132492676 -1073819670 -2385173</internalNodes>
      <leafValues>
        -1.1923618614673615e-01 3.0370131134986877e-01</leafValues></_>
    <_>
      <internalNodes>
        0 -1 37163 1282228829 1145840775 69133714 1986543696 1493961377
        -541503724 1495305652 -1279361092</internalNodes>
      <leafValues>
        -2.0514085888862610e-01 1.7618753015995026e-01</leafValues></_>
    <_>
      <internalNodes>
        0 -1 65286 -747242189 -988766616 -122162001 -176440196
        -1613104053 -1930756646 -392837228 -1078230613</internalNodes>
      <leafValues>
        -1.3305516541004181e-01 2.9537743330001831e-01</leafValues></_>
    <_>
      <internalNodes>
        0 -1 60540 -2072007135 302182202 776470545 -1401694252
        -959721711 1641106006 -784271019 1151097540</internalNodes>
      <leafValues>
        -2.6910880208015442e-01 1.4489264786243439e-01</leafValues></_>
    <_>
      <internalNodes>
        0 -1 63694 -752478110 -467627900 -1601220130 1140864880
        -1190690648 -2137193854 1068423881 -1880219991</internalNodes>
      <leafValues>
        -2.1422949433326721e-01 1.6503430902957916e-01</leafValues></_>
    <_>
      <internalNodes>
        0 -1 28073 1483845562 1061720058 -1904531762 -72511818
        -1346912801 -1379971084 742125000 2140777634</internalNodes>
      <leafValues>
        -1.6799835860729218e-01 2.1357919275760651e-01</leafValues></_>
    <_>
      <internalNodes>
        0 -1 56654 1744824745 2106191154 -86754893 -1355351497
        2129981195 -935395580 -818570293 -1450987013</internalNodes>
      <leafValues>
        -1.2584036588668823e-01 3.0042222142219543e-01</leafValues></_>
    <_>
      <internalNodes>
        0 -1 47335 1314690 50918732 562970267 -158429580 464272557
        -607522070 -859135790 -123676128</internalNodes>
      <leafValues>
        -2.5758743286132812e-01 1.4640147984027863e-01</leafValues></_>
    <_>
      <internalNodes>
        0 -1 2992 -138629121 -1073798083 -1098961026 1645979552
        1467975657 -1116916120 -824192436 2080333723</internalNodes>
      <leafValues>
        -1.3177394866943359e-01 2.7157053351402283e-01</leafValues></_>
    <_>
      <internalNodes>
        0 -1 66820 -72090261 -685945163 -420208529 -749519728 -285541893
        -789266017 -572196919 -8406582</internalNodes>
      <leafValues>
        -9.4460129737854004e-02 4.0425443649291992e-01</leafValues></_>
    <_>
      <internalNodes>
        0 -1 66783 -89595088 1971387952 663410712 2140557704 -1152787512
        1020617687 24368132 176755760</internalNodes>
      <leafValues>
        -3.1683453917503357e-01 1.1466364562511444e-01</leafValues></_>
    <_>
      <internalNodes>
        0 -1 64817 -892942256 995330849 -1052699243 -1168620051
        -129513844 857147009 -454791672 -2146306809</internalNodes>
      <leafValues>
        -2.0352101325988770e-01 1.8246009945869446e-01</leafValues></_>
    <_>
      <internalNodes>
        0 -1 67583 -1503001574 -825147946 -1872950481 790910120
        -1402846056 252882051 870933956 1306522666</internalNodes>
      <leafValues>
        -2.0826713740825653e-01 1.7835089564323425e-01</leafValues></_>
    <_>
      <internalNodes>
        0 -1 3768 -1125319625 -1159013921 -8984981 -1646687310
        -472021763 -369834379 -398657457 -2763229</internalNodes>
      <leafValues>
        -1.1944470554590225e-01 3.1551980972290039e-01</leafValues></_>
    <_>
      <internalNodes>
        0 -1 18619 -657297743 1469178171 -624010214 495385314 1943842540
        1173938340 -155709847 -1407158264</internalNodes>
      <leafValues>
        -2.7062657475471497e-01 1.4086428284645081e-01</leafValues></_>
    <_>
      <internalNodes>
        0 -1 29764 -2142395210 -701141475 -1702924787 573126470
        -1004694536 1421380823 515523759 -1991281401</internalNodes>
      <leafValues>
        -1.6242861747741699e-01 2.3321822285652161e-01</leafValues></_>
    <_>
      <internalNodes>
        0 -1 33398 2049893361 2025604844 1827871717 -723392863
        2146416012 -1328548609 1757574643 1264928287</internalNodes>
      <leafValues>
        -1.6559673845767975e-01 2.2814117372035980e-01</leafValues></_>
    <_>
      <internalNodes>
        0 -1 51247 1751772519 -201971729 -1232975 755727931 1282301066
        -1253509584 2096885155 -904981237</internalNodes>
      <leafValues>
        -1.3160192966461182e-01 2.8144887089729309e-01</leafValues></_>
    <_>
      <internalNodes>
        0 -1 36217 33558051 207913258 -1130479105 639648655 2051747843
        -1626889325 1213952852 209741108</internalNodes>
      <leafValues>
        -4.1400915384292603e-01 9.7324445843696594e-02</leafValues></_>
    <_>
      <internalNodes>
        0 -1 31406 -1481166733 1699765861 223091653 1323791349
        -1289775567 -1693649666 1586356033 1238872991</internalNodes>
      <leafValues>
        -1.9793246686458588e-01 1.9779534637928009e-01</leafValues></_>
    <_>
      <internalNodes>
        0 -1 48885 -207753585 -566935696 -1384289680 -1379176443
        -1930428933 -1729233261 -998690965 2055770571</internalNodes>
      <leafValues>
        -1.3956139981746674e-01 2.7880191802978516e-01</leafValues></_>
    <_>
      <internalNodes>
        0 -1 31859 -1499064400 -829693042 605910532 -509483372 955021607
        -358020950 -474221094 185184504</internalNodes>
      <leafValues>
        -2.4646912515163422e-01 1.6420680284500122e-01</leafValues></_>
    <_>
      <internalNodes>
        0 -1 9616 638085265 -922156966 -978894393 1355292580 95085093
        1696559685 -637941632 2121712964</internalNodes>
      <leafValues>
        -2.6433685421943665e-01 1.5132065117359161e-01</leafValues></_>
    <_>
      <internalNodes>
        0 -1 37297 -1436813854 -125016843 1485399784 -1262311103
        2138280470 -354186996 1371069406 1510200414</internalNodes>
      <leafValues>
        -2.0933118462562561e-01 1.9133660197257996e-01</leafValues></_>
    <_>
      <internalNodes>
        0 -1 41370 1254910624 370438865 -1608519428 1367496708
        1249116256 2029554836 1760187296 674921485</internalNodes>
      <leafValues>
        -3.3557075262069702e-01 1.1768309772014618e-01</leafValues></_>
    <_>
      <internalNodes>
        0 -1 67465 -1293485178 1933352716 -327616591 -239686464
        -1172375745 1706884744 1351399050 -491880050</internalNodes>
      <leafValues>
        -1.6265916824340820e-01 2.3721106350421906e-01</leafValues></_>
    <_>
      <internalNodes>
        0 -1 66066 94575429 240303897 -1639475938 -1157785482
        -1610322603 -1327894031 163872000 145790000</internalNodes>
      <leafValues>
        -3.5569486021995544e-01 1.0625991970300674e-01</leafValues></_>
    <_>
      <internalNodes>
        0 -1 67338 -636366103 -124065064 -1293168673 -655868248
        -1229723701 1617194141 1539765223 -1145058610</internalNodes>
      <leafValues>
        -1.2530925869941711e-01 3.0436557531356812e-01</leafValues></_>
    <_>
      <internalNodes>
        0 -1 67484 -649103491 -1256145783 -45191619 -246506394
        -860824160 -1510687008 -305645876 -199492097</internalNodes>
      <leafValues>
        -1.3609486818313599e-01 2.8023242950439453e-01</leafValues></_>
    <_>
      <internalNodes>
        0 -1 1259 -36782325 -847577607 -1608328 -236269912 87955431
        -1804634895 -789479887 -133955913</internalNodes>
      <leafValues>
        -1.4952740073204041e-01 2.5317656993865967e-01</leafValues></_>
    <_>
      <internalNodes>
        0 -1 65312 -1932576908 -1066752712 -984910846 -1825120222
        -1280141366 67857589 -1179098942 1403685084</internalNodes>
      <leafValues>
        -2.3305350542068481e-01 1.6721302270889282e-01</leafValues></_>
    <_>
      <internalNodes>
        0 -1 8514 1890496271 -912216266 -151196045 927983137 1429296479
        1553510395 217072824 -1329507985</internalNodes>
      <leafValues>
        -1.7399324476718903e-01 2.2240486741065979e-01</leafValues></_>
    <_>
      <internalNodes>
        0 -1 67402 2074553316 1527584838 -856151506 -1603409864
        -1285495892 -455819740 1069577205 -676766213</internalNodes>
      <leafValues>
        -1.8086560070514679e-01 2.1542352437973022e-01</leafValues></_>
    <_>
      <internalNodes>
        0 -1 19266 -1670396347 -835544940 -510095072 2088129016
        1766624532 -1149614003 1428615519 868224094</internalNodes>
      <leafValues>
        -2.4898579716682434e-01 1.5920442342758179e-01</leafValues></_>
    <_>
      <internalNodes>
        0 -1 2381 -663767841 -382918721 1174208030 782649104 -1900550929
        -814456962 -186788282 -538222937</internalNodes>
      <leafValues>
        -1.3208267092704773e-01 3.0638784170150757e-01</leafValues></_>
    <_>
      <internalNodes>
        0 -1 67205 1385926397 2092492630 1226895922 1889668322
        -722207499 -420061211 -92998600 -209746795</internalNodes>
      <leafValues>
        -1.5746006369590759e-01 2.5259652733802795e-01</leafValues></_>
    <_>
      <internalNodes>
        0 -1 24571 885222189 1247150090 -469321313 483748563 1499340891
        1219695115 -35271104 -23922834</internalNodes>
      <leafValues>
        -2.1875846385955811e-01 1.8249610066413879e-01</leafValues></_>
    <_>
      <internalNodes>
        0 -1 44520 549724722 -2003537940 1454335558 -1531405760 30951445
        737315386 -271195136 678431028</internalNodes>
      <leafValues>
        -4.8971152305603027e-01 8.0569379031658173e-02</leafValues></_>
    <_>
      <internalNodes>
        0 -1 67106 -1019436413 -684937 -679971294 1442365630 -676924949
        -1010979334 789898792 893095678</internalNodes>
      <leafValues>
        -1.8274769186973572e-01 2.2484883666038513e-01</leafValues></_>
    <_>
      <internalNodes>
        0 -1 6840 1110898418 352058338 -289528395 -1080869278 -841087300
        -1722421250 1604282125 -941768383</internalNodes>
      <leafValues>
        -1.7389503121376038e-01 2.2873108088970184e-01</leafValues></_>
    <_>
      <internalNodes>
        0 -1 44275 159256356 646709486 -592817150 -335000331 1924751125
        1621133448 205084021 8428660</internalNodes>
      <leafValues>
        -4.8681893944740295e-01 8.5088677704334259e-02</leafValues></_>
    <_>
      <internalNodes>
        0 -1 9856 97617083 1274732203 301673357 -640218237 -1361051990
        641648223 355322318 1541381288</internalNodes>
      <leafValues>
        -1.8555951118469238e-01 2.2619329392910004e-01</leafValues></_>
    <_>
      <internalNodes>
        0 -1 60677 -480318200 1075243505 1561740244 88916620 1152201873
        1476464826 1333650160 67225473</internalNodes>
      <leafValues>
        -3.3280330896377563e-01 1.2060705572366714e-01</leafValues></_>
    <_>
      <internalNodes>
        0 -1 3368 628782785 -380952275 -1953441680 -333016690 -777953889
        -1058498407 303072661 118756987</internalNodes>
      <leafValues>
        -2.7103924751281738e-01 1.5083345770835876e-01</leafValues></_></weakClassifiers></stage12>
</opencv_storage>
