<?xml version="1.0"?>
<opencv_storage>
<stage10>
  <maxWeakCount>67</maxWeakCount>
  <stageThreshold>-9.1928547620773315e-01</stageThreshold>
  <weakClassifiers>
    <_>
      <internalNodes>
        0 -1 67482 -488119399 1635906088 1073922049 -2136697192
        -741559739 -2145303287 -484652696 -884157396</internalNodes>
      <leafValues>
        -2.3450723290443420e-01 1.3555310666561127e-01</leafValues></_>
    <_>
      <internalNodes>
        0 -1 67356 -422655209 1853012518 2138963325 -612975840
        2103312221 -360808910 -387341957 -870777190</internalNodes>
      <leafValues>
        -1.7266795039176941e-01 1.9307360053062439e-01</leafValues></_>
    <_>
      <internalNodes>
        0 -1 16108 125929971 218888849 138249027 853912644 575454797
        1193512704 1125831127 1601409204</internalNodes>
      <leafValues>
        -2.1059553325176239e-01 1.4907673001289368e-01</leafValues></_>
    <_>
      <internalNodes>
        0 -1 60866 -88082441 -1969964 -344001045 -745933585 468303793
        -119480522 -1973827143 -1962239494</internalNodes>
      <leafValues>
        -6.2489148229360580e-02 3.5630786418914795e-01</leafValues></_>
    <_>
      <internalNodes>
        0 -1 51010 41946144 -2003144543 -801077452 -328185996 1039556736
        -52511582 -1576125180 -1899439008</internalNodes>
      <leafValues>
        -3.5195878148078918e-01 7.8077219426631927e-02</leafValues></_>
    <_>
      <internalNodes>
        0 -1 44997 2034220987 1371741343 1039945447 -558934409
        2075025099 1580897449 -292444245 -605059153</internalNodes>
      <leafValues>
        -7.5992077589035034e-02 3.9059835672378540e-01</leafValues></_>
    <_>
      <internalNodes>
        0 -1 21983 -615645185 -33793 1618409010 -135324225 -940585541
        -834149567 -19149873 -272225</internalNodes>
      <leafValues>
        -9.6084155142307281e-02 4.8627439141273499e-01</leafValues></_>
    <_>
      <internalNodes>
        0 -1 60449 1614220821 -1299507055 -990456063 1838593345
        1807369792 -1142020393 -309306096 149741652</internalNodes>
      <leafValues>
        -2.9254621267318726e-01 1.2226507067680359e-01</leafValues></_>
    <_>
      <internalNodes>
        0 -1 18980 1464681558 -281098601 -1887939416 1883278299
        -742096867 -837614830 -722565934 136502479</internalNodes>
      <leafValues>
        -2.3714023828506470e-01 1.3673076033592224e-01</leafValues></_>
    <_>
      <internalNodes>
        0 -1 39560 1281653815 -583389473 -290729355 -35422986
        -1346898528 -1982310670 1274658047 -1899536369</internalNodes>
      <leafValues>
        -1.0455979406833649e-01 2.9221034049987793e-01</leafValues></_>
    <_>
      <internalNodes>
        0 -1 26696 2020534441 1496583185 -61493660 -1174405459
        1971164607 -302495884 1873823167 1533924463</internalNodes>
      <leafValues>
        -1.5985725820064545e-01 2.1809020638465881e-01</leafValues></_>
    <_>
      <internalNodes>
        0 -1 2490 1584417236 1427177416 -2078144174 1476939360
        1249904649 -1131272158 -400667496 -402364918</internalNodes>
      <leafValues>
        -3.0950456857681274e-01 1.0548925399780273e-01</leafValues></_>
    <_>
      <internalNodes>
        0 -1 45760 -2133983401 -261097987 -531998 -641606256 -609247539
        -876811948 -1363157798 -1900377828</internalNodes>
      <leafValues>
        -1.3251106441020966e-01 2.4889636039733887e-01</leafValues></_>
    <_>
      <internalNodes>
        0 -1 41592 -1515564863 -1496436325 -1676496513 1335627603
        -1624983335 -1391083102 306987956 -75580500</internalNodes>
      <leafValues>
        -1.9690909981727600e-01 1.6814337670803070e-01</leafValues></_>
    <_>
      <internalNodes>
        0 -1 2991 -1076006939 559224341 -532560571 1349625372 -146115028
        2034572572 -739505400 1897866413</internalNodes>
      <leafValues>
        -1.8156272172927856e-01 1.8744182586669922e-01</leafValues></_>
    <_>
      <internalNodes>
        0 -1 1860 -843780683 -420555537 -1188011046 -1042054722
        -1351115048 -848382722 1603798160 -942410733</internalNodes>
      <leafValues>
        -1.5622515976428986e-01 2.2833040356636047e-01</leafValues></_>
    <_>
      <internalNodes>
        0 -1 66326 -402805002 -590446652 -1008245512 -775968020 -9702420
        -546384532 -2083814451 -687139153</internalNodes>
      <leafValues>
        -1.1975783109664917e-01 2.8539729118347168e-01</leafValues></_>
    <_>
      <internalNodes>
        0 -1 31588 644067103 203957399 -988953577 -862065653 603142319
        -861579015 -807634057 -285382719</internalNodes>
      <leafValues>
        -1.9878242909908295e-01 1.8175359070301056e-01</leafValues></_>
    <_>
      <internalNodes>
        0 -1 4101 -538089268 2011758810 -1885320898 -740519556
        -1067973873 849036987 -2136941748 488234122</internalNodes>
      <leafValues>
        -2.1665832400321960e-01 1.6742655634880066e-01</leafValues></_>
    <_>
      <internalNodes>
        0 -1 21829 -808061961 1269003811 199118787 1459568507 -658007527
        1098323635 897289647 -135289605</internalNodes>
      <leafValues>
        -1.1029949039220810e-01 3.1887474656105042e-01</leafValues></_>
    <_>
      <internalNodes>
        0 -1 65780 2010616447 -1245968 -252382571 -1321690417
        -1092640996 -548645120 -1278310951 -72377959</internalNodes>
      <leafValues>
        -1.1109303683042526e-01 3.0179974436759949e-01</leafValues></_>
    <_>
      <internalNodes>
        0 -1 53962 1281892882 202570314 445550599 -728227859 -874152784
        -373385733 -56862366 -50906252</internalNodes>
      <leafValues>
        -2.1965023875236511e-01 1.5831699967384338e-01</leafValues></_>
    <_>
      <internalNodes>
        0 -1 65348 -320441005 -524423194 -525828506 1768117936
        -122229334 -260903189 -557134513 991596473</internalNodes>
      <leafValues>
        -1.6348981857299805e-01 2.1401384472846985e-01</leafValues></_>
    <_>
      <internalNodes>
        0 -1 23959 -731650427 -773738981 1055436363 -1112821279
        -195212553 -1611868276 -1192661249 2145379883</internalNodes>
      <leafValues>
        -1.1828447133302689e-01 2.9540407657623291e-01</leafValues></_>
    <_>
      <internalNodes>
        0 -1 17340 176827472 -1998059320 -1965542852 -1773353916
        145965780 45393970 -2108651904 303304900</internalNodes>
      <leafValues>
        -4.9859809875488281e-01 7.8049324452877045e-02</leafValues></_>
    <_>
      <internalNodes>
        0 -1 52059 2113191834 1252135112 -804842560 144176716 2052137930
        -1947708863 335937262 406946250</internalNodes>
      <leafValues>
        -2.1771156787872314e-01 1.6695542633533478e-01</leafValues></_>
    <_>
      <internalNodes>
        0 -1 19974 2051816881 2119438958 -1631897045 1597803591
        -933495726 -838945362 -451046203 1260360686</internalNodes>
      <leafValues>
        -1.8092630803585052e-01 2.0424115657806396e-01</leafValues></_>
    <_>
      <internalNodes>
        0 -1 65710 663364123 -1467054128 2076163317 -1822556193
        975532596 1056045537 -1398417836 -389251180</internalNodes>
      <leafValues>
        -2.4190439283847809e-01 1.5930031239986420e-01</leafValues></_>
    <_>
      <internalNodes>
        0 -1 21472 -361846962 -111697273 1815449304 -60775377 1890882272
        1570119833 395456165 2064055114</internalNodes>
      <leafValues>
        -2.2844842076301575e-01 1.5928198397159576e-01</leafValues></_>
    <_>
      <internalNodes>
        0 -1 55666 -422334861 -1078412256 -830482459 -1879583072
        -1650652831 -557867033 -421615788 -1578149671</internalNodes>
      <leafValues>
        -1.7300491034984589e-01 2.1001955866813660e-01</leafValues></_>
    <_>
      <internalNodes>
        0 -1 67153 -1090535617 -1272383252 1794148104 -794042802
        -402656784 -2130731848 -374277404 -1761405208</internalNodes>
      <leafValues>
        -1.7477792501449585e-01 2.1572653949260712e-01</leafValues></_>
    <_>
      <internalNodes>
        0 -1 9772 2214434 795576577 -2038422678 -554541370 40388437
        857298265 1494111484 2141999516</internalNodes>
      <leafValues>
        -2.9460728168487549e-01 1.3396078348159790e-01</leafValues></_>
    <_>
      <internalNodes>
        0 -1 66298 -1518302885 1549412024 641123249 169069429
        -1679887783 121897236 583466534 451807934</internalNodes>
      <leafValues>
        -2.1731798350811005e-01 1.7210789024829865e-01</leafValues></_>
    <_>
      <internalNodes>
        0 -1 16084 24120456 621352877 1377886014 -692059694 696375344
        561866024 119721700 933799416</internalNodes>
      <leafValues>
        -3.0858242511749268e-01 1.1855514347553253e-01</leafValues></_>
    <_>
      <internalNodes>
        0 -1 29694 1994713541 354160795 1745242781 -1439658246
        1209880724 2116053664 954483311 1795325189</internalNodes>
      <leafValues>
        -2.4810400605201721e-01 1.5039747953414917e-01</leafValues></_>
    <_>
      <internalNodes>
        0 -1 55940 376270437 -707919155 -537010484 -1397932249
        -1095312494 -2051936769 1009039040 -1706491099</internalNodes>
      <leafValues>
        -1.8953663110733032e-01 2.0309954881668091e-01</leafValues></_>
    <_>
      <internalNodes>
        0 -1 38645 -258022231 -670686949 -2008741169 -1328888045
        1281787335 1552803867 -623422495 35744549</internalNodes>
      <leafValues>
        -2.3752683401107788e-01 1.5758493542671204e-01</leafValues></_>
    <_>
      <internalNodes>
        0 -1 36306 -122705950 1403096524 112405633 -1212154963 342349207
        -805857374 -349373270 -1154562385</internalNodes>
      <leafValues>
        -1.2676617503166199e-01 3.0447897315025330e-01</leafValues></_>
    <_>
      <internalNodes>
        0 -1 67413 -132097 -51004998 -1730298019 -245109269 -804129
        -556081438 -336660516 -205787169</internalNodes>
      <leafValues>
        -8.0930374562740326e-02 4.7854799032211304e-01</leafValues></_>
    <_>
      <internalNodes>
        0 -1 51758 76902137 716858826 82926898 578487419 999708224
        1637462882 895551713 83390017</internalNodes>
      <leafValues>
        -3.1222322583198547e-01 1.3032013177871704e-01</leafValues></_>
    <_>
      <internalNodes>
        0 -1 3226 -1697615731 1699595289 378232977 1411287504 1661286892
        487654776 522980238 2113605420</internalNodes>
      <leafValues>
        -2.3290906846523285e-01 1.6519595682621002e-01</leafValues></_>
    <_>
      <internalNodes>
        0 -1 21830 -857528113 -276422207 1482181749 1218052924
        -527959974 -1946134339 -742347038 129525950</internalNodes>
      <leafValues>
        -2.4832129478454590e-01 1.5910723805427551e-01</leafValues></_>
    <_>
      <internalNodes>
        0 -1 66296 -778042880 1593606901 706397891 141067372 -1106202531
        -1052611423 1066583764 798662392</internalNodes>
      <leafValues>
        -2.7782699465751648e-01 1.5411388874053955e-01</leafValues></_>
    <_>
      <internalNodes>
        0 -1 55943 1121378001 -538008239 1814900535 -542398702
        -1781686618 -105785755 -1141582645 -1423484409</internalNodes>
      <leafValues>
        -1.4835713803768158e-01 2.7062311768531799e-01</leafValues></_>
    <_>
      <internalNodes>
        0 -1 17759 478093148 215631518 -1366417912 1620636364 256528240
        -867881632 -2096759253 1293276805</internalNodes>
      <leafValues>
        -2.7149757742881775e-01 1.4854478836059570e-01</leafValues></_>
    <_>
      <internalNodes>
        0 -1 57125 639714294 -1463090334 -1097137612 1871569196
        2056548169 -1444080873 -1460801168 -17943744</internalNodes>
      <leafValues>
        -2.4943286180496216e-01 1.5960745513439178e-01</leafValues></_>
    <_>
      <internalNodes>
        0 -1 2639 -2047948796 -827249415 960819009 -263715156 29833018
        1157896482 -508189772 -172589512</internalNodes>
      <leafValues>
        -2.5075316429138184e-01 1.5941929817199707e-01</leafValues></_>
    <_>
      <internalNodes>
        0 -1 29900 -327286817 -103522410 741299150 -211189781
        -1260279825 -228590345 2078580191 -939848454</internalNodes>
      <leafValues>
        -1.0345656424760818e-01 3.8961359858512878e-01</leafValues></_>
    <_>
      <internalNodes>
        0 -1 43486 -890444591 1437990259 1173372729 -1179148161
        -839849557 -1611334511 -897757749 -1348510581</internalNodes>
      <leafValues>
        -1.0906135290861130e-01 3.6661314964294434e-01</leafValues></_>
    <_>
      <internalNodes>
        0 -1 21345 1387424119 680477127 -532459917 -495816649 1358978732
        -57945981 -82091777 -17119260</internalNodes>
      <leafValues>
        -1.9811888039112091e-01 2.0871084928512573e-01</leafValues></_>
    <_>
      <internalNodes>
        0 -1 52216 1363515301 452082623 2091323888 -1045089165
        1305691567 1576628196 -33716341 1394211323</internalNodes>
      <leafValues>
        -1.4725147187709808e-01 2.6889002323150635e-01</leafValues></_>
    <_>
      <internalNodes>
        0 -1 59123 1031991204 -30592490 -1409257388 -1046208255 13078468
        -1131533768 -456097600 17847448</internalNodes>
      <leafValues>
        -4.0049803256988525e-01 1.0271829366683960e-01</leafValues></_>
    <_>
      <internalNodes>
        0 -1 13457 -881568365 -682072897 -232718 2147225465 -708279247
        -1888703028 1652712917 -751611758</internalNodes>
      <leafValues>
        -1.6349665820598602e-01 2.5844028592109680e-01</leafValues></_>
    <_>
      <internalNodes>
        0 -1 43778 -1536271804 624896528 -784424111 -1657237998
        -1547126764 413255888 -993681838 380636170</internalNodes>
      <leafValues>
        -3.6281976103782654e-01 1.1091703921556473e-01</leafValues></_>
    <_>
      <internalNodes>
        0 -1 43640 1309822019 583545359 1959215498 786099088 1799630342
        -909981692 -1222194588 -1216698616</internalNodes>
      <leafValues>
        -2.5194236636161804e-01 1.5347270667552948e-01</leafValues></_>
    <_>
      <internalNodes>
        0 -1 15996 -1221919019 -613052889 -1128498531 2043017973
        1580003024 -7060186 -766656037 -893037473</internalNodes>
      <leafValues>
        -1.2995988130569458e-01 3.4665733575820923e-01</leafValues></_>
    <_>
      <internalNodes>
        0 -1 6476 -470308675 1728392417 -1073943553 1883518964
        -549532226 1098321529 1575965759 1915717695</internalNodes>
      <leafValues>
        -1.4698831737041473e-01 2.6711779832839966e-01</leafValues></_>
    <_>
      <internalNodes>
        0 -1 1859 -473834793 -1011945860 1455352599 -67841218 -243728430
        1442545238 1369985460 -674014805</internalNodes>
      <leafValues>
        -1.4521549642086029e-01 2.7921012043952942e-01</leafValues></_>
    <_>
      <internalNodes>
        0 -1 50975 570950816 -1394269407 -122550957 -1384062098
        1778206600 -1726237417 -878893529 -324661532</internalNodes>
      <leafValues>
        -2.7954468131065369e-01 1.5409722924232483e-01</leafValues></_>
    <_>
      <internalNodes>
        0 -1 44931 -51384685 2021469971 -331601027 -141010187
        -1805286521 -1019707823 -104860613 -1677740849</internalNodes>
      <leafValues>
        -1.1036381870508194e-01 3.8764610886573792e-01</leafValues></_>
    <_>
      <internalNodes>
        0 -1 26769 1491644088 -273408966 -1575121908 1512425996
        1939630896 -1651956732 550244211 504918641</internalNodes>
      <leafValues>
        -2.8424638509750366e-01 1.4918495714664459e-01</leafValues></_>
    <_>
      <internalNodes>
        0 -1 67340 -90180893 -140484874 1123268736 1101326586
        -1682640952 -423877615 -1773899465 1389054619</internalNodes>
      <leafValues>
        -1.9285206496715546e-01 2.1508949995040894e-01</leafValues></_>
    <_>
      <internalNodes>
        0 -1 57083 1693896593 1445123868 -460333232 2108807412
        1308525490 1285583504 1819503349 69952223</internalNodes>
      <leafValues>
        -2.1221862733364105e-01 1.9322299957275391e-01</leafValues></_>
    <_>
      <internalNodes>
        0 -1 26866 -797447473 -244088202 -286368081 -738542482
        1732032987 -1212100706 1450597999 1935371651</internalNodes>
      <leafValues>
        -1.5020716190338135e-01 2.7934512495994568e-01</leafValues></_>
    <_>
      <internalNodes>
        0 -1 15580 740405796 -1364559955 -1154834221 -153864394
        736908033 610386541 -57528628 1835060276</internalNodes>
      <leafValues>
        -3.3137643337249756e-01 1.2528601288795471e-01</leafValues></_>
    <_>
      <internalNodes>
        0 -1 66882 -100859913 -539303189 1261236850 -777787138 -6370327
        -176292150 311870974 -5527109</internalNodes>
      <leafValues>
        -8.8551528751850128e-02 4.7096839547157288e-01</leafValues></_>
    <_>
      <internalNodes>
        0 -1 64480 -2112479781 -746260692 -819556728 -761209672
        1834898078 -1158762467 -1535598016 1493851224</internalNodes>
      <leafValues>
        -2.5817435979843140e-01 1.6819390654563904e-01</leafValues></_></weakClassifiers></stage10>
</opencv_storage>
