<?xml version="1.0"?>
<opencv_storage>
<stage9>
  <maxWeakCount>63</maxWeakCount>
  <stageThreshold>-8.2988846302032471e-01</stageThreshold>
  <weakClassifiers>
    <_>
      <internalNodes>
        0 -1 2959 -32710402 -549367774 -1440322932 908619430 -792663588
        -36547631 1271679208 -356489718</internalNodes>
      <leafValues>
        -2.7065184712409973e-01 1.3506220281124115e-01</leafValues></_>
    <_>
      <internalNodes>
        0 -1 494 -1092790791 -12643912 -1073719618 1929002702 -487151320
        -515842019 25987210 1109941464</internalNodes>
      <leafValues>
        -2.3593477904796600e-01 1.3915449380874634e-01</leafValues></_>
    <_>
      <internalNodes>
        0 -1 2718 -300956677 -79713425 -629589089 1916554726 -67130104
        -817005284 1825031883 -5258018</internalNodes>
      <leafValues>
        -1.1221425980329514e-01 2.9428118467330933e-01</leafValues></_>
    <_>
      <internalNodes>
        0 -1 1742 -2019990187 -303120531 -293802113 -43769364 -312636004
        1447251034 1456595248 2004862153</internalNodes>
      <leafValues>
        -1.3477417826652527e-01 2.3917286098003387e-01</leafValues></_>
    <_>
      <internalNodes>
        0 -1 67435 -495682780 -802266836 -1199018788 -1058479926
        -673711500 -1834238704 -122627052 569020544</internalNodes>
      <leafValues>
        -3.3824244141578674e-01 6.9680191576480865e-02</leafValues></_>
    <_>
      <internalNodes>
        0 -1 25836 -2032394499 -1485080361 -1981803139 -898757505
        -344475344 -1902955358 -1981881088 402982114</internalNodes>
      <leafValues>
        -2.2818085551261902e-01 1.5496498346328735e-01</leafValues></_>
    <_>
      <internalNodes>
        0 -1 40451 540672563 -1934843165 -1085285257 680529488 200476561
        -1452302179 452658807 1851545173</internalNodes>
      <leafValues>
        -3.0273926258087158e-01 1.0933824628591537e-01</leafValues></_>
    <_>
      <internalNodes>
        0 -1 6527 -1145313827 1730093258 -1089310747 2050962293
        -304091825 493297501 -596508737 -287057</internalNodes>
      <leafValues>
        -7.0375263690948486e-02 3.6000433564186096e-01</leafValues></_>
    <_>
      <internalNodes>
        0 -1 52633 -498815487 458250064 956653360 263378308 1897451249
        1286257913 545026724 145238737</internalNodes>
      <leafValues>
        -3.0328911542892456e-01 9.9965214729309082e-02</leafValues></_>
    <_>
      <internalNodes>
        0 -1 22122 -1402054860 1205775124 -1446102820 371994142
        -819140108 780010468 -100374464 248262306</internalNodes>
      <leafValues>
        -3.7165412306785583e-01 8.3261966705322266e-02</leafValues></_>
    <_>
      <internalNodes>
        0 -1 7360 225462660 -299573736 1345663585 1884046495 1697292292
        20744969 1363231904 2004899208</internalNodes>
      <leafValues>
        -3.2772189378738403e-01 1.0669437795877457e-01</leafValues></_>
    <_>
      <internalNodes>
        0 -1 66846 -525323 -193070442 -197858420 -167965956 -1103630422
        -1748382392 -730210423 -1279550294</internalNodes>
      <leafValues>
        -8.5901096463203430e-02 3.5438510775566101e-01</leafValues></_>
    <_>
      <internalNodes>
        0 -1 45421 -1034452992 312506820 -1253227358 611972885 536888521
        1816316413 906120174 371966476</internalNodes>
      <leafValues>
        -2.6710218191146851e-01 1.2819968163967133e-01</leafValues></_>
    <_>
      <internalNodes>
        0 -1 31528 1500963562 -537447545 -1359175570 1605236467
        968142759 -755544833 -1378317622 1534699503</internalNodes>
      <leafValues>
        -1.6366507112979889e-01 2.2363378107547760e-01</leafValues></_>
    <_>
      <internalNodes>
        0 -1 62528 113969689 683334003 -811077677 -396708377 -1589289967
        1034396197 2013851476 1078261072</internalNodes>
      <leafValues>
        -3.3960545063018799e-01 1.2408576905727386e-01</leafValues></_>
    <_>
      <internalNodes>
        0 -1 20838 -2037470153 -360660192 -1786672425 -289384080
        25519607 -1462235878 1777352933 810043668</internalNodes>
      <leafValues>
        -3.1621006131172180e-01 1.1785231530666351e-01</leafValues></_>
    <_>
      <internalNodes>
        0 -1 63700 -223348741 -1617385100 -933756752 84457537 -758468100
        -1107773048 -1734546796 260577784</internalNodes>
      <leafValues>
        -2.4064183235168457e-01 1.4348013699054718e-01</leafValues></_>
    <_>
      <internalNodes>
        0 -1 66286 -1363478401 -1387962405 2102281933 -294324238
        972222399 -1948801932 -1694836064 -1358959444</internalNodes>
      <leafValues>
        -1.5606848895549774e-01 2.3487547039985657e-01</leafValues></_>
    <_>
      <internalNodes>
        0 -1 19278 -1490438909 -644078004 -1628916429 1946298718
        -1428555210 -1651060952 165841295 -1659226925</internalNodes>
      <leafValues>
        -1.5272861719131470e-01 2.3325000703334808e-01</leafValues></_>
    <_>
      <internalNodes>
        0 -1 67106 -604244353 -439758852 50129444 -709628678 -678954502
        -492552262 -1888029814 -1111770117</internalNodes>
      <leafValues>
        -1.2422002851963043e-01 3.3412629365921021e-01</leafValues></_>
    <_>
      <internalNodes>
        0 -1 27253 684209232 -905963171 -1041870662 1015306067 223115440
        2146464730 148132976 262680824</internalNodes>
      <leafValues>
        -3.1336119771003723e-01 1.3280835747718811e-01</leafValues></_>
    <_>
      <internalNodes>
        0 -1 2575 1799350061 -235864282 -285422215 1897706282
        -1527257899 240168820 -873083842 -532420574</internalNodes>
      <leafValues>
        -1.7874169349670410e-01 2.1494346857070923e-01</leafValues></_>
    <_>
      <internalNodes>
        0 -1 63814 1109460597 -328682268 -1399657276 2058879172
        -285088660 -350685020 1436601392 1527418592</internalNodes>
      <leafValues>
        -2.5864747166633606e-01 1.5444339811801910e-01</leafValues></_>
    <_>
      <internalNodes>
        0 -1 50380 1297460146 -626150304 1035746532 -1250480202
        -1913161469 -973968327 1872166539 -687238678</internalNodes>
      <leafValues>
        -1.7784388363361359e-01 2.1686406433582306e-01</leafValues></_>
    <_>
      <internalNodes>
        0 -1 12976 51520865 791707817 631961477 -722297755 -1987006353
        710779713 1364742357 625420296</internalNodes>
      <leafValues>
        -2.7198308706283569e-01 1.3569089770317078e-01</leafValues></_>
    <_>
      <internalNodes>
        0 -1 67456 -352152769 -198128068 -261507478 1885387738
        -1079738787 -1655039428 1620895000 -464389446</internalNodes>
      <leafValues>
        -1.7407296597957611e-01 2.2382211685180664e-01</leafValues></_>
    <_>
      <internalNodes>
        0 -1 53240 635922262 -1914955069 -829263600 -95367970 1112623140
        678493008 2082839888 174960848</internalNodes>
      <leafValues>
        -3.3823347091674805e-01 1.0680952668190002e-01</leafValues></_>
    <_>
      <internalNodes>
        0 -1 3354 -66454277 -1926500867 557788793 -583259162 -1879113797
        386910832 319086298 528316735</internalNodes>
      <leafValues>
        -1.6929000616073608e-01 2.3264925181865692e-01</leafValues></_>
    <_>
      <internalNodes>
        0 -1 61880 -338698249 -707301644 1795161908 -258081926
        -1111819848 -860490251 -1980836358 -1280340321</internalNodes>
      <leafValues>
        -8.9162312448024750e-02 3.9671277999877930e-01</leafValues></_>
    <_>
      <internalNodes>
        0 -1 53798 1110378293 343409621 -440212871 -1114946573
        -1034561440 2125537819 2056850848 515506529</internalNodes>
      <leafValues>
        -2.5551232695579529e-01 1.5532372891902924e-01</leafValues></_>
    <_>
      <internalNodes>
        0 -1 42963 1651297816 1367902185 -1091068546 -547055823
        895780275 -608927951 1356693503 1124042191</internalNodes>
      <leafValues>
        -1.9131051003932953e-01 2.1383397281169891e-01</leafValues></_>
    <_>
      <internalNodes>
        0 -1 17964 638004020 -2062519052 -41388940 1617620500
        -1340966624 -1909710494 -1631875584 1349529600</internalNodes>
      <leafValues>
        -4.3745157122612000e-01 9.4034448266029358e-02</leafValues></_>
    <_>
      <internalNodes>
        0 -1 41193 149684256 743503354 -649307184 -1702317657 963140525
        -641088440 -491973665 780534277</internalNodes>
      <leafValues>
        -3.5888123512268066e-01 1.0909382253885269e-01</leafValues></_>
    <_>
      <internalNodes>
        0 -1 2003 1928734596 -395384892 1442890798 -1467828160
        1098308405 1502652442 -930446336 1615164007</internalNodes>
      <leafValues>
        -3.3625781536102295e-01 1.1075513064861298e-01</leafValues></_>
    <_>
      <internalNodes>
        0 -1 64472 1180087690 -1712386205 41893474 -21481646 1074180123
        -1463950669 -2028578147 -1879581219</internalNodes>
      <leafValues>
        -1.6672779619693756e-01 2.2973431646823883e-01</leafValues></_>
    <_>
      <internalNodes>
        0 -1 16263 -209735979 -68614840 -1267028336 -206635860
        -275257651 -814889643 -214772310 -76636178</internalNodes>
      <leafValues>
        -1.2502360343933105e-01 3.2057708501815796e-01</leafValues></_>
    <_>
      <internalNodes>
        0 -1 18308 -935008501 604563038 -237838666 2060166688 1960638717
        -1994362732 965488350 1913737027</internalNodes>
      <leafValues>
        -2.1563494205474854e-01 1.8766266107559204e-01</leafValues></_>
    <_>
      <internalNodes>
        0 -1 47328 1078689665 1233312836 1280008145 1602226913
        1251876539 -1728384552 133507498 508227729</internalNodes>
      <leafValues>
        -2.0177920162677765e-01 2.0688420534133911e-01</leafValues></_>
    <_>
      <internalNodes>
        0 -1 54117 -467211488 1884342477 456204656 -1078169296
        1246263200 368618064 608488929 263653514</internalNodes>
      <leafValues>
        -2.6649039983749390e-01 1.5393708646297455e-01</leafValues></_>
    <_>
      <internalNodes>
        0 -1 27018 -932927713 -173119959 -980362546 1530374454
        1080564221 -230397699 2055239196 453914688</internalNodes>
      <leafValues>
        -2.2107133269309998e-01 1.9228482246398926e-01</leafValues></_>
    <_>
      <internalNodes>
        0 -1 806 -55224577 -10991319 973853362 1616267680 -226848238
        -111536109 356106388 1094713545</internalNodes>
      <leafValues>
        -2.6483279466629028e-01 1.5477779507637024e-01</leafValues></_>
    <_>
      <internalNodes>
        0 -1 16084 -1021079927 -685622748 -2101791917 1949120057
        701290586 1651474270 54975225 2136946398</internalNodes>
      <leafValues>
        -1.7532159388065338e-01 2.3426489531993866e-01</leafValues></_>
    <_>
      <internalNodes>
        0 -1 4615 -705314217 -325318689 -78624270 -184523012 1683893186
        -1000550576 -136130240 -1310291480</internalNodes>
      <leafValues>
        -1.7875844240188599e-01 2.2657589614391327e-01</leafValues></_>
    <_>
      <internalNodes>
        0 -1 58497 260625427 148914888 404414299 586078556 1277969922
        1215410997 274961908 1280862636</internalNodes>
      <leafValues>
        -3.1766042113304138e-01 1.2804390490055084e-01</leafValues></_>
    <_>
      <internalNodes>
        0 -1 34 -1943739964 -1988054934 -574582004 -281376916 -900306034
        -32063304 260834018 -1521269931</internalNodes>
      <leafValues>
        -2.8887337446212769e-01 1.3906216621398926e-01</leafValues></_>
    <_>
      <internalNodes>
        0 -1 1092 205869256 -221086239 -187136818 1356596744 -107159950
        -1861351286 1351472948 67771788</internalNodes>
      <leafValues>
        -3.3318346738815308e-01 1.3152247667312622e-01</leafValues></_>
    <_>
      <internalNodes>
        0 -1 15264 -338422660 -811044520 -1198984505 -1064336791
        -1165801451 -373456304 2039261993 135419251</internalNodes>
      <leafValues>
        -2.4053996801376343e-01 1.7469583451747894e-01</leafValues></_>
    <_>
      <internalNodes>
        0 -1 37193 876425651 -642577597 -481823158 -8439068 -473113098
        -96611024 -1349623810 -1950389043</internalNodes>
      <leafValues>
        -1.4013841748237610e-01 3.1142911314964294e-01</leafValues></_>
    <_>
      <internalNodes>
        0 -1 63463 1272925735 467227090 -1266036846 -1533489146
        -89798847 -792097151 -662389248 1079336132</internalNodes>
      <leafValues>
        -3.0569767951965332e-01 1.4397220313549042e-01</leafValues></_>
    <_>
      <internalNodes>
        0 -1 53561 1274512308 1194552991 -9618059 461102221 492934569
        1644010800 -48315509 360640451</internalNodes>
      <leafValues>
        -1.9335374236106873e-01 2.2458241879940033e-01</leafValues></_>
    <_>
      <internalNodes>
        0 -1 10828 2121805461 2139581038 -1078214722 -592711064
        666878058 -1396044716 -369119553 1473300102</internalNodes>
      <leafValues>
        -1.9781857728958130e-01 2.1559907495975494e-01</leafValues></_>
    <_>
      <internalNodes>
        0 -1 6633 -1035078446 459285548 1149770952 -1385682586
        -802650948 -506982315 136388748 1277582123</internalNodes>
      <leafValues>
        -2.6351946592330933e-01 1.6075047850608826e-01</leafValues></_>
    <_>
      <internalNodes>
        0 -1 31159 127339063 214829830 -1290705487 -1910632096 336143107
        -850003799 114450560 211029204</internalNodes>
      <leafValues>
        -3.7461885809898376e-01 1.0508719831705093e-01</leafValues></_>
    <_>
      <internalNodes>
        0 -1 13312 1526577083 -6566209 -957359253 -783122979 -671234852
        -315036951 1389678810 -948186913</internalNodes>
      <leafValues>
        -1.0871428251266479e-01 3.9928385615348816e-01</leafValues></_>
    <_>
      <internalNodes>
        0 -1 67339 1983552750 1574216796 -1901941449 88974017 134791709
        -1869402101 -1556963486 1535344698</internalNodes>
      <leafValues>
        -2.0771574974060059e-01 2.0600178837776184e-01</leafValues></_>
    <_>
      <internalNodes>
        0 -1 40639 -1846893661 -1155891577 -1276494453 -639425933
        -839731383 -455352368 -24801361 980397015</internalNodes>
      <leafValues>
        -1.3409277796745300e-01 3.1522521376609802e-01</leafValues></_>
    <_>
      <internalNodes>
        0 -1 42179 678057712 190846839 395604820 -278950022 -2016677920
        1280835992 -1059289920 55927889</internalNodes>
      <leafValues>
        -3.3904483914375305e-01 1.2702764570713043e-01</leafValues></_>
    <_>
      <internalNodes>
        0 -1 18969 1521313104 -988992239 -1955212912 -233464874
        -1626545658 -1884599740 609309957 1440616848</internalNodes>
      <leafValues>
        -2.6852333545684814e-01 1.5722244977951050e-01</leafValues></_>
    <_>
      <internalNodes>
        0 -1 48828 -460935549 1014503381 -1253223039 740367248
        1426508365 1425373298 1656074015 577961904</internalNodes>
      <leafValues>
        -2.6025164127349854e-01 1.6935700178146362e-01</leafValues></_>
    <_>
      <internalNodes>
        0 -1 18784 980549888 777868460 1359583816 699810275 -1181403056
        -1152577145 -1356326480 732703744</internalNodes>
      <leafValues>
        -4.4654902815818787e-01 9.9533274769783020e-02</leafValues></_>
    <_>
      <internalNodes>
        0 -1 2451 -1467074992 -841035796 -1611731617 -875590102
        1868341015 -811831786 215478361 2147177311</internalNodes>
      <leafValues>
        -2.0249851047992706e-01 2.2535999119281769e-01</leafValues></_>
    <_>
      <internalNodes>
        0 -1 55109 -834466911 1745234841 -1006562009 617580849
        -2071378348 1924768311 2130647045 1860238145</internalNodes>
      <leafValues>
        -2.9314398765563965e-01 1.4730739593505859e-01</leafValues></_>
    <_>
      <internalNodes>
        0 -1 34588 1521135037 -99018571 955977277 2108645245 2061437595
        -1107976295 -122643713 1529869963</internalNodes>
      <leafValues>
        -1.2340803444385529e-01 3.6609277129173279e-01</leafValues></_></weakClassifiers></stage9>
</opencv_storage>
