<?xml version="1.0"?>
<opencv_storage>
<stage5>
  <maxWeakCount>58</maxWeakCount>
  <stageThreshold>-9.1137731075286865e-01</stageThreshold>
  <weakClassifiers>
    <_>
      <internalNodes>
        0 -1 2740 -766054674 -580853223 -520075490 1446564396 1418296016
        2139321706 -657527894 -312422850</internalNodes>
      <leafValues>
        -2.6870661973953247e-01 1.7100310325622559e-01</leafValues></_>
    <_>
      <internalNodes>
        0 -1 216 -995557426 -391714946 -2045840995 -30807510 134525887
        -117960515 1441180766 -1060941001</internalNodes>
      <leafValues>
        -2.1429322659969330e-01 1.9432245194911957e-01</leafValues></_>
    <_>
      <internalNodes>
        0 -1 61921 -194038013 353382691 -669903010 1886532663 -773341215
        609264388 -257352388 538979106</internalNodes>
      <leafValues>
        -3.0667144060134888e-01 1.3580793142318726e-01</leafValues></_>
    <_>
      <internalNodes>
        0 -1 58409 -606931024 -1860110488 -307716944 -1074205312
        -1462982996 -1097822544 269551632 -1199044476</internalNodes>
      <leafValues>
        -3.1249061226844788e-01 1.5205708146095276e-01</leafValues></_>
    <_>
      <internalNodes>
        0 -1 44925 151364538 2134918796 1430279258 1800640446 35334075
        -1528554592 1846439930 1127587202</internalNodes>
      <leafValues>
        -2.0421604812145233e-01 2.0453561842441559e-01</leafValues></_>
    <_>
      <internalNodes>
        0 -1 3380 -162733825 -235460444 -196017598 1344815225 -132918773
        -27497422 -717095782 319213471</internalNodes>
      <leafValues>
        -2.2449652850627899e-01 1.7957927286624908e-01</leafValues></_>
    <_>
      <internalNodes>
        0 -1 2861 -75499217 -591648917 -25435137 308440814 935145274
        -1758511273 -226837253 -10487077</internalNodes>
      <leafValues>
        -1.4281438291072845e-01 3.2022526860237122e-01</leafValues></_>
    <_>
      <internalNodes>
        0 -1 29960 986493888 2075272800 -4715107 -103761211 634297280
        -4552521 763594712 339937514</internalNodes>
      <leafValues>
        -3.0856761336326599e-01 1.1880380660295486e-01</leafValues></_>
    <_>
      <internalNodes>
        0 -1 60700 596446466 800976213 -1017642411 -855830416 -348632304
        -326514991 866920049 -1963405116</internalNodes>
      <leafValues>
        -2.7873295545578003e-01 1.5715563297271729e-01</leafValues></_>
    <_>
      <internalNodes>
        0 -1 66833 -77599025 -181053460 987555408 -235290021 -48693332
        -509021519 -813371745 -1078201461</internalNodes>
      <leafValues>
        -9.9782437086105347e-02 4.3039795756340027e-01</leafValues></_>
    <_>
      <internalNodes>
        0 -1 22862 738201365 -295764182 -1962018387 -2039950506
        -17154755 -1079270836 -345212991 151016560</internalNodes>
      <leafValues>
        -3.8339069485664368e-01 1.0406124591827393e-01</leafValues></_>
    <_>
      <internalNodes>
        0 -1 67465 -184549883 -23165394 -461860170 -254751542 -96606697
        -979309020 -800790356 -257172228</internalNodes>
      <leafValues>
        -1.8086755275726318e-01 2.3651918768882751e-01</leafValues></_>
    <_>
      <internalNodes>
        0 -1 3874 -948058554 -224080428 -530169716 1389425708 -213737144
        1146773825 1977282790 285884828</internalNodes>
      <leafValues>
        -2.5966355204582214e-01 1.7280872166156769e-01</leafValues></_>
    <_>
      <internalNodes>
        0 -1 60768 26880272 189788305 1153775966 -1988317636 723671072
        1015741574 -538185804 -1364280384</internalNodes>
      <leafValues>
        -3.0234971642494202e-01 1.2357638031244278e-01</leafValues></_>
    <_>
      <internalNodes>
        0 -1 18 -993600004 93257595 -1012803107 -41422160 -1041835055
        1745285739 -916418527 -1930100704</internalNodes>
      <leafValues>
        -2.4715645611286163e-01 1.7453382909297943e-01</leafValues></_>
    <_>
      <internalNodes>
        0 -1 67340 -606080261 -703742330 -2103141244 -510704564
        1941878698 -843835696 1716310677 1397338776</internalNodes>
      <leafValues>
        -1.9688692688941956e-01 2.2003199160099030e-01</leafValues></_>
    <_>
      <internalNodes>
        0 -1 16060 792271233 -301135936 622023905 412490131 -204893573
        1533899839 824363434 1504340478</internalNodes>
      <leafValues>
        -2.3269565403461456e-01 1.8841670453548431e-01</leafValues></_>
    <_>
      <internalNodes>
        0 -1 32240 -680841388 -1907705347 -1501443179 1711443195
        857932737 -24493655 -18958875 -122812108</internalNodes>
      <leafValues>
        -2.4823111295700073e-01 1.7489485442638397e-01</leafValues></_>
    <_>
      <internalNodes>
        0 -1 67118 -623005651 -89331483 -903000425 -790417728 -564297045
        -1066680332 -734808584 -1213488997</internalNodes>
      <leafValues>
        -1.2105468660593033e-01 3.3529403805732727e-01</leafValues></_>
    <_>
      <internalNodes>
        0 -1 16162 69140465 -572248202 805093342 1040035633 -1281575431
        -33624841 -825276609 -1980263817</internalNodes>
      <leafValues>
        -1.6957210004329681e-01 2.6967924833297729e-01</leafValues></_>
    <_>
      <internalNodes>
        0 -1 18947 548663741 -819000959 103071955 -567448075 -1307513987
        1895515505 1428046176 2141859936</internalNodes>
      <leafValues>
        -2.4582765996456146e-01 1.8165117502212524e-01</leafValues></_>
    <_>
      <internalNodes>
        0 -1 47120 1409114242 1607657073 -1720887952 -752359951
        1723174706 912633221 -1242289736 1272830495</internalNodes>
      <leafValues>
        -2.0860382914543152e-01 2.1909409761428833e-01</leafValues></_>
    <_>
      <internalNodes>
        0 -1 40612 -337713663 340844431 -1051774978 -715694298 172556733
        -1181753569 31346267 149186353</internalNodes>
      <leafValues>
        -2.2776021063327789e-01 1.9070540368556976e-01</leafValues></_>
    <_>
      <internalNodes>
        0 -1 57213 1758885739 -7831889 -470913129 271148791 -218628945
        -565117000 1968305113 -1425924902</internalNodes>
      <leafValues>
        -1.6816084086894989e-01 2.6449111104011536e-01</leafValues></_>
    <_>
      <internalNodes>
        0 -1 3315 -1597398390 1165966818 662379443 -1513654340
        -1979189609 -26378831 323200409 1532961996</internalNodes>
      <leafValues>
        -1.9868379831314087e-01 2.2609475255012512e-01</leafValues></_>
    <_>
      <internalNodes>
        0 -1 505 -25238826 -360834 -285212673 1853800118 -847987075
        -1342767106 -285590348 2104981111</internalNodes>
      <leafValues>
        -2.0079044997692108e-01 2.3584392666816711e-01</leafValues></_>
    <_>
      <internalNodes>
        0 -1 55706 1615324672 203862832 -435084288 206361012 677646528
        101221608 1891173056 77336708</internalNodes>
      <leafValues>
        -4.7977253794670105e-01 1.1423358321189880e-01</leafValues></_>
    <_>
      <internalNodes>
        0 -1 54328 848904229 1110052448 705560730 -256245431 -1591493635
        -1102327220 -539514996 -336687368</internalNodes>
      <leafValues>
        -2.1099305152893066e-01 2.1255354583263397e-01</leafValues></_>
    <_>
      <internalNodes>
        0 -1 44690 235538465 -1961335044 -769560597 -1972029785
        694644053 -272925805 -402252541 11941701</internalNodes>
      <leafValues>
        -3.2979267835617065e-01 1.3256961107254028e-01</leafValues></_>
    <_>
      <internalNodes>
        0 -1 59376 1430630314 1414589309 -2083175988 2012290953
        -627084840 -2133441841 -306946144 1306767595</internalNodes>
      <leafValues>
        -2.0562899112701416e-01 2.1601277589797974e-01</leafValues></_>
    <_>
      <internalNodes>
        0 -1 33666 884942462 933060286 -2070275248 -216979220 694707818
        -376663148 -686282326 152601574</internalNodes>
      <leafValues>
        -2.6606431603431702e-01 1.7011588811874390e-01</leafValues></_>
    <_>
      <internalNodes>
        0 -1 64477 -519469320 -683560657 -1594018773 201684068
        -1440838373 -2033666318 -1768440084 -540096072</internalNodes>
      <leafValues>
        -1.9541381299495697e-01 2.4119599163532257e-01</leafValues></_>
    <_>
      <internalNodes>
        0 -1 56756 1789361187 999862275 -851237267 -2034970507
        1426159876 1941545315 -117345504 -992833324</internalNodes>
      <leafValues>
        -2.7989035844802856e-01 1.7206490039825439e-01</leafValues></_>
    <_>
      <internalNodes>
        0 -1 39182 -222909029 392438460 -411947213 668805037 -2039003980
        2146970856 902614527 1253015871</internalNodes>
      <leafValues>
        -1.8373754620552063e-01 2.6885557174682617e-01</leafValues></_>
    <_>
      <internalNodes>
        0 -1 6474 -704689029 -966574617 -404812899 -226853130 -238935622
        -699044075 1610391458 2071953374</internalNodes>
      <leafValues>
        -1.7486645281314850e-01 2.6475194096565247e-01</leafValues></_>
    <_>
      <internalNodes>
        0 -1 54208 276702147 -1232465163 -1670233159 -204050285
        -1135993356 -491898163 770189989 -219491596</internalNodes>
      <leafValues>
        -2.3652186989784241e-01 2.0149895548820496e-01</leafValues></_>
    <_>
      <internalNodes>
        0 -1 0 1423777451 -4381026 1076405870 -1430261346 2037928654
        658913345 1265390332 189283582</internalNodes>
      <leafValues>
        -2.6774036884307861e-01 1.7769047617912292e-01</leafValues></_>
    <_>
      <internalNodes>
        0 -1 4745 -1291028561 -490802796 1339685498 -31182072 -683435872
        1165339381 841270560 -76771691</internalNodes>
      <leafValues>
        -2.2997432947158813e-01 2.0421905815601349e-01</leafValues></_>
    <_>
      <internalNodes>
        0 -1 65806 -69890522 -1014567 139511876 -1877094268 -722413784
        1906111936 829994460 597367032</internalNodes>
      <leafValues>
        -2.5223082304000854e-01 1.9270035624504089e-01</leafValues></_>
    <_>
      <internalNodes>
        0 -1 66290 -1291613592 329364097 277522020 1351657256 -414211257
        -1672883541 -1656572859 504341496</internalNodes>
      <leafValues>
        -2.5179722905158997e-01 1.8839691579341888e-01</leafValues></_>
    <_>
      <internalNodes>
        0 -1 43672 43943552 -368925344 604549658 928151528 33559485
        -1836796830 929370288 2146177836</internalNodes>
      <leafValues>
        -3.1390795111656189e-01 1.4602066576480865e-01</leafValues></_>
    <_>
      <internalNodes>
        0 -1 39520 -1429296090 -656660288 -543438490 -226058147
        -1295659602 -369047782 -1225741431 188122300</internalNodes>
      <leafValues>
        -2.5730943679809570e-01 1.8479861319065094e-01</leafValues></_>
    <_>
      <internalNodes>
        0 -1 6916 1684304398 -252775225 584004836 -738184750 -242693115
        1107337336 1356392423 1365776446</internalNodes>
      <leafValues>
        -3.1025260686874390e-01 1.5884964168071747e-01</leafValues></_>
    <_>
      <internalNodes>
        0 -1 67080 -193334093 -551620114 -1199796374 -792359866
        -1082607857 -985080898 1963255450 -611590709</internalNodes>
      <leafValues>
        -1.4837108552455902e-01 3.4678196907043457e-01</leafValues></_>
    <_>
      <internalNodes>
        0 -1 41639 1055205169 -77642122 -360896975 325156045 -294137874
        -851250107 1953607223 -854432527</internalNodes>
      <leafValues>
        -1.5780596435070038e-01 2.9991871118545532e-01</leafValues></_>
    <_>
      <internalNodes>
        0 -1 27280 -1423114103 -517401119 1060715473 -1188553436
        649770909 1607786477 1811610214 -2186080</internalNodes>
      <leafValues>
        -2.0196591317653656e-01 2.3216345906257629e-01</leafValues></_>
    <_>
      <internalNodes>
        0 -1 2717 -1066406659 -276173057 -832911278 -222269790
        -546949704 -1502262160 2078664670 -1248878934</internalNodes>
      <leafValues>
        -1.6671222448348999e-01 2.8826212882995605e-01</leafValues></_>
    <_>
      <internalNodes>
        0 -1 67598 -233789392 -538438228 1724511746 1585768180
        1580835332 198217918 -1164002034 467629804</internalNodes>
      <leafValues>
        -2.6353737711906433e-01 1.8367071449756622e-01</leafValues></_>
    <_>
      <internalNodes>
        0 -1 38306 209727255 546360485 151930321 1934424801 674185385
        -1475681848 -1940627963 753417472</internalNodes>
      <leafValues>
        -4.1466468572616577e-01 1.2321408838033676e-01</leafValues></_>
    <_>
      <internalNodes>
        0 -1 50799 -767049087 980725565 1870427216 1508300292
        -1001415795 -250481227 -143905622 148846785</internalNodes>
      <leafValues>
        -2.1505799889564514e-01 2.2859962284564972e-01</leafValues></_>
    <_>
      <internalNodes>
        0 -1 67582 -399536641 -70525653 2063133135 897551301 -1229458065
        1417073397 -769722732 -536887857</internalNodes>
      <leafValues>
        -1.4319705963134766e-01 3.5505056381225586e-01</leafValues></_>
    <_>
      <internalNodes>
        0 -1 7588 -1110683819 871153524 637319465 2109815118 -88222064
        -1929557900 -1351110775 -1236441905</internalNodes>
      <leafValues>
        -1.7709358036518097e-01 2.7514562010765076e-01</leafValues></_>
    <_>
      <internalNodes>
        0 -1 1889 -201333441 -1178302865 -86706 -592646584 1149015869
        -926655241 762626065 -723160709</internalNodes>
      <leafValues>
        -2.0143698155879974e-01 2.5456646084785461e-01</leafValues></_>
    <_>
      <internalNodes>
        0 -1 43191 -628166874 -1757303482 780040120 567912820 1410688365
        1535502013 611286477 531614331</internalNodes>
      <leafValues>
        -1.9998429715633392e-01 2.5835722684860229e-01</leafValues></_>
    <_>
      <internalNodes>
        0 -1 41221 -1645969260 1113506492 -561368632 -2120432075
        2048167448 792699576 962644350 185073664</internalNodes>
      <leafValues>
        -4.4323828816413879e-01 1.1636006087064743e-01</leafValues></_>
    <_>
      <internalNodes>
        0 -1 6734 -2129402141 39851115 1854294370 2050126171 -2120689768
        1962975338 109120906 1466511293</internalNodes>
      <leafValues>
        -2.7007466554641724e-01 1.9225780665874481e-01</leafValues></_>
    <_>
      <internalNodes>
        0 -1 58390 278939821 -1967107554 -838630608 -1544118315
        1740991319 -1717532491 -1473178732 -307315664</internalNodes>
      <leafValues>
        -2.7100706100463867e-01 1.8237441778182983e-01</leafValues></_>
    <_>
      <internalNodes>
        0 -1 9868 1712847053 -279707175 -938534640 -938910852
        -1658074588 371550724 -1282374220 458097618</internalNodes>
      <leafValues>
        -2.7346593141555786e-01 1.8807499110698700e-01</leafValues></_></weakClassifiers></stage5>
</opencv_storage>
