<?xml version="1.0"?>
<opencv_storage>
<stage0>
  <maxWeakCount>29</maxWeakCount>
  <stageThreshold>-1.1037791967391968e+00</stageThreshold>
  <weakClassifiers>
    <_>
      <internalNodes>
        0 -1 2560 -34799668 -142547004 -980877364 -549409396 -4129912
        -3629688 -351731832 -553582968</internalNodes>
      <leafValues>
        -5.2505642175674438e-01 4.1759425401687622e-01</leafValues></_>
    <_>
      <internalNodes>
        0 -1 126 -389222404 -19501540 -1616368308 -37481524 -320942082
        -320568868 -1965191266 1246036650</internalNodes>
      <leafValues>
        -4.4845515489578247e-01 3.2852283120155334e-01</leafValues></_>
    <_>
      <internalNodes>
        0 -1 860 -990984466 -623707700 -1919361078 -19870680 211845854
        -1602868584 -1072594706 1212271242</internalNodes>
      <leafValues>
        -3.9176061749458313e-01 2.8469774127006531e-01</leafValues></_>
    <_>
      <internalNodes>
        0 -1 49488 -112214260 992740114 -1049168388 -1080449266
        -105054252 -1376249840 -363004216 285815946</internalNodes>
      <leafValues>
        -3.8065069913864136e-01 2.7512311935424805e-01</leafValues></_>
    <_>
      <internalNodes>
        0 -1 160 -1026257408 1064702222 -543248483 -1920662782
        -827985986 -315988979 -336783351 84148224</internalNodes>
      <leafValues>
        -4.0850454568862915e-01 2.4672663211822510e-01</leafValues></_>
    <_>
      <internalNodes>
        0 -1 2860 -402684993 -1032630363 -285285485 -433391686 -75531213
        -278434505 -537491481 -65537</internalNodes>
      <leafValues>
        -2.5410243868827820e-01 4.0074637532234192e-01</leafValues></_>
    <_>
      <internalNodes>
        0 -1 55791 2130704256 -141509340 1029495040 -571125848 566097872
        -361345967 -1591119488 -1190539904</internalNodes>
      <leafValues>
        -3.6326101422309875e-01 2.6032659411430359e-01</leafValues></_>
    <_>
      <internalNodes>
        0 -1 64508 -42991809 -226417073 -536877159 817004118 -4204034
        -1422852204 -690430727 -536805774</internalNodes>
      <leafValues>
        -2.7389755845069885e-01 3.2945778965950012e-01</leafValues></_>
    <_>
      <internalNodes>
        0 -1 54232 135671090 144518575 1984897023 -1376947394 -796961357
        -68955432 -943277904 -18346768</internalNodes>
      <leafValues>
        -3.4699848294258118e-01 2.4105817079544067e-01</leafValues></_>
    <_>
      <internalNodes>
        0 -1 64931 -808980599 593666933 -1091281144 1531837791 -75911920
        -1365639724 -1972044480 -2010922941</internalNodes>
      <leafValues>
        -2.4240820109844208e-01 3.3536010980606079e-01</leafValues></_>
    <_>
      <internalNodes>
        0 -1 40328 1431613371 -545779842 502873980 -580038690 -443404294
        -1380122861 -155320342 1431146122</internalNodes>
      <leafValues>
        -2.5548222661018372e-01 3.2573041319847107e-01</leafValues></_>
    <_>
      <internalNodes>
        0 -1 29600 1657734459 -1399971024 1034597263 -321069407
        -1235219891 -138894867 -1179190495 -19769456</internalNodes>
      <leafValues>
        -2.9367917776107788e-01 2.8505411744117737e-01</leafValues></_>
    <_>
      <internalNodes>
        0 -1 2758 1591002334 -113549714 -90505554 -207474062 1172893080
        -1418961308 -52363570 -121536982</internalNodes>
      <leafValues>
        -2.8128942847251892e-01 3.0365985631942749e-01</leafValues></_>
    <_>
      <internalNodes>
        0 -1 60381 611263801 771979558 -1157144685 -88519562 1943949156
        2140281338 -575443408 -132059536</internalNodes>
      <leafValues>
        -3.6756926774978638e-01 2.2852538526058197e-01</leafValues></_>
    <_>
      <internalNodes>
        0 -1 23806 1246012040 -1825673784 -334447590 -47700478
        1684921999 1775245726 150242027 460281423</internalNodes>
      <leafValues>
        -2.9188284277915955e-01 2.8031110763549805e-01</leafValues></_>
    <_>
      <internalNodes>
        0 -1 1009 -118554822 -146759930 -586391851 -482324896 1182794422
        -935040377 1323325198 1157836995</internalNodes>
      <leafValues>
        -3.1229928135871887e-01 2.6393830776214600e-01</leafValues></_>
    <_>
      <internalNodes>
        0 -1 2995 -855756869 -359520730 -432083385 -2141017106
        -947986575 -717654147 -48928872 -79728805</internalNodes>
      <leafValues>
        -2.5232619047164917e-01 3.1763824820518494e-01</leafValues></_>
    <_>
      <internalNodes>
        0 -1 60720 -1439039465 -1926456472 1271936948 749256688
        -425363847 -1505946221 -1817858252 -1359181040</internalNodes>
      <leafValues>
        -3.8131189346313477e-01 2.2177793085575104e-01</leafValues></_>
    <_>
      <internalNodes>
        0 -1 21976 1826145904 -719768795 -1400600747 -1660579064
        -1461932079 -1467597263 -1967105026 152150562</internalNodes>
      <leafValues>
        -3.0314293503761292e-01 2.5988927483558655e-01</leafValues></_>
    <_>
      <internalNodes>
        0 -1 2412 -781719601 1387298519 518827576 -1670902022 1972660430
        -1061899468 1689267482 -60468086</internalNodes>
      <leafValues>
        -2.5441330671310425e-01 3.2401537895202637e-01</leafValues></_>
    <_>
      <internalNodes>
        0 -1 47166 1884741894 2006716020 779943320 965045528 -1996974083
        -321618648 1706281915 -594820901</internalNodes>
      <leafValues>
        -2.1775509417057037e-01 3.6356464028358459e-01</leafValues></_>
    <_>
      <internalNodes>
        0 -1 67413 -357221149 -691343502 -2099317126 1893781242
        -1497187537 -1231632408 -339810412 -1818259236</internalNodes>
      <leafValues>
        -2.4110721051692963e-01 3.3625024557113647e-01</leafValues></_>
    <_>
      <internalNodes>
        0 -1 54353 -327858361 -139054890 -36390914 -764801000 -52815232
        -1433300980 -687607408 -1944548592</internalNodes>
      <leafValues>
        -3.1613850593566895e-01 2.6606249809265137e-01</leafValues></_>
    <_>
      <internalNodes>
        0 -1 59379 -572413146 1964030528 -1760002664 -82789748
        1951980536 586720560 -1127704404 170259648</internalNodes>
      <leafValues>
        -3.8546985387802124e-01 2.1062476933002472e-01</leafValues></_>
    <_>
      <internalNodes>
        0 -1 43584 214380497 -1607187343 -712196047 -1098886890
        1687424498 -1683312805 1341060340 -387408204</internalNodes>
      <leafValues>
        -3.2861480116844177e-01 2.4360242486000061e-01</leafValues></_>
    <_>
      <internalNodes>
        0 -1 50999 1596240672 421707631 532479152 535878400 -2044080136
        -1091538948 1249240555 -1976073057</internalNodes>
      <leafValues>
        -2.6398092508316040e-01 3.1416493654251099e-01</leafValues></_>
    <_>
      <internalNodes>
        0 -1 29296 -129589202 1580215622 -32234250 2072911408 -851431020
        1066166465 -339639110 2066247250</internalNodes>
      <leafValues>
        -3.2797777652740479e-01 2.4911874532699585e-01</leafValues></_>
    <_>
      <internalNodes>
        0 -1 14484 110894388 -1527490984 -1577042884 1078198516
        239656881 -830358939 2094111528 1247261778</internalNodes>
      <leafValues>
        -4.1577684879302979e-01 1.9855642318725586e-01</leafValues></_>
    <_>
      <internalNodes>
        0 -1 2639 -1968305233 -312832065 -1331760793 -489813276
        1720555519 -366025390 -1479126683 -5850464</internalNodes>
      <leafValues>
        -2.9063513875007629e-01 2.9009649157524109e-01</leafValues></_></weakClassifiers></stage0>
</opencv_storage>
