<?xml version="1.0"?>
<opencv_storage>
<stage8>
  <maxWeakCount>64</maxWeakCount>
  <stageThreshold>-9.5404177904129028e-01</stageThreshold>
  <weakClassifiers>
    <_>
      <internalNodes>
        0 -1 32199 -2320432 -13590630 1464671729 2001335296 -645137968
        -212160048 -560364616 -352040960</internalNodes>
      <leafValues>
        -2.4409043788909912e-01 1.5553373098373413e-01</leafValues></_>
    <_>
      <internalNodes>
        0 -1 1113 -219223318 -941071460 -1056538325 -2017155516 46295654
        1073883202 1896233024 -300783050</internalNodes>
      <leafValues>
        -2.7476909756660461e-01 1.3181214034557343e-01</leafValues></_>
    <_>
      <internalNodes>
        0 -1 61552 -889780465 876279086 -1344540906 -2033455614
        -648337584 -540038868 -1174800064 -2073757024</internalNodes>
      <leafValues>
        -2.5122475624084473e-01 1.3216832280158997e-01</leafValues></_>
    <_>
      <internalNodes>
        0 -1 3043 569729341 427624709 -151436684 809327566 784304664
        1668757364 901730320 1971289503</internalNodes>
      <leafValues>
        -1.7154233157634735e-01 2.0193195343017578e-01</leafValues></_>
    <_>
      <internalNodes>
        0 -1 9880 -135442701 -44085508 1477386408 -768726318 -90274804
        -989062280 1353499267 1353372911</internalNodes>
      <leafValues>
        -2.1343207359313965e-01 1.6268338263034821e-01</leafValues></_>
    <_>
      <internalNodes>
        0 -1 39026 -794377713 1394130746 -142578199 -1301423773
        550766330 969552284 -1096004865 1054831583</internalNodes>
      <leafValues>
        -1.9303885102272034e-01 1.9397386908531189e-01</leafValues></_>
    <_>
      <internalNodes>
        0 -1 67402 -184714761 -159549748 1524126272 -253704012
        -814050448 -959119436 -541003619 -147595270</internalNodes>
      <leafValues>
        -1.1983326822519302e-01 2.7481850981712341e-01</leafValues></_>
    <_>
      <internalNodes>
        0 -1 42953 205497891 -1768235353 -65215529 -1394378782
        1282737557 2042287791 -432977337 989492900</internalNodes>
      <leafValues>
        -2.5228866934776306e-01 1.3401913642883301e-01</leafValues></_>
    <_>
      <internalNodes>
        0 -1 33818 2076287038 1592085226 1042815492 -171008336 544140432
        1840302122 -1391948165 1363677469</internalNodes>
      <leafValues>
        -2.0982544124126434e-01 1.7492723464965820e-01</leafValues></_>
    <_>
      <internalNodes>
        0 -1 32350 -372897991 -2010632252 1145650465 -319370982
        1929511024 -605107854 -421730220 -13050540</internalNodes>
      <leafValues>
        -2.5772356986999512e-01 1.2741428613662720e-01</leafValues></_>
    <_>
      <internalNodes>
        0 -1 62847 -254235392 2124419476 463658804 1558037172 1896588777
        -1115448915 112714240 -1899160107</internalNodes>
      <leafValues>
        -2.1069829165935516e-01 1.7594061791896820e-01</leafValues></_>
    <_>
      <internalNodes>
        0 -1 6702 1242463984 233788301 -2040587052 175828799 1513316328
        -694787447 450878968 -892412065</internalNodes>
      <leafValues>
        -2.4409645795822144e-01 1.2972232699394226e-01</leafValues></_>
    <_>
      <internalNodes>
        0 -1 16406 -1640705344 -305213849 -1567477732 1920645326
        -790631862 1332272688 1621419382 926876700</internalNodes>
      <leafValues>
        -2.1077729761600494e-01 1.8014878034591675e-01</leafValues></_>
    <_>
      <internalNodes>
        0 -1 65880 -672235657 -648041802 -893534676 1893772006 -45949449
        -1513834598 -965017968 -608446496</internalNodes>
      <leafValues>
        -1.7292183637619019e-01 2.2479024529457092e-01</leafValues></_>
    <_>
      <internalNodes>
        0 -1 52024 746728960 776382404 -384698083 885836561 201876273
        -1349824282 -1409273744 2014594080</internalNodes>
      <leafValues>
        -4.1926518082618713e-01 9.8931446671485901e-02</leafValues></_>
    <_>
      <internalNodes>
        0 -1 45332 1497412130 1476831228 -1328260188 1527636433
        1807911598 2046360180 154415899 421049524</internalNodes>
      <leafValues>
        -2.7170765399932861e-01 1.4057894051074982e-01</leafValues></_>
    <_>
      <internalNodes>
        0 -1 51246 1859079031 -68326294 2113783155 -13568077 -269115442
        -1075677512 -1350847254 -1693918293</internalNodes>
      <leafValues>
        -1.1522954702377319e-01 3.4177577495574951e-01</leafValues></_>
    <_>
      <internalNodes>
        0 -1 16179 2025910997 -58291252 -1391941794 -685275091
        -1298143495 -1445587970 123504840 142017771</internalNodes>
      <leafValues>
        -2.0050506293773651e-01 1.9078353047370911e-01</leafValues></_>
    <_>
      <internalNodes>
        0 -1 23920 -1126231984 -1400330286 -1587782219 1112589471
        -1087250128 -1911842806 1920200817 419459188</internalNodes>
      <leafValues>
        -3.0048280954360962e-01 1.2582460045814514e-01</leafValues></_>
    <_>
      <internalNodes>
        0 -1 64519 -235937817 -571552779 703722623 -236721284 -546964033
        -582427092 -537078805 -1080312065</internalNodes>
      <leafValues>
        -8.8935300707817078e-02 4.5734143257141113e-01</leafValues></_>
    <_>
      <internalNodes>
        0 -1 38082 225453755 -1937821996 -2041830052 382620896 818428968
        -666288107 -875616375 1360368878</internalNodes>
      <leafValues>
        -2.3359702527523041e-01 1.7449311912059784e-01</leafValues></_>
    <_>
      <internalNodes>
        0 -1 58222 -304050431 941683296 -409568331 -1376931852
        1828015461 -119572333 -493150352 620452800</internalNodes>
      <leafValues>
        -2.5186309218406677e-01 1.4883704483509064e-01</leafValues></_>
    <_>
      <internalNodes>
        0 -1 66376 -92571033 -1510027214 -364927954 284424902 -482484324
        -593276944 975744222 -1316321638</internalNodes>
      <leafValues>
        -1.6369619965553284e-01 2.3605599999427795e-01</leafValues></_>
    <_>
      <internalNodes>
        0 -1 19020 539555334 -1766173206 -394724680 1612715659
        -1899189880 -312860011 334732319 205971461</internalNodes>
      <leafValues>
        -2.6177790760993958e-01 1.5436555445194244e-01</leafValues></_>
    <_>
      <internalNodes>
        0 -1 44610 237964306 651872095 916825983 -1706467635 634870532
        941060825 1448915 208145760</internalNodes>
      <leafValues>
        -3.4648200869560242e-01 1.1081706732511520e-01</leafValues></_>
    <_>
      <internalNodes>
        0 -1 58809 1386674074 1635905841 -1053775634 -287854272
        -353959952 -86101114 2110841276 1235821642</internalNodes>
      <leafValues>
        -2.2191382944583893e-01 1.7959935963153839e-01</leafValues></_>
    <_>
      <internalNodes>
        0 -1 29994 -1872822411 -6476497 317365853 929557748 -1081493571
        -809143324 -1991215217 -74472701</internalNodes>
      <leafValues>
        -1.2263773381710052e-01 3.3484622836112976e-01</leafValues></_>
    <_>
      <internalNodes>
        0 -1 39132 -766644475 2135273001 -2030446630 1064653749
        543607279 -1229135748 1867031946 1876912179</internalNodes>
      <leafValues>
        -1.3749338686466217e-01 2.7467268705368042e-01</leafValues></_>
    <_>
      <internalNodes>
        0 -1 34435 70203177 -1403620158 -32835596 -1494438026 1918468003
        -393328385 1519286089 -253035311</internalNodes>
      <leafValues>
        -2.4571241438388824e-01 1.6157712042331696e-01</leafValues></_>
    <_>
      <internalNodes>
        0 -1 13 1157274476 -145358499 1693895272 1080575458 854115159
        1379000832 77538831 45768025</internalNodes>
      <leafValues>
        -3.2116153836250305e-01 1.2683194875717163e-01</leafValues></_>
    <_>
      <internalNodes>
        0 -1 9366 1363158055 -747190128 1421896710 1924319388 72090052
        1482829824 697325685 1665294422</internalNodes>
      <leafValues>
        -2.9632231593132019e-01 1.3659855723381042e-01</leafValues></_>
    <_>
      <internalNodes>
        0 -1 67353 -1196757882 1145832066 134763172 1877056 -620111428
        9462784 -619845696 1133327812</internalNodes>
      <leafValues>
        -3.0102819204330444e-01 1.3418281078338623e-01</leafValues></_>
    <_>
      <internalNodes>
        0 -1 18419 -1910504941 547400055 -549406503 677686996 1411523184
        -1149323110 -1232269136 -220695980</internalNodes>
      <leafValues>
        -3.1376796960830688e-01 1.1953790485858917e-01</leafValues></_>
    <_>
      <internalNodes>
        0 -1 40826 -789658496 915957507 -317716314 601852422 58167947
        -1005100397 1243179299 1121872853</internalNodes>
      <leafValues>
        -2.3033007979393005e-01 1.7769488692283630e-01</leafValues></_>
    <_>
      <internalNodes>
        0 -1 7216 1232419780 -358914747 2145142326 1396982344 -269712368
        1153221132 -968223098 251795640</internalNodes>
      <leafValues>
        -2.8071865439414978e-01 1.5083211660385132e-01</leafValues></_>
    <_>
      <internalNodes>
        0 -1 42 604434054 -1772368120 -837802822 463742482 1756857444
        -1863003007 -1114131724 -2106256096</internalNodes>
      <leafValues>
        -2.9612571001052856e-01 1.3364551961421967e-01</leafValues></_>
    <_>
      <internalNodes>
        0 -1 66548 -671353563 897183344 -131073 673378744 -133576
        -1610654340 241485816 -496527898</internalNodes>
      <leafValues>
        -1.5725608170032501e-01 2.6007205247879028e-01</leafValues></_>
    <_>
      <internalNodes>
        0 -1 58555 -83210752 -1194710608 2068206364 -1585349149
        -133700955 -1603785050 136145244 203424079</internalNodes>
      <leafValues>
        -2.8983953595161438e-01 1.4680218696594238e-01</leafValues></_>
    <_>
      <internalNodes>
        0 -1 2470 -942412877 -336384021 704407486 -625029880 2105503217
        1196900068 -6605960 -4720080</internalNodes>
      <leafValues>
        -1.6662128269672394e-01 2.5269672274589539e-01</leafValues></_>
    <_>
      <internalNodes>
        0 -1 40472 -756096863 1391898619 -84033843 2143170409 -899418157
        685731315 771481327 168127418</internalNodes>
      <leafValues>
        -1.6677872836589813e-01 2.5024682283401489e-01</leafValues></_>
    <_>
      <internalNodes>
        0 -1 40953 1357874058 530447910 -1359545004 -1361813183
        770649994 -1910088323 -1133853150 2066720163</internalNodes>
      <leafValues>
        -1.9128045439720154e-01 2.3819957673549652e-01</leafValues></_>
    <_>
      <internalNodes>
        0 -1 47223 202597142 815292402 -972385799 -1584692431 -607503024
        -359541600 2142045054 -900681660</internalNodes>
      <leafValues>
        -2.6074936985969543e-01 1.6624879837036133e-01</leafValues></_>
    <_>
      <internalNodes>
        0 -1 56757 -962648572 520152918 -1210981111 887800919 -520190976
        1958562645 -292457760 116413124</internalNodes>
      <leafValues>
        -3.8034722208976746e-01 1.0362063348293304e-01</leafValues></_>
    <_>
      <internalNodes>
        0 -1 6695 -920532515 -812707009 -1210629583 -15137546
        -1665798998 655451495 811524526 1599574953</internalNodes>
      <leafValues>
        -1.6524370014667511e-01 2.6709091663360596e-01</leafValues></_>
    <_>
      <internalNodes>
        0 -1 67142 -51917829 -39978080 -94798082 -244392737 -730546253
        -256948615 1862063324 -138683142</internalNodes>
      <leafValues>
        -1.0752554237842560e-01 3.9860749244689941e-01</leafValues></_>
    <_>
      <internalNodes>
        0 -1 52035 -1498167491 441561189 -812727861 -1443106840
        -1766486671 -1346767926 -603824578 1916481809</internalNodes>
      <leafValues>
        -1.9207184016704559e-01 2.1952776610851288e-01</leafValues></_>
    <_>
      <internalNodes>
        0 -1 8020 593833792 -817707679 1633047904 -2087756 1462885200
        1623432252 -148876904 1403704378</internalNodes>
      <leafValues>
        -2.4688269197940826e-01 1.7771661281585693e-01</leafValues></_>
    <_>
      <internalNodes>
        0 -1 67599 -599158369 -223987876 -440843176 2112852735 485217590
        -861035108 -1579492580 -540299585</internalNodes>
      <leafValues>
        -1.3430655002593994e-01 3.2815495133399963e-01</leafValues></_>
    <_>
      <internalNodes>
        0 -1 41527 2064472690 1367510800 1726414821 -376410225
        1182164414 -5826979 1984031912 -1880495189</internalNodes>
      <leafValues>
        -1.6193297505378723e-01 2.6548787951469421e-01</leafValues></_>
    <_>
      <internalNodes>
        0 -1 39160 513214138 605111719 -250240373 109626326 1756828252
        -1173878599 -478123980 -1464420752</internalNodes>
      <leafValues>
        -2.9988074302673340e-01 1.4725905656814575e-01</leafValues></_>
    <_>
      <internalNodes>
        0 -1 67333 1591644622 -252514762 -1938524390 821068910 193757703
        54921380 110015744 1518899180</internalNodes>
      <leafValues>
        -2.8970494866371155e-01 1.4571876823902130e-01</leafValues></_>
    <_>
      <internalNodes>
        0 -1 13600 -1368127487 -824410970 608289383 17873204 -123931012
        -843175472 -181800528 1772259562</internalNodes>
      <leafValues>
        -2.6219698786735535e-01 1.6281235218048096e-01</leafValues></_>
    <_>
      <internalNodes>
        0 -1 39559 -1896609933 2038066555 1861221143 -84836589 -52042502
        -176623947 -1514483911 -586461489</internalNodes>
      <leafValues>
        -1.2839841842651367e-01 3.1890422105789185e-01</leafValues></_>
    <_>
      <internalNodes>
        0 -1 50460 736241410 1148727482 1664554956 -1446727462
        -1579386608 -1729918252 -145153568 1477557905</internalNodes>
      <leafValues>
        -3.5662332177162170e-01 1.2066533416509628e-01</leafValues></_>
    <_>
      <internalNodes>
        0 -1 67574 -1678508519 -542396431 1038738109 -1123434968
        -302372871 -2033328466 -2081950331 -704727045</internalNodes>
      <leafValues>
        -1.4019744098186493e-01 3.1254523992538452e-01</leafValues></_>
    <_>
      <internalNodes>
        0 -1 32500 -184655250 -542758715 -456227830 -223810861
        -1343241971 -226751819 -1609772837 1117257976</internalNodes>
      <leafValues>
        -2.5761950016021729e-01 1.7122873663902283e-01</leafValues></_>
    <_>
      <internalNodes>
        0 -1 54268 383959152 -2094561911 -1062857967 -1406398132
        700404060 -1603360286 -1680381700 -1414619104</internalNodes>
      <leafValues>
        -2.4982722103595734e-01 1.7853602766990662e-01</leafValues></_>
    <_>
      <internalNodes>
        0 -1 52451 1248756992 -1868412123 -850159568 -1119880383
        -996479647 1408014418 -1128758880 876745533</internalNodes>
      <leafValues>
        -2.9496654868125916e-01 1.4617457985877991e-01</leafValues></_>
    <_>
      <internalNodes>
        0 -1 21442 -1304415500 1826370722 691056547 -2128750021
        1534605349 -541586784 2094334223 194024064</internalNodes>
      <leafValues>
        -2.3288992047309875e-01 1.9598907232284546e-01</leafValues></_>
    <_>
      <internalNodes>
        0 -1 3540 -1060205792 1015492038 -794986112 655105466 -930648861
        -1941410797 -902886579 84430892</internalNodes>
      <leafValues>
        -3.7963113188743591e-01 1.2176771461963654e-01</leafValues></_>
    <_>
      <internalNodes>
        0 -1 46906 -925383296 1360146211 -1656207974 -1372245757
        341116544 1106610658 -674666593 6062852</internalNodes>
      <leafValues>
        -2.8618454933166504e-01 1.4896906912326813e-01</leafValues></_>
    <_>
      <internalNodes>
        0 -1 16097 -1767212938 -1505467824 -1421398938 1276520672
        422330725 243073296 488815252 658141861</internalNodes>
      <leafValues>
        -3.6851945519447327e-01 1.2200556695461273e-01</leafValues></_>
    <_>
      <internalNodes>
        0 -1 3044 -69296835 -680325344 1707016022 3153656 -1073869256
        2147441972 -428468876 -149269</internalNodes>
      <leafValues>
        -1.7455066740512848e-01 2.5724482536315918e-01</leafValues></_>
    <_>
      <internalNodes>
        0 -1 49218 722472488 -2044191664 -2134079550 -400584402
        -1778878155 -1175877944 730348389 -288559852</internalNodes>
      <leafValues>
        -3.1773644685745239e-01 1.4460624754428864e-01</leafValues></_></weakClassifiers></stage8>
</opencv_storage>
