<?xml version="1.0"?>
<opencv_storage>
<stage0>
  <maxWeakCount>18</maxWeakCount>
  <stageThreshold>-1.1074653863906860e+00</stageThreshold>
  <weakClassifiers>
    <_>
      <internalNodes>
        0 -1 6369 -579282980 -83852872 -279439412 -45577980 -89982532
        -92237432 -343381368 -544717688</internalNodes>
      <leafValues>
        -5.5343770980834961e-01 3.0358874797821045e-01</leafValues></_>
    <_>
      <internalNodes>
        0 -1 139 2128408316 -2863530 -1601168992 -682322992 -2001851138
        -401472474 -1973575521 172296858</internalNodes>
      <leafValues>
        -5.4500150680541992e-01 3.3301234245300293e-01</leafValues></_>
    <_>
      <internalNodes>
        0 -1 58625 -537413888 924193792 -183783215 353623830 -171064512
        -1584149248 -658059512 271653666</internalNodes>
      <leafValues>
        -5.1486116647720337e-01 2.5818008184432983e-01</leafValues></_>
    <_>
      <internalNodes>
        0 -1 50182 1826401214 2045325307 -1073792020 -101900609
        372831656 251559676 2067136136 -640818006</internalNodes>
      <leafValues>
        -2.9754722118377686e-01 4.0053445100784302e-01</leafValues></_>
    <_>
      <internalNodes>
        0 -1 34240 1390718100 1937270520 -806983147 1999713955
        2003074728 222199669 1085736379 992948139</internalNodes>
      <leafValues>
        -3.4251347184181213e-01 3.7101128697395325e-01</leafValues></_>
    <_>
      <internalNodes>
        0 -1 721 -824382772 -1017610042 -2130673192 -808394150 245435543
        -1337850584 -1042078946 1095085002</internalNodes>
      <leafValues>
        -4.6284249424934387e-01 2.8314775228500366e-01</leafValues></_>
    <_>
      <internalNodes>
        0 -1 19115 -464205052 -182845066 -1944526961 -1627383506
        -102253655 -1910241231 -1162728278 139730952</internalNodes>
      <leafValues>
        -4.3655103445053101e-01 2.9720383882522583e-01</leafValues></_>
    <_>
      <internalNodes>
        0 -1 50730 92471419 -1426428773 923569916 -1362186851 -511627167
        -92416502 -1148186511 -1404037580</internalNodes>
      <leafValues>
        -5.2848607301712036e-01 2.5535559654235840e-01</leafValues></_>
    <_>
      <internalNodes>
        0 -1 2307 -867242450 1995241994 -1073721055 948437578 1224749645
        -768597942 -849942354 -399102398</internalNodes>
      <leafValues>
        -4.5812657475471497e-01 2.7228659391403198e-01</leafValues></_>
    <_>
      <internalNodes>
        0 -1 52494 -346625151 1555746387 -1324691007 892199256
        1761439201 -1467432566 -1444048664 -1910681430</internalNodes>
      <leafValues>
        -3.3817854523658752e-01 3.6629268527030945e-01</leafValues></_>
    <_>
      <internalNodes>
        0 -1 61921 1371895597 -595229917 -1785458230 1756767067
        -185884357 650684540 -376419671 -2144305654</internalNodes>
      <leafValues>
        -3.6209270358085632e-01 3.3318629860877991e-01</leafValues></_>
    <_>
      <internalNodes>
        0 -1 43536 604974900 745822646 818468955 -321514804 -477415243
        753641123 -1343468619 -1686334012</internalNodes>
      <leafValues>
        -4.8310095071792603e-01 2.3902991414070129e-01</leafValues></_>
    <_>
      <internalNodes>
        0 -1 38647 -880941130 1962821380 1065254893 -169163085 645326254
        -453722124 -1898623811 1139484323</internalNodes>
      <leafValues>
        -3.0463466048240662e-01 4.0779310464859009e-01</leafValues></_>
    <_>
      <internalNodes>
        0 -1 59573 -178523344 1465180294 -799371168 -44207856 -410717305
        -1450522590 -402178640 -2073321280</internalNodes>
      <leafValues>
        -4.0424525737762451e-01 3.1018739938735962e-01</leafValues></_>
    <_>
      <internalNodes>
        0 -1 44719 1909122468 1897661177 -2147166884 -70156139
        1273670321 -121456178 -1329586039 597449229</internalNodes>
      <leafValues>
        -4.1091811656951904e-01 3.2155075669288635e-01</leafValues></_>
    <_>
      <internalNodes>
        0 -1 2608 1288500956 1367084775 -1031748466 -1997002686
        2032593361 966838664 269235150 1561018538</internalNodes>
      <leafValues>
        -4.0370854735374451e-01 3.0202740430831909e-01</leafValues></_>
    <_>
      <internalNodes>
        0 -1 62214 -179969240 893495296 -805273586 629342234 -1039341436
        814301601 -888348872 282950870</internalNodes>
      <leafValues>
        -4.1739025712013245e-01 3.0904191732406616e-01</leafValues></_>
    <_>
      <internalNodes>
        0 -1 52672 201330961 901486151 -1496819503 1036356188 957503868
        -1428516101 -1145992251 -1410018324</internalNodes>
      <leafValues>
        -4.2391937971115112e-01 2.9175755381584167e-01</leafValues></_></weakClassifiers></stage0>
</opencv_storage>
