<?xml version="1.0"?>
<opencv_storage>
<stage8>
  <maxWeakCount>35</maxWeakCount>
  <stageThreshold>-1.0761771202087402e+00</stageThreshold>
  <weakClassifiers>
    <_>
      <internalNodes>
        0 -1 38726 -85004609 -143130707 -1573009 2146299135 904789727
        -268718481 -1242956033 -1315073</internalNodes>
      <leafValues>
        -2.9644268751144409e-01 3.9341917634010315e-01</leafValues></_>
    <_>
      <internalNodes>
        0 -1 42738 232733612 575811927 -1656737328 -582565071 -842138528
        -800250960 -1515439996 454638450</internalNodes>
      <leafValues>
        -3.8016384840011597e-01 1.4345730841159821e-01</leafValues></_>
    <_>
      <internalNodes>
        0 -1 42754 -2067650781 839047051 -610411852 717403868 591091167
        -1024782941 -1151644393 180643424</internalNodes>
      <leafValues>
        -3.7913998961448669e-01 1.4719030261039734e-01</leafValues></_>
    <_>
      <internalNodes>
        0 -1 36269 81226803 -331729572 -1512810510 -821159307
        -1081880503 -836128373 1138227042 439186641</internalNodes>
      <leafValues>
        -2.6211708784103394e-01 2.2483809292316437e-01</leafValues></_>
    <_>
      <internalNodes>
        0 -1 29982 653444708 197204977 1476966389 327233560 1633630968
        -1867286185 2067146254 -2033962406</internalNodes>
      <leafValues>
        -3.5579675436019897e-01 1.4803615212440491e-01</leafValues></_>
    <_>
      <internalNodes>
        0 -1 32150 -1464062255 -1360284289 -317202085 550425007
        -1341846728 -1155044198 792999658 -15700448</internalNodes>
      <leafValues>
        -2.5763350725173950e-01 2.4477387964725494e-01</leafValues></_>
    <_>
      <internalNodes>
        0 -1 2925 -406246499 -453150417 -687866001 -222671898 -147912
        1181704045 -1527777538 -134619219</internalNodes>
      <leafValues>
        -2.2576305270195007e-01 2.6830866932868958e-01</leafValues></_>
    <_>
      <internalNodes>
        0 -1 23382 4402558 -427277484 1100878677 1624718315 -791682512
        -808925181 1850014297 945047079</internalNodes>
      <leafValues>
        -3.4158396720886230e-01 1.8924871087074280e-01</leafValues></_>
    <_>
      <internalNodes>
        0 -1 21866 290856699 -72075652 805358915 1948985424 -2050428871
        -82278011 1184661981 517444754</internalNodes>
      <leafValues>
        -2.7625936269760132e-01 2.3402133584022522e-01</leafValues></_>
    <_>
      <internalNodes>
        0 -1 32470 -2112485120 -992132810 -1181931443 1647999104
        1224585444 -1006777687 -623775743 -4816251</internalNodes>
      <leafValues>
        -2.6814523339271545e-01 2.4473930895328522e-01</leafValues></_>
    <_>
      <internalNodes>
        0 -1 52341 -974854905 280548511 -168340144 -1289146022
        -1035611735 349737475 -225244248 1322074771</internalNodes>
      <leafValues>
        -2.7622050046920776e-01 2.2551710903644562e-01</leafValues></_>
    <_>
      <internalNodes>
        0 -1 18306 -413947899 182731808 -1206725114 2092496046
        1343839416 753507313 -450316163 1901164563</internalNodes>
      <leafValues>
        -3.4057453274726868e-01 1.9806164503097534e-01</leafValues></_>
    <_>
      <internalNodes>
        0 -1 5080 -19982222 -1115229605 -1610215412 -681253816
        -1760030860 -1157393915 -1180321305 -1923673634</internalNodes>
      <leafValues>
        -2.7628424763679504e-01 2.5689509510993958e-01</leafValues></_>
    <_>
      <internalNodes>
        0 -1 54231 -1337928432 1581532096 486720628 -1291287504
        685065380 1755302448 1351103424 50464</internalNodes>
      <leafValues>
        -5.8072513341903687e-01 1.2025893479585648e-01</leafValues></_>
    <_>
      <internalNodes>
        0 -1 3043 -1222330051 2046626417 -1090591497 775241564
        2113408092 1333032806 -1347568471 2002248859</internalNodes>
      <leafValues>
        -2.4536681175231934e-01 2.9135429859161377e-01</leafValues></_>
    <_>
      <internalNodes>
        0 -1 36910 773112937 -1976007521 -1659047913 -2069962625
        2033131754 -100996855 -246400433 -17416362</internalNodes>
      <leafValues>
        -2.8648838400840759e-01 2.4883486330509186e-01</leafValues></_>
    <_>
      <internalNodes>
        0 -1 66389 -1059308252 1820774545 347437926 -526503342
        1757478092 -1877974956 1948496952 -801446318</internalNodes>
      <leafValues>
        -3.5065206885337830e-01 2.0693466067314148e-01</leafValues></_>
    <_>
      <internalNodes>
        0 -1 48878 1709540520 1742997261 -984499902 889429548 -502861626
        -1197960827 310530431 -1243968793</internalNodes>
      <leafValues>
        -2.6794865727424622e-01 2.7711051702499390e-01</leafValues></_>
    <_>
      <internalNodes>
        0 -1 10036 -95142676 -901103098 -2147286816 -261603256 -67057594
        -902657276 -981911740 554753482</internalNodes>
      <leafValues>
        -4.4132909178733826e-01 1.6120943427085876e-01</leafValues></_>
    <_>
      <internalNodes>
        0 -1 39533 -1540490705 -570495706 -17947478 1453082364
        -822416246 -164036892 527366060 -1118860036</internalNodes>
      <leafValues>
        -2.2815445065498352e-01 3.2124939560890198e-01</leafValues></_>
    <_>
      <internalNodes>
        0 -1 38305 651430964 -1466382130 -1000192034 1004814679
        310837295 -1198857568 -1919474308 2029565432</internalNodes>
      <leafValues>
        -4.1186964511871338e-01 1.7618726193904877e-01</leafValues></_>
    <_>
      <internalNodes>
        0 -1 27484 1584561747 893175712 1593634619 933706470 -1476598063
        -1881309205 -1511145649 -1732552891</internalNodes>
      <leafValues>
        -2.3115321993827820e-01 3.2271811366081238e-01</leafValues></_>
    <_>
      <internalNodes>
        0 -1 39560 1826942471 1962131006 2125356913 -50500048
        -1242106655 -1320124431 1186712895 -1725216433</internalNodes>
      <leafValues>
        -2.0279809832572937e-01 3.6801666021347046e-01</leafValues></_>
    <_>
      <internalNodes>
        0 -1 61220 798237781 766009721 21397681 1728545634 -1877248044
        -619535991 -1662697772 758264036</internalNodes>
      <leafValues>
        -4.0496376156806946e-01 1.8480236828327179e-01</leafValues></_>
    <_>
      <internalNodes>
        0 -1 50270 -313448522 1613927480 1057035488 608666581
        -1164314387 -381614971 -391828608 1002370270</internalNodes>
      <leafValues>
        -3.0834114551544189e-01 2.5372272729873657e-01</leafValues></_>
    <_>
      <internalNodes>
        0 -1 49126 1278782977 1022514960 2116799452 -1674231269
        2015721960 -1079066200 -1148368444 687220001</internalNodes>
      <leafValues>
        -4.0140345692634583e-01 1.7782029509544373e-01</leafValues></_>
    <_>
      <internalNodes>
        0 -1 66313 1977021367 -623476736 344034248 -2140776272 583653841
        -530200398 -1588319968 287770089</internalNodes>
      <leafValues>
        -3.5803180932998657e-01 2.0777057111263275e-01</leafValues></_>
    <_>
      <internalNodes>
        0 -1 58513 -77835799 -284519143 -670005159 2051015168 -774906902
        -638491895 -1551568418 193989677</internalNodes>
      <leafValues>
        -2.7308666706085205e-01 2.8365039825439453e-01</leafValues></_>
    <_>
      <internalNodes>
        0 -1 62071 -1650530495 487223481 -913963579 -1609464924
        1687097617 -391626731 -926676897 -737546709</internalNodes>
      <leafValues>
        -2.7323853969573975e-01 2.8447973728179932e-01</leafValues></_>
    <_>
      <internalNodes>
        0 -1 23159 1886092735 -51879361 -1476969377 -210296461 603430654
        -655427722 -865289543 529512442</internalNodes>
      <leafValues>
        -2.0314589142799377e-01 4.1806825995445251e-01</leafValues></_>
    <_>
      <internalNodes>
        0 -1 38249 2083778437 -637903337 947895591 1053625828 1151749579
        -862492684 -1207959931 -27466913</internalNodes>
      <leafValues>
        -2.1555128693580627e-01 3.6601233482360840e-01</leafValues></_>
    <_>
      <internalNodes>
        0 -1 66925 192659193 -39260299 -1484884852 -236728377 1588248364
        -1627455773 2090880957 -208742470</internalNodes>
      <leafValues>
        -1.8461115658283234e-01 4.0763744711875916e-01</leafValues></_>
    <_>
      <internalNodes>
        0 -1 27000 1415589553 -1941673123 839504332 -157374248
        -1567480290 -1726856814 -1472185260 -329724060</internalNodes>
      <leafValues>
        -3.7901124358177185e-01 1.9953544437885284e-01</leafValues></_>
    <_>
      <internalNodes>
        0 -1 43458 -496768127 1751973776 -67184670 490338487 1339965411
        -1625751563 -1296843272 715093399</internalNodes>
      <leafValues>
        -2.5408437848091125e-01 3.0194053053855896e-01</leafValues></_>
    <_>
      <internalNodes>
        0 -1 16120 -784869649 2146289151 -67189270 -72358162 -1252589798
        -706285762 1962464402 -1828018710</internalNodes>
      <leafValues>
        -2.0726135373115540e-01 3.8766980171203613e-01</leafValues></_></weakClassifiers></stage8>
</opencv_storage>
