<?xml version="1.0"?>
<opencv_storage>
<stage5>
  <maxWeakCount>31</maxWeakCount>
  <stageThreshold>-8.7814044952392578e-01</stageThreshold>
  <weakClassifiers>
    <_>
      <internalNodes>
        0 -1 50730 -1228961505 -1505705089 -1140561257 -1099051115
        -242867617 -1075473977 -84393161 -88186283</internalNodes>
      <leafValues>
        -4.4110855460166931e-01 6.0782682150602341e-02</leafValues></_>
    <_>
      <internalNodes>
        0 -1 47139 704668178 552259843 -1257767143 -589918179 -143687885
        -1428993364 -1982920400 -1196131931</internalNodes>
      <leafValues>
        -3.9811918139457703e-01 1.5175755321979523e-01</leafValues></_>
    <_>
      <internalNodes>
        0 -1 50728 2102116192 -700387442 -1113088688 -1223806200
        -65566554 -82185256 803169448 -1692039732</internalNodes>
      <leafValues>
        -3.1963700056076050e-01 1.9230154156684875e-01</leafValues></_>
    <_>
      <internalNodes>
        0 -1 3001 -831011107 -4456966 -831066436 1210514670 -176816130
        -193569154 -554729746 -270852357</internalNodes>
      <leafValues>
        -1.6163361072540283e-01 3.8497188687324524e-01</leafValues></_>
    <_>
      <internalNodes>
        0 -1 25417 1063354175 -352837825 1056849916 2080194551
        -588521480 -1124368386 -1400902277 -101059353</internalNodes>
      <leafValues>
        -1.6547246277332306e-01 3.9637187123298645e-01</leafValues></_>
    <_>
      <internalNodes>
        0 -1 42631 1134441142 1023517604 1292176846 -1222044928
        518973864 -1455387904 -729312980 1465306240</internalNodes>
      <leafValues>
        -3.6994460225105286e-01 1.6657212376594543e-01</leafValues></_>
    <_>
      <internalNodes>
        0 -1 34099 -1335728633 577416951 -16859545 -10240337 1450571190
        -1346941706 -36252552 -1976045831</internalNodes>
      <leafValues>
        -2.2693908214569092e-01 2.9948523640632629e-01</leafValues></_>
    <_>
      <internalNodes>
        0 -1 51157 13372706 -2136442468 -1373688961 1726794080
        -1256046665 -915733670 1750506352 -1627911616</internalNodes>
      <leafValues>
        -4.6378472447395325e-01 1.4049181342124939e-01</leafValues></_>
    <_>
      <internalNodes>
        0 -1 64519 -636551884 -158934268 -794196901 1889846048
        -1835975902 -293011094 -566167423 766123716</internalNodes>
      <leafValues>
        -3.1422129273414612e-01 2.3716074228286743e-01</leafValues></_>
    <_>
      <internalNodes>
        0 -1 13000 -139076629 -170979777 -243388358 1413415882 -19075507
        -716140980 -405027889 -786767925</internalNodes>
      <leafValues>
        -1.9549961388111115e-01 3.8004270195960999e-01</leafValues></_>
    <_>
      <internalNodes>
        0 -1 3540 -1806392928 -204234752 -1006517963 1334891731
        -1902658577 -1930428111 -661118200 1161580632</internalNodes>
      <leafValues>
        -3.3552640676498413e-01 2.2850830852985382e-01</leafValues></_>
    <_>
      <internalNodes>
        0 -1 21642 248647465 1681341739 -58349125 -1636408336 1371560485
        -742841532 -1030523915 -69796192</internalNodes>
      <leafValues>
        -3.4303513169288635e-01 2.0883299410343170e-01</leafValues></_>
    <_>
      <internalNodes>
        0 -1 31536 1373419770 -537088557 -285577624 318635243 1064283899
        -561213452 1767192065 1541258262</internalNodes>
      <leafValues>
        -2.5768947601318359e-01 2.9252281785011292e-01</leafValues></_>
    <_>
      <internalNodes>
        0 -1 37832 526744340 -2057422920 133390716 -1983990141
        -637796376 -1885755716 -28254824 -2138201129</internalNodes>
      <leafValues>
        -3.3568701148033142e-01 2.1714435517787933e-01</leafValues></_>
    <_>
      <internalNodes>
        0 -1 41256 -666572281 -761736659 -401041802 299323493 1247318960
        1574556539 -747350438 851565934</internalNodes>
      <leafValues>
        -2.7498686313629150e-01 2.7827471494674683e-01</leafValues></_>
    <_>
      <internalNodes>
        0 -1 28621 650383221 -1520135742 -1442741957 1170667707
        -1416977872 -493928335 -1160743611 -1031351200</internalNodes>
      <leafValues>
        -3.8847050070762634e-01 1.9838446378707886e-01</leafValues></_>
    <_>
      <internalNodes>
        0 -1 49107 -237326543 357753019 -1785988768 -1347183741
        676201387 2041604266 1702478804 406810831</internalNodes>
      <leafValues>
        -2.6640319824218750e-01 2.9440578818321228e-01</leafValues></_>
    <_>
      <internalNodes>
        0 -1 67465 -673189929 2058216702 -50529734 -241456394 -279054537
        -989925640 449097388 -104858450</internalNodes>
      <leafValues>
        -1.6800072789192200e-01 4.7944113612174988e-01</leafValues></_>
    <_>
      <internalNodes>
        0 -1 43640 840435413 -891132545 -1727788603 -631853997 723482670
        -97361765 -1089669114 -28953744</internalNodes>
      <leafValues>
        -3.4065532684326172e-01 2.2865998744964600e-01</leafValues></_>
    <_>
      <internalNodes>
        0 -1 57025 1278257208 -1963796360 1029609776 -1933658960
        -2065031580 -1436350293 -623223888 -391841304</internalNodes>
      <leafValues>
        -3.6768335103988647e-01 2.2283443808555603e-01</leafValues></_>
    <_>
      <internalNodes>
        0 -1 58514 1154960601 1671322690 -712710307 -1236194540
        -668229159 -813590635 -1327255120 373167112</internalNodes>
      <leafValues>
        -3.5999259352684021e-01 2.2481103241443634e-01</leafValues></_>
    <_>
      <internalNodes>
        0 -1 16109 -2113363788 -1009692472 -2134845482 -1073658359
        -1416177134 1838723596 218747893 222712053</internalNodes>
      <leafValues>
        -4.2401322722434998e-01 1.9628709554672241e-01</leafValues></_>
    <_>
      <internalNodes>
        0 -1 66646 -1414417033 427556331 -1090585139 -458817858
        -137175980 -990906586 -302690928 -58739122</internalNodes>
      <leafValues>
        -2.7172955870628357e-01 2.9271197319030762e-01</leafValues></_>
    <_>
      <internalNodes>
        0 -1 36395 1281831358 993541966 -12976531 -1255003645 1984364503
        -1362760183 -1126327041 536586443</internalNodes>
      <leafValues>
        -2.1643745899200439e-01 3.6789327859878540e-01</leafValues></_>
    <_>
      <internalNodes>
        0 -1 1365 -1089022985 -492863183 67930308 -94200881 -534650736
        1383589184 1935463392 1446270329</internalNodes>
      <leafValues>
        -3.7272712588310242e-01 2.1094329655170441e-01</leafValues></_>
    <_>
      <internalNodes>
        0 -1 833 -1407666792 -1601380328 -1644018931 -139497990
        -865860623 -1534767063 -620604372 -989644781</internalNodes>
      <leafValues>
        -3.1359875202178955e-01 2.6125916838645935e-01</leafValues></_>
    <_>
      <internalNodes>
        0 -1 3094 -66655879 1899893061 1477938254 1984190676 1017340164
        874579283 -301643600 2004823965</internalNodes>
      <leafValues>
        -3.3319434523582458e-01 2.3526120185852051e-01</leafValues></_>
    <_>
      <internalNodes>
        0 -1 32209 1074179077 69062473 -366988642 785776988 1896642885
        1789104537 1786275870 1061316613</internalNodes>
      <leafValues>
        -4.0965884923934937e-01 2.0345871150493622e-01</leafValues></_>
    <_>
      <internalNodes>
        0 -1 51199 -1799150276 696947412 672644020 -1940782724 724645317
        -1090940782 133409621 -1755404888</internalNodes>
      <leafValues>
        -3.6173328757286072e-01 2.3026773333549500e-01</leafValues></_>
    <_>
      <internalNodes>
        0 -1 3145 -922570538 433079076 722302459 -942907012 2112502682
        -637435904 153175320 438980616</internalNodes>
      <leafValues>
        -3.1589415669441223e-01 2.6794967055320740e-01</leafValues></_>
    <_>
      <internalNodes>
        0 -1 18980 -193702158 -52772390 12214936 -463449906 -91843984
        -586577123 -779947646 389602266</internalNodes>
      <leafValues>
        -3.6297729611396790e-01 2.2036160528659821e-01</leafValues></_></weakClassifiers></stage5>
</opencv_storage>
