<?xml version="1.0"?>
<opencv_storage>
<stage2>
  <maxWeakCount>25</maxWeakCount>
  <stageThreshold>-8.7941890954971313e-01</stageThreshold>
  <weakClassifiers>
    <_>
      <internalNodes>
        0 -1 3714 1976483604 -1820414091 -1751860924 -272289420
        204386975 685447959 -934757709 536853019</internalNodes>
      <leafValues>
        -5.0714284181594849e-01 1.1209677159786224e-01</leafValues></_>
    <_>
      <internalNodes>
        0 -1 2925 -404755905 -1595278993 -151273881 -490844186
        2113388340 1181702012 -672663727 -1025</internalNodes>
      <leafValues>
        -2.6861777901649475e-01 3.7741550803184509e-01</leafValues></_>
    <_>
      <internalNodes>
        0 -1 38974 1254533888 387745556 1728203068 494707470 1355150576
        25205240 1922656747 184771151</internalNodes>
      <leafValues>
        -3.7887710332870483e-01 2.5845360755920410e-01</leafValues></_>
    <_>
      <internalNodes>
        0 -1 59294 2113922955 861103508 -44830430 -672017664 1315174176
        51759411 -1376003712 -503851193</internalNodes>
      <leafValues>
        -3.3673402667045593e-01 2.8365725278854370e-01</leafValues></_>
    <_>
      <internalNodes>
        0 -1 59625 168168230 -1396641384 -2051570692 -877665339
        1127166467 -2021074371 -1053416336 -1383817132</internalNodes>
      <leafValues>
        -4.2091313004493713e-01 2.2746881842613220e-01</leafValues></_>
    <_>
      <internalNodes>
        0 -1 1977 -1507398660 -320196635 717188798 -2145868433
        -973168720 1339650046 -1761655404 -689180234</internalNodes>
      <leafValues>
        -2.8974142670631409e-01 3.1944385170936584e-01</leafValues></_>
    <_>
      <internalNodes>
        0 -1 3262 -128986634 1908949416 -1090316950 -1216084928
        1209483948 -1323678847 998852872 1813612686</internalNodes>
      <leafValues>
        -3.4484347701072693e-01 2.7034106850624084e-01</leafValues></_>
    <_>
      <internalNodes>
        0 -1 24755 -2144435440 881332848 -343667815 -1616870133
        -504057359 -1121924446 -1376636790 682231825</internalNodes>
      <leafValues>
        -4.3230563402175903e-01 2.3563809692859650e-01</leafValues></_>
    <_>
      <internalNodes>
        0 -1 45223 1142417030 1337685 529568446 354281472 1422287538
        1384155268 -1896270884 200858043</internalNodes>
      <leafValues>
        -4.1275686025619507e-01 2.2201077640056610e-01</leafValues></_>
    <_>
      <internalNodes>
        0 -1 47370 632097845 -2052448748 -1347629795 981916406 434719673
        697851906 -646813296 -151217456</internalNodes>
      <leafValues>
        -3.9529323577880859e-01 2.3602522909641266e-01</leafValues></_>
    <_>
      <internalNodes>
        0 -1 11075 651078570 834827144 1124150029 -452694016 159718898
        -611801357 12973554 92526307</internalNodes>
      <leafValues>
        -3.6436522006988525e-01 2.7162978053092957e-01</leafValues></_>
    <_>
      <internalNodes>
        0 -1 52360 584188259 -2138386659 1242816543 -322215144
        -233093118 1598962202 -877967853 -1628285499</internalNodes>
      <leafValues>
        -3.6419838666915894e-01 2.6679444313049316e-01</leafValues></_>
    <_>
      <internalNodes>
        0 -1 37221 -458345695 -1745617411 -1459638279 -1212570453
        -1108022287 -1212383247 -1883410637 -1351674863</internalNodes>
      <leafValues>
        -2.8151252865791321e-01 3.3875757455825806e-01</leafValues></_>
    <_>
      <internalNodes>
        0 -1 45583 -200546432 -603179616 -1018674784 -1626283262
        2080537016 -73028906 1770107272 17719826</internalNodes>
      <leafValues>
        -3.9932650327682495e-01 2.4553702771663666e-01</leafValues></_>
    <_>
      <internalNodes>
        0 -1 45200 -2105335776 94085968 -720334658 -555233038
        -1194692252 -1643151018 -592546890 -95891228</internalNodes>
      <leafValues>
        -3.8727879524230957e-01 2.4761565029621124e-01</leafValues></_>
    <_>
      <internalNodes>
        0 -1 39142 -750463104 -1197817538 -1958621897 262220675
        970703096 69765248 557916530 414864178</internalNodes>
      <leafValues>
        -3.9380493760108948e-01 2.4457462131977081e-01</leafValues></_>
    <_>
      <internalNodes>
        0 -1 37290 -725035516 18563354 -1022332811 -585104374 -257498186
        -1415408767 -458802806 1092430442</internalNodes>
      <leafValues>
        -3.6148601770401001e-01 2.6943758130073547e-01</leafValues></_>
    <_>
      <internalNodes>
        0 -1 33895 2024530690 -1741659289 952111363 -588662783
        1279749052 -1861719914 -268333800 1141265199</internalNodes>
      <leafValues>
        -3.6890938878059387e-01 2.6992645859718323e-01</leafValues></_>
    <_>
      <internalNodes>
        0 -1 55720 67382304 -1572717869 2102434721 -1911574012
        -274201816 -1572336954 688261108 -555196224</internalNodes>
      <leafValues>
        -4.6919998526573181e-01 2.1754133701324463e-01</leafValues></_>
    <_>
      <internalNodes>
        0 -1 123 178170504 -204966830 1962970333 -8945428 -1878747653
        -63889273 671773740 2067863755</internalNodes>
      <leafValues>
        -3.5590493679046631e-01 2.9119095206260681e-01</leafValues></_>
    <_>
      <internalNodes>
        0 -1 67391 -345511953 -322765130 -876974402 1381543288
        -320869401 -354091956 -1765886546 -731130130</internalNodes>
      <leafValues>
        -2.1127323806285858e-01 4.8184803128242493e-01</leafValues></_>
    <_>
      <internalNodes>
        0 -1 45688 -2058670221 -1461899263 -2146194543 -329353332
        -1466085039 -921968510 -1720285195 -823000944</internalNodes>
      <leafValues>
        -3.8319066166877747e-01 2.7674171328544617e-01</leafValues></_>
    <_>
      <internalNodes>
        0 -1 2470 -429992181 -289214772 -553753025 -1532482156
        1970761073 -162138119 -29362665 -2134129</internalNodes>
      <leafValues>
        -2.7280968427658081e-01 4.0462893247604370e-01</leafValues></_>
    <_>
      <internalNodes>
        0 -1 20629 -1596777353 -103223208 -846031592 -274630332
        -186075099 2047737987 640725549 1482211847</internalNodes>
      <leafValues>
        -3.7259167432785034e-01 2.6606351137161255e-01</leafValues></_>
    <_>
      <internalNodes>
        0 -1 52263 2009506472 1342227348 227022784 318059125 1363929481
        1578223060 1305465728 1030531549</internalNodes>
      <leafValues>
        -4.1500878334045410e-01 2.4770428240299225e-01</leafValues></_></weakClassifiers></stage2>
</opencv_storage>
