<?xml version="1.0"?>
<opencv_storage>
<stage6>
  <maxWeakCount>34</maxWeakCount>
  <stageThreshold>-8.8162064552307129e-01</stageThreshold>
  <weakClassifiers>
    <_>
      <internalNodes>
        0 -1 48933 -899946621 1379395381 -1223434960 926391601
        -855655941 -907630689 2077158399 -355546197</internalNodes>
      <leafValues>
        -3.6507937312126160e-01 1.7263843119144440e-01</leafValues></_>
    <_>
      <internalNodes>
        0 -1 64509 -92310987 -1139668971 -1283127973 151963 -272189153
        -501084668 -1686576932 1108290</internalNodes>
      <leafValues>
        -3.8265919685363770e-01 1.5531143546104431e-01</leafValues></_>
    <_>
      <internalNodes>
        0 -1 33599 565850412 -1370334699 -1438769339 1515018244
        164641056 -290651230 -1874295996 369144336</internalNodes>
      <leafValues>
        -5.0934064388275146e-01 1.1647339910268784e-01</leafValues></_>
    <_>
      <internalNodes>
        0 -1 57050 239349552 104782513 -331450509 -1362500708 768871460
        -1617985221 -1646271712 -363297516</internalNodes>
      <leafValues>
        -4.0561228990554810e-01 1.6208907961845398e-01</leafValues></_>
    <_>
      <internalNodes>
        0 -1 23806 -496898165 1565698665 1610380952 -108153306 223731707
        -864803665 1979658237 1039392541</internalNodes>
      <leafValues>
        -1.9984096288681030e-01 3.1537324190139771e-01</leafValues></_>
    <_>
      <internalNodes>
        0 -1 14080 1569713915 2073587781 290732253 -1158917582
        -545019206 -40095567 -1901478844 818762747</internalNodes>
      <leafValues>
        -2.5608482956886292e-01 2.5315415859222412e-01</leafValues></_>
    <_>
      <internalNodes>
        0 -1 220 -539040084 1556280242 -1874274302 -1001868664 15000631
        -234175998 211914852 1423968242</internalNodes>
      <leafValues>
        -4.5658111572265625e-01 1.4220306277275085e-01</leafValues></_>
    <_>
      <internalNodes>
        0 -1 30030 -1729439565 -91845138 1764780346 -801373560
        -2112694070 1893212993 -401586202 453119048</internalNodes>
      <leafValues>
        -2.9338461160659790e-01 2.2303754091262817e-01</leafValues></_>
    <_>
      <internalNodes>
        0 -1 57968 -1395188473 -1999059586 -1645086405 -516019961
        2022602852 -1162248045 -1366054640 1486683792</internalNodes>
      <leafValues>
        -3.6603179574012756e-01 1.8792472779750824e-01</leafValues></_>
    <_>
      <internalNodes>
        0 -1 3380 -262637474 -53853568 -803577181 -526855317 -203452154
        1883021826 63199298 322967247</internalNodes>
      <leafValues>
        -4.1837367415428162e-01 1.5561038255691528e-01</leafValues></_>
    <_>
      <internalNodes>
        0 -1 40703 1645289502 991754101 -569558774 229777506 872495492
        -878667520 -1581099609 1710347753</internalNodes>
      <leafValues>
        -3.2995533943176270e-01 2.1458968520164490e-01</leafValues></_>
    <_>
      <internalNodes>
        0 -1 38890 -2103538128 211467869 -184473353 -863055268
        -1077919211 -97938704 -1706538331 -85265436</internalNodes>
      <leafValues>
        -3.2782378792762756e-01 2.1200317144393921e-01</leafValues></_>
    <_>
      <internalNodes>
        0 -1 27419 37437952 -1172651726 -1970041515 788531938
        -1341966083 -1105944389 -1878323041 543215713</internalNodes>
      <leafValues>
        -3.5332566499710083e-01 2.1400272846221924e-01</leafValues></_>
    <_>
      <internalNodes>
        0 -1 58974 -606081180 1116803079 1392509260 583509516 -758342476
        2060059603 -1167025908 -1920633457</internalNodes>
      <leafValues>
        -3.1493031978607178e-01 2.1868515014648438e-01</leafValues></_>
    <_>
      <internalNodes>
        0 -1 41507 1247487277 839439891 -770166207 940734443 1402604235
        -1962950103 1690848048 -5977596</internalNodes>
      <leafValues>
        -3.0539616942405701e-01 2.4051226675510406e-01</leafValues></_>
    <_>
      <internalNodes>
        0 -1 26887 904830485 368180391 1811333053 -475277145 -1132825437
        -1627791516 1005942653 -881901449</internalNodes>
      <leafValues>
        -1.8565493822097778e-01 3.9745610952377319e-01</leafValues></_>
    <_>
      <internalNodes>
        0 -1 2288 -420494429 -319852753 1055895537 -4155866 110522218
        -1486950449 -43915632 -4731003</internalNodes>
      <leafValues>
        -2.2975419461727142e-01 3.4695854783058167e-01</leafValues></_>
    <_>
      <internalNodes>
        0 -1 23757 764292126 -1483734436 -707666532 -1037763901
        -56660672 -54816535 2011801615 1747468496</internalNodes>
      <leafValues>
        -3.7016567587852478e-01 2.2102551162242889e-01</leafValues></_>
    <_>
      <internalNodes>
        0 -1 1462 -1116254692 -1182108850 458545524 -1937374420
        288892413 -91394568 109302104 139844002</internalNodes>
      <leafValues>
        -4.6184760332107544e-01 1.4039455354213715e-01</leafValues></_>
    <_>
      <internalNodes>
        0 -1 45416 1088876292 875561149 793080100 -1982496532 1075849680
        -1407082366 -1415337750 718107395</internalNodes>
      <leafValues>
        -2.8897297382354736e-01 2.6443770527839661e-01</leafValues></_>
    <_>
      <internalNodes>
        0 -1 3096 -1191182339 385693560 -268517382 -229832900 -12718286
        1199052669 1878994936 -545285185</internalNodes>
      <leafValues>
        -1.7081284523010254e-01 4.3291297554969788e-01</leafValues></_>
    <_>
      <internalNodes>
        0 -1 67578 -1810262928 -446021104 806799382 -155214246
        -371481595 77643779 168142128 930824075</internalNodes>
      <leafValues>
        -3.3226379752159119e-01 2.3212799429893494e-01</leafValues></_>
    <_>
      <internalNodes>
        0 -1 21173 -52780401 1744418924 -564990889 1035599418 1995757549
        -816251803 1557551593 -645175594</internalNodes>
      <leafValues>
        -2.0728582143783569e-01 3.6966401338577271e-01</leafValues></_>
    <_>
      <internalNodes>
        0 -1 1128 -1517375633 1325576462 -1492099978 -843065800
        597769725 -1935243110 13307958 210063503</internalNodes>
      <leafValues>
        -3.2592040300369263e-01 2.2974732518196106e-01</leafValues></_>
    <_>
      <internalNodes>
        0 -1 39511 -98401805 1270232869 -1145114783 -18129132 1973450445
        -1074300331 784247749 -12667684</internalNodes>
      <leafValues>
        -2.1716690063476562e-01 3.4395679831504822e-01</leafValues></_>
    <_>
      <internalNodes>
        0 -1 5616 337603652 1973682540 -1541607096 -395014586 687724037
        380905762 402774780 1360281620</internalNodes>
      <leafValues>
        -5.1676112413406372e-01 1.4232049882411957e-01</leafValues></_>
    <_>
      <internalNodes>
        0 -1 29289 -741888217 -637388832 -1835740657 1987326891 17062319
        408535192 1923442542 2094230661</internalNodes>
      <leafValues>
        -2.9193091392517090e-01 2.8452020883560181e-01</leafValues></_>
    <_>
      <internalNodes>
        0 -1 41360 1246758485 1785511857 1829080837 1047705292
        -757046614 -339336814 -1768938603 -1359725724</internalNodes>
      <leafValues>
        -3.7711727619171143e-01 2.2483958303928375e-01</leafValues></_>
    <_>
      <internalNodes>
        0 -1 49128 -321274665 -1095204868 -212993 263151096 1683360924
        750239743 -1128923203 -1344329865</internalNodes>
      <leafValues>
        -2.1157893538475037e-01 3.9134791493415833e-01</leafValues></_>
    <_>
      <internalNodes>
        0 -1 36277 -1135696110 1105360432 -711361104 1111966170
        -440304679 1217931528 658404290 1342015147</internalNodes>
      <leafValues>
        -2.9847115278244019e-01 2.5738185644149780e-01</leafValues></_>
    <_>
      <internalNodes>
        0 -1 63686 1989191260 -736524601 -988819123 -975730294
        -1009594243 -259858395 -182016261 -1075965812</internalNodes>
      <leafValues>
        -2.8644078969955444e-01 2.7222096920013428e-01</leafValues></_>
    <_>
      <internalNodes>
        0 -1 47398 796274356 616825925 371070243 512904955 977799737
        1809977105 -6480925 -1074264384</internalNodes>
      <leafValues>
        -4.0534502267837524e-01 1.9094088673591614e-01</leafValues></_>
    <_>
      <internalNodes>
        0 -1 43025 -452622941 2063286182 2086139860 926527086 -691540594
        1442676669 -822663685 2131665837</internalNodes>
      <leafValues>
        -2.4270905554294586e-01 3.3399796485900879e-01</leafValues></_>
    <_>
      <internalNodes>
        0 -1 37297 618483136 1995321672 1439495641 -783621550 -107303904
        -401035199 -211122730 2051185836</internalNodes>
      <leafValues>
        -3.5340905189514160e-01 2.3465488851070404e-01</leafValues></_></weakClassifiers></stage6>
</opencv_storage>
