<?xml version="1.0"?>
<opencv_storage>
<stage4>
  <maxWeakCount>32</maxWeakCount>
  <stageThreshold>-1.0444055795669556e+00</stageThreshold>
  <weakClassifiers>
    <_>
      <internalNodes>
        0 -1 45112 1786741423 1064557077 -1852253942 1568530542
        1279978652 -126877036 786544863 1448590511</internalNodes>
      <leafValues>
        -4.1137567162513733e-01 1.2348178029060364e-01</leafValues></_>
    <_>
      <internalNodes>
        0 -1 361 -967382822 -1043662008 543592722 -702771046 1116537032
        -1005976453 -760977152 1152598326</internalNodes>
      <leafValues>
        -3.1221744418144226e-01 2.3561300337314606e-01</leafValues></_>
    <_>
      <internalNodes>
        0 -1 21455 -1382600841 -1398661141 -531568513 -897952272
        -1128449572 -1362525007 -171081964 -17500108</internalNodes>
      <leafValues>
        -3.0522134900093079e-01 2.2334426641464233e-01</leafValues></_>
    <_>
      <internalNodes>
        0 -1 31457 525705866 963556827 -1904159167 -589504377 435591938
        -91699550 995142514 1484831688</internalNodes>
      <leafValues>
        -3.5970759391784668e-01 1.9108857214450836e-01</leafValues></_>
    <_>
      <internalNodes>
        0 -1 2595 -657071388 1030540429 -729412472 -266280198 1692095092
        697608964 1237615338 -680571314</internalNodes>
      <leafValues>
        -2.6275557279586792e-01 2.7327638864517212e-01</leafValues></_>
    <_>
      <internalNodes>
        0 -1 45117 1089138309 918269503 -591415793 1064562687 -235511814
        534315005 -53545489 2028863430</internalNodes>
      <leafValues>
        -2.1685822308063507e-01 3.3727091550827026e-01</leafValues></_>
    <_>
      <internalNodes>
        0 -1 34642 838667990 784342414 -1908025468 2082525195 -229552408
        -1114161926 -1371610326 -1427235400</internalNodes>
      <leafValues>
        -3.2553806900978088e-01 2.1987782418727875e-01</leafValues></_>
    <_>
      <internalNodes>
        0 -1 59070 1709145356 118944273 1671055572 -1289786956
        -1762166592 -1144927998 -41617184 22402326</internalNodes>
      <leafValues>
        -3.8994187116622925e-01 1.9953227043151855e-01</leafValues></_>
    <_>
      <internalNodes>
        0 -1 52532 1968564869 277381596 2103395600 -1543646808 126999022
        -660979016 818723576 252389833</internalNodes>
      <leafValues>
        -3.0100205540657043e-01 2.4131765961647034e-01</leafValues></_>
    <_>
      <internalNodes>
        0 -1 26765 1330446302 322334444 -21205840 366752823 2113525396
        -591888899 -76279829 -78822125</internalNodes>
      <leafValues>
        -2.4351240694522858e-01 3.1582385301589966e-01</leafValues></_>
    <_>
      <internalNodes>
        0 -1 48819 1586955267 232826178 -820100899 -1161418493
        -495386588 1788553375 -35288331 1858594801</internalNodes>
      <leafValues>
        -3.3682200312614441e-01 2.3121266067028046e-01</leafValues></_>
    <_>
      <internalNodes>
        0 -1 3047 -860160003 -1885490756 -335269876 619872400 1502150704
        -85587200 -1519533127 -6427025</internalNodes>
      <leafValues>
        -3.0081850290298462e-01 2.6017266511917114e-01</leafValues></_>
    <_>
      <internalNodes>
        0 -1 64507 -171447389 -59941014 -311583 817364454 -1544314914
        1991927138 2113706123 -1610072290</internalNodes>
      <leafValues>
        -2.4710620939731598e-01 3.2031914591789246e-01</leafValues></_>
    <_>
      <internalNodes>
        0 -1 16183 1156883036 2034536400 822153759 -801064448 -979375935
        -1329068269 1695135642 201425544</internalNodes>
      <leafValues>
        -4.8430788516998291e-01 1.6493055224418640e-01</leafValues></_>
    <_>
      <internalNodes>
        0 -1 63610 648415765 -1110024284 84929839 828365387 -217120457
        -20172343 -1647852779 -16982300</internalNodes>
      <leafValues>
        -3.3001488447189331e-01 2.4598355591297150e-01</leafValues></_>
    <_>
      <internalNodes>
        0 -1 29654 2028121101 436889901 -993365015 1054314943 1086983665
        972689798 -79603624 264910179</internalNodes>
      <leafValues>
        -2.8790903091430664e-01 2.7859070897102356e-01</leafValues></_>
    <_>
      <internalNodes>
        0 -1 9963 678214224 -714020251 -1954627665 388873279 1459556265
        -1208647972 -1355344325 261043955</internalNodes>
      <leafValues>
        -2.7554628252983093e-01 2.8710645437240601e-01</leafValues></_>
    <_>
      <internalNodes>
        0 -1 17905 -432561177 744924610 -1439464273 -370542122 33753279
        549849250 942360674 73748549</internalNodes>
      <leafValues>
        -3.7162336707115173e-01 2.1031048893928528e-01</leafValues></_>
    <_>
      <internalNodes>
        0 -1 20312 102049215 -1428860202 521247623 -922794324
        -1392279264 -16150336 1586321957 1077439568</internalNodes>
      <leafValues>
        -3.9477029442787170e-01 2.1001979708671570e-01</leafValues></_>
    <_>
      <internalNodes>
        0 -1 6526 -880745597 1309882647 1217230995 -802131326
        -1156949136 2003960865 115083788 1937701580</internalNodes>
      <leafValues>
        -3.8923585414886475e-01 2.0763035118579865e-01</leafValues></_>
    <_>
      <internalNodes>
        0 -1 30211 1373399955 -574531547 -1890152467 1812758477
        1065293786 -84218122 128728767 -630629302</internalNodes>
      <leafValues>
        -2.1542464196681976e-01 3.8111010193824768e-01</leafValues></_>
    <_>
      <internalNodes>
        0 -1 40951 5138304 1934401836 -1551762987 1459913484 1155385666
        -1610540825 2022381045 718071526</internalNodes>
      <leafValues>
        -4.0934461355209351e-01 2.0660521090030670e-01</leafValues></_>
    <_>
      <internalNodes>
        0 -1 41424 1895759902 177213919 -482144867 -523062015 1704421240
        -1611065955 -478139838 -1167182988</internalNodes>
      <leafValues>
        -3.6635717749595642e-01 2.3077593743801117e-01</leafValues></_>
    <_>
      <internalNodes>
        0 -1 31639 -1669499401 -512213384 -403128386 -427443421
        1207795483 -1965695145 -1100122269 -6463139</internalNodes>
      <leafValues>
        -2.5781083106994629e-01 3.4063658118247986e-01</leafValues></_>
    <_>
      <internalNodes>
        0 -1 34232 -255858047 1924333476 -272748939 -1486553175
        -831140775 1710118911 -1124303029 1991229430</internalNodes>
      <leafValues>
        -2.5374218821525574e-01 3.2999312877655029e-01</leafValues></_>
    <_>
      <internalNodes>
        0 -1 67474 -36186121 -707790776 -156565830 -790443554 -33562800
        -2106085636 1190059166 -493100318</internalNodes>
      <leafValues>
        -2.1305406093597412e-01 4.1059595346450806e-01</leafValues></_>
    <_>
      <internalNodes>
        0 -1 47367 1392639781 1457133872 895466464 232337792 -2046444360
        -1962374768 -86597158 150799368</internalNodes>
      <leafValues>
        -3.0435776710510254e-01 2.8918617963790894e-01</leafValues></_>
    <_>
      <internalNodes>
        0 -1 5005 -809663265 -306342095 -285262402 -173224596
        -1476936393 -404947079 -1821002044 -483457805</internalNodes>
      <leafValues>
        -2.1137265861034393e-01 4.1799437999725342e-01</leafValues></_>
    <_>
      <internalNodes>
        0 -1 52540 261753104 119427636 964728244 1909801173 -2049164500
        -8220431 -101975120 -288311160</internalNodes>
      <leafValues>
        -3.6793398857116699e-01 2.4496927857398987e-01</leafValues></_>
    <_>
      <internalNodes>
        0 -1 36792 1264578196 -1785085473 727548484 536598530 1651031004
        2026123460 -1172290581 696253050</internalNodes>
      <leafValues>
        -3.0068787932395935e-01 2.9981639981269836e-01</leafValues></_>
    <_>
      <internalNodes>
        0 -1 55317 1185345280 1917296723 -2123287834 757523209
        1418255692 994287795 -1986123376 945134424</internalNodes>
      <leafValues>
        -4.1029137372970581e-01 2.2973340749740601e-01</leafValues></_>
    <_>
      <internalNodes>
        0 -1 13120 742710784 836731206 -939210311 758356552 -54432831
        -1152819136 -641643620 -1443817408</internalNodes>
      <leafValues>
        -3.6468091607093811e-01 2.4153922498226166e-01</leafValues></_></weakClassifiers></stage4>
</opencv_storage>
