<?xml version="1.0"?>
<opencv_storage>
<stage5>
  <maxWeakCount>15</maxWeakCount>
  <stageThreshold>-1.5383533239364624e+00</stageThreshold>
  <weakClassifiers>
    <_>
      <internalNodes>
        0 -1 6110 -352326417 -2146506050 1117186239 -533664166
        -741082930 1078366531 2077473691 -266278930</internalNodes>
      <leafValues>
        -5.5136835575103760e-01 4.4352218508720398e-01</leafValues></_>
    <_>
      <internalNodes>
        0 -1 33602 1001099007 -287444033 340986704 -589319704 533450410
        -606032681 -69469230 1149065</internalNodes>
      <leafValues>
        -5.7847529649734497e-01 3.3850079774856567e-01</leafValues></_>
    <_>
      <internalNodes>
        0 -1 66631 -143655114 325804590 1927082290 1610716106 -607397372
        -958210016 -491853648 -987236925</internalNodes>
      <leafValues>
        -4.1766172647476196e-01 3.9475503563880920e-01</leafValues></_>
    <_>
      <internalNodes>
        0 -1 45129 1477499867 -595529652 -1291403836 -7024036 -2031911
        -1182256272 2026459643 521830365</internalNodes>
      <leafValues>
        -4.5570194721221924e-01 3.5303714871406555e-01</leafValues></_>
    <_>
      <internalNodes>
        0 -1 38751 662648691 -1429159589 1293566225 2102395024
        -389874936 -1440185703 2074548513 1522515763</internalNodes>
      <leafValues>
        -4.4990691542625427e-01 3.5398158431053162e-01</leafValues></_>
    <_>
      <internalNodes>
        0 -1 3950 -1096887585 -597233866 -953656373 -626343372 783047598
        -301986688 -997076017 5181577</internalNodes>
      <leafValues>
        -4.8311662673950195e-01 3.0730989575386047e-01</leafValues></_>
    <_>
      <internalNodes>
        0 -1 48539 -531651549 1900896377 -1853681381 -1088522855
        758619593 -1113077659 846696762 1718760752</internalNodes>
      <leafValues>
        -5.4455667734146118e-01 2.9257956147193909e-01</leafValues></_>
    <_>
      <internalNodes>
        0 -1 43195 -827711232 -778015744 150446200 288506118 -449871700
        2072493246 -353645096 465227693</internalNodes>
      <leafValues>
        -5.4136532545089722e-01 2.7432471513748169e-01</leafValues></_>
    <_>
      <internalNodes>
        0 -1 3613 -53549474 -49903524 -1056739242 -774186996 148734910
        -1028734042 1084115131 162740992</internalNodes>
      <leafValues>
        -5.6439560651779175e-01 2.6338434219360352e-01</leafValues></_>
    <_>
      <internalNodes>
        0 -1 22118 -2413354 -549513440 1346504173 -49839712 -114823195
        743129248 -630944817 -884830717</internalNodes>
      <leafValues>
        -4.3810883164405823e-01 3.4151688218116760e-01</leafValues></_>
    <_>
      <internalNodes>
        0 -1 62765 -882922189 750361791 -684728527 -269989011 -57052394
        1068206523 -806356960 -16910692</internalNodes>
      <leafValues>
        -4.0537649393081665e-01 3.8400352001190186e-01</leafValues></_>
    <_>
      <internalNodes>
        0 -1 27291 1136087543 1995771286 -1235453080 1585069758
        -1769614677 -27719365 1013198000 -1085132736</internalNodes>
      <leafValues>
        -4.1258212924003601e-01 3.6828458309173584e-01</leafValues></_>
    <_>
      <internalNodes>
        0 -1 42309 1641309392 939076166 -1783913790 1003823659
        -1948579711 -272942461 -1413567919 989766245</internalNodes>
      <leafValues>
        -5.6923002004623413e-01 2.6736193895339966e-01</leafValues></_>
    <_>
      <internalNodes>
        0 -1 43023 -293867641 7828883 607433488 -1313703536 -644094687
        -1815837121 166579114 1115946938</internalNodes>
      <leafValues>
        -5.0395846366882324e-01 3.0310752987861633e-01</leafValues></_>
    <_>
      <internalNodes>
        0 -1 31987 295690066 -1617923904 -1421671649 1595437329
        -577750144 -1412253775 1795763035 1059632465</internalNodes>
      <leafValues>
        -4.4684791564941406e-01 3.5633775591850281e-01</leafValues></_></weakClassifiers></stage5>
</opencv_storage>
