<?xml version="1.0"?>
<opencv_storage>
<stage9>
  <maxWeakCount>22</maxWeakCount>
  <stageThreshold>-1.2567121982574463e+00</stageThreshold>
  <weakClassifiers>
    <_>
      <internalNodes>
        0 -1 12257 -421010705 -1374179462 -1468761217 -156327658
        -1033170945 1662702461 -142467409 -159454289</internalNodes>
      <leafValues>
        -4.2942303419113159e-01 3.8035073876380920e-01</leafValues></_>
    <_>
      <internalNodes>
        0 -1 7436 -634766338 -79244578 -360015987 -1572822848
        -1500835958 1022888586 -1062739061 16466075</internalNodes>
      <leafValues>
        -4.5195797085762024e-01 3.0863028764724731e-01</leafValues></_>
    <_>
      <internalNodes>
        0 -1 38975 -147224328 1526729768 -1338969392 -208191479
        -72828423 1803325229 -1096761413 1798905149</internalNodes>
      <leafValues>
        -4.7642001509666443e-01 2.7095252275466919e-01</leafValues></_>
    <_>
      <internalNodes>
        0 -1 34198 198149489 667561215 -93206287 1645329553 -6723664
        -121820889 -920083683 137856933</internalNodes>
      <leafValues>
        -4.7601407766342163e-01 2.8339692950248718e-01</leafValues></_>
    <_>
      <internalNodes>
        0 -1 172 -859507664 -2449010 -1252464161 -83896037 1243871339
        -1229856052 1363132821 1606889472</internalNodes>
      <leafValues>
        -4.7819089889526367e-01 2.3400172591209412e-01</leafValues></_>
    <_>
      <internalNodes>
        0 -1 62299 -69731566 -384608769 -251407441 1866725279 -727258292
        -904724465 2074935232 2106278074</internalNodes>
      <leafValues>
        -3.4372198581695557e-01 3.6594197154045105e-01</leafValues></_>
    <_>
      <internalNodes>
        0 -1 31116 892278750 -578725681 403535856 -589997072 348345814
        -121613881 -1133118150 -1844148096</internalNodes>
      <leafValues>
        -6.0077673196792603e-01 1.8043099343776703e-01</leafValues></_>
    <_>
      <internalNodes>
        0 -1 63769 -53518755 -171838890 1880843231 -1629882531
        -299181297 -573890164 -223737381 -134185134</internalNodes>
      <leafValues>
        -3.7735834717750549e-01 3.2594636082649231e-01</leafValues></_>
    <_>
      <internalNodes>
        0 -1 42834 -1023751513 -222925001 -268435695 368541596
        -805405401 -947912785 -33559505 -114585841</internalNodes>
      <leafValues>
        -2.8370240330696106e-01 4.7967496514320374e-01</leafValues></_>
    <_>
      <internalNodes>
        0 -1 64468 1027407613 2119198272 -1718093377 -1152258720
        678161401 -1897616897 4710640 2133740904</internalNodes>
      <leafValues>
        -4.1178119182586670e-01 3.0815395712852478e-01</leafValues></_>
    <_>
      <internalNodes>
        0 -1 62600 -268437611 -353044633 -18878861 997848931 -268445951
        -1171980319 -956461406 -2034499661</internalNodes>
      <leafValues>
        -3.0580362677574158e-01 4.3285083770751953e-01</leafValues></_>
    <_>
      <internalNodes>
        0 -1 36982 1873367679 1049860727 1222368989 -387559235
        -1197118344 -280009329 -341137187 -356770376</internalNodes>
      <leafValues>
        -3.8774862885475159e-01 3.2375153899192810e-01</leafValues></_>
    <_>
      <internalNodes>
        0 -1 39137 1347652250 -62308480 813703283 1597329969 -1910330691
        -55567899 -2000458053 792330411</internalNodes>
      <leafValues>
        -3.8682577013969421e-01 3.3765763044357300e-01</leafValues></_>
    <_>
      <internalNodes>
        0 -1 6929 -261135025 -173607857 1231781084 -46219266 1106302962
        -673202737 -975440900 -4548784</internalNodes>
      <leafValues>
        -2.9319089651107788e-01 4.3706467747688293e-01</leafValues></_>
    <_>
      <internalNodes>
        0 -1 66750 -273956865 -844103957 -246103 1035632380 -172493449
        -858923138 -1764256655 -304293923</internalNodes>
      <leafValues>
        -3.4300065040588379e-01 3.8313874602317810e-01</leafValues></_>
    <_>
      <internalNodes>
        0 -1 138 1016495806 509562961 -905390200 1908174165 975012530
        446630017 1874722706 930449648</internalNodes>
      <leafValues>
        -5.2266299724578857e-01 2.6011499762535095e-01</leafValues></_>
    <_>
      <internalNodes>
        0 -1 21077 -292994129 -286935508 1821701085 -285221948
        1002374095 -1409631393 -422680929 -16786468</internalNodes>
      <leafValues>
        -3.6537602543830872e-01 3.5652977228164673e-01</leafValues></_>
    <_>
      <internalNodes>
        0 -1 17760 402096126 -1443111831 -1242071056 -708575249
        -1242415119 -1915068936 1966307120 -849930801</internalNodes>
      <leafValues>
        -3.4072336554527283e-01 3.8708674907684326e-01</leafValues></_>
    <_>
      <internalNodes>
        0 -1 53492 -704187615 1599958288 -840432931 1057903929 717937397
        -1366392701 969251921 481885636</internalNodes>
      <leafValues>
        -5.4908359050750732e-01 2.6739570498466492e-01</leafValues></_>
    <_>
      <internalNodes>
        0 -1 34113 -1025880320 -758112985 265722364 272634122 1130073002
        1920817319 -2068000852 7789310</internalNodes>
      <leafValues>
        -6.2195950746536255e-01 1.8800063431262970e-01</leafValues></_>
    <_>
      <internalNodes>
        0 -1 54034 788802323 -1364696844 -67704001 -1364394671 -69268244
        -1160849389 -1347540621 -1895894191</internalNodes>
      <leafValues>
        -4.5493546128273010e-01 2.7487665414810181e-01</leafValues></_>
    <_>
      <internalNodes>
        0 -1 59294 -939807231 360665409 1351899435 857804891 -1852098228
        914358280 1723392200 663942030</internalNodes>
      <leafValues>
        -4.6647357940673828e-01 2.8504416346549988e-01</leafValues></_></weakClassifiers></stage9>
</opencv_storage>
