<?xml version="1.0"?>
<opencv_storage>
<stage7>
  <maxWeakCount>9</maxWeakCount>
  <stageThreshold>-8.3444255590438843e-01</stageThreshold>
  <weakClassifiers>
    <_>
      <internalNodes>
        0 -1 689 316668 69263496 -2062957945 -1476378356 1130628 8489034
        81952 1108426821</internalNodes>
      <leafValues>
        -6.7372351884841919e-01 6.3548499345779419e-01</leafValues></_>
    <_>
      <internalNodes>
        0 -1 52422 -1809660956 273705482 117453000 1932554704 1076079338
        1477312650 -637296385 441440651</internalNodes>
      <leafValues>
        -5.3629499673843384e-01 4.8885440826416016e-01</leafValues></_>
    <_>
      <internalNodes>
        0 -1 26247 1372784399 1902258315 1097793 1375256587 268452239
        -1609182967 1812499115 1360053331</internalNodes>
      <leafValues>
        -5.7171720266342163e-01 4.2662703990936279e-01</leafValues></_>
    <_>
      <internalNodes>
        0 -1 57226 1908217115 -1522196399 621051931 -750774013
        1606537707 -1416494942 -487812123 25544</internalNodes>
      <leafValues>
        -5.2691262960433960e-01 4.5368888974189758e-01</leafValues></_>
    <_>
      <internalNodes>
        0 -1 9590 -857703213 -545359151 717647519 -234719272 -404970290
        -16890800 -550246450 1913679475</internalNodes>
      <leafValues>
        -4.8484405875205994e-01 5.1649755239486694e-01</leafValues></_>
    <_>
      <internalNodes>
        0 -1 60131 -471883523 1426522371 34685601 -580431597 -263675508
        1485963776 -1576008822 -518964854</internalNodes>
      <leafValues>
        -4.7222876548767090e-01 5.3241455554962158e-01</leafValues></_>
    <_>
      <internalNodes>
        0 -1 27197 -2029312975 -100367322 1275068684 -208530934 17958150
        -2001862496 1252148344 -28573612</internalNodes>
      <leafValues>
        -5.5226862430572510e-01 4.5149400830268860e-01</leafValues></_>
    <_>
      <internalNodes>
        0 -1 52142 -805067757 1896677507 17416389 -127449981 -2126380669
        -788168440 -2146366769 -166584735</internalNodes>
      <leafValues>
        -5.7364016771316528e-01 4.2141813039779663e-01</leafValues></_>
    <_>
      <internalNodes>
        0 -1 20513 536829943 -1937809716 1073217521 -445645333 -34127873
        -42631700 -1120405631 -48265790</internalNodes>
      <leafValues>
        -4.1815832257270813e-01 6.1508244276046753e-01</leafValues></_></weakClassifiers></stage7>
</opencv_storage>
