<?xml version="1.0"?>
<opencv_storage>
<stage11>
  <maxWeakCount>23</maxWeakCount>
  <stageThreshold>-1.2004816532135010e+00</stageThreshold>
  <weakClassifiers>
    <_>
      <internalNodes>
        0 -1 18141 -1342198017 -530652650 -1034947489 -497622213
        2139871231 -110843805 1944333231 -91294738</internalNodes>
      <leafValues>
        -3.8530611991882324e-01 3.7019607424736023e-01</leafValues></_>
    <_>
      <internalNodes>
        0 -1 8740 107181556 -1415610386 -1313619669 -1679820113
        -479784515 -29017600 2121923329 1567637966</internalNodes>
      <leafValues>
        -4.6660017967224121e-01 2.6479887962341309e-01</leafValues></_>
    <_>
      <internalNodes>
        0 -1 61174 -101388494 -716233657 -1740439075 1367818589
        -104546912 1304125978 -377211038 -327069056</internalNodes>
      <leafValues>
        -4.7401177883148193e-01 2.3713529109954834e-01</leafValues></_>
    <_>
      <internalNodes>
        0 -1 43202 1894260961 -1203248094 487407205 -2149807 -901609217
        2081468849 17926395 974884815</internalNodes>
      <leafValues>
        -3.4318163990974426e-01 3.4187343716621399e-01</leafValues></_>
    <_>
      <internalNodes>
        0 -1 42504 -1917603879 -812181759 -1823076011 1392656176
        531233762 -888986749 2047126932 1481047906</internalNodes>
      <leafValues>
        -4.7269701957702637e-01 2.3434577882289886e-01</leafValues></_>
    <_>
      <internalNodes>
        0 -1 62756 -100666078 -271933649 -142224928 -707816708
        -1646848447 1329570499 -783858704 -1060645463</internalNodes>
      <leafValues>
        -5.0836849212646484e-01 2.1928866207599640e-01</leafValues></_>
    <_>
      <internalNodes>
        0 -1 21866 -956305829 914026207 -1090651408 -1078987651
        578778350 -35271329 1428607160 -1683859039</internalNodes>
      <leafValues>
        -3.1423994898796082e-01 3.6731180548667908e-01</leafValues></_>
    <_>
      <internalNodes>
        0 -1 47195 -968630272 -1264550556 1675643127 2145087794
        1680608509 -1660936060 -1475868436 2074299400</internalNodes>
      <leafValues>
        -4.2983618378639221e-01 2.8772425651550293e-01</leafValues></_>
    <_>
      <internalNodes>
        0 -1 51043 1268386777 455635733 1935762941 -143116939 145385725
        -1074059095 705753087 1058673013</internalNodes>
      <leafValues>
        -4.3374142050743103e-01 2.6007422804832458e-01</leafValues></_>
    <_>
      <internalNodes>
        0 -1 3149 -660637957 -589468325 -872317750 -529763350 -775861891
        7430709 2080058480 -194777601</internalNodes>
      <leafValues>
        -3.9846149086952209e-01 2.9447656869888306e-01</leafValues></_>
    <_>
      <internalNodes>
        0 -1 46888 14643089 -1505535133 -2021299917 -1434659990
        1538345317 -1080355669 -44303533 -57877044</internalNodes>
      <leafValues>
        -4.4142851233482361e-01 2.6855748891830444e-01</leafValues></_>
    <_>
      <internalNodes>
        0 -1 18164 1883513494 -649596281 -263171982 1347933410 541382965
        10795940 1658759295 1929712200</internalNodes>
      <leafValues>
        -5.2074164152145386e-01 2.3799793422222137e-01</leafValues></_>
    <_>
      <internalNodes>
        0 -1 46869 131183927 1270931458 -1484717358 2136457350
        -1659858255 -97756800 -1682719309 1398659981</internalNodes>
      <leafValues>
        -4.1613388061523438e-01 2.7450749278068542e-01</leafValues></_>
    <_>
      <internalNodes>
        0 -1 31454 -746564384 -759086259 1946311823 216693919 1378055046
        -739421932 808038927 841859295</internalNodes>
      <leafValues>
        -3.8174748420715332e-01 3.2312223315238953e-01</leafValues></_>
    <_>
      <internalNodes>
        0 -1 18906 -1225561643 -599688240 -1751722791 1991677077
        -1866426548 -366935290 -1160248423 -23721016</internalNodes>
      <leafValues>
        -4.0835127234458923e-01 3.0487814545631409e-01</leafValues></_>
    <_>
      <internalNodes>
        0 -1 55541 -816906304 285799803 289984768 620261808 663054536
        2065199489 29860046 1714409747</internalNodes>
      <leafValues>
        -4.8788499832153320e-01 2.3704010248184204e-01</leafValues></_>
    <_>
      <internalNodes>
        0 -1 48007 -1357425272 1434669873 151525761 -74239053 42002056
        455205664 -1025449784 385968982</internalNodes>
      <leafValues>
        -4.7926843166351318e-01 2.4111911654472351e-01</leafValues></_>
    <_>
      <internalNodes>
        0 -1 67596 2060563185 -1564282962 -1281474576 2140158113
        2109030076 690792921 2053971197 -1547723085</internalNodes>
      <leafValues>
        -3.2152497768402100e-01 3.7849095463752747e-01</leafValues></_>
    <_>
      <internalNodes>
        0 -1 52634 1248774012 512758836 595376464 -4976384 548442585
        -1165483328 594611867 756683005</internalNodes>
      <leafValues>
        -4.6870839595794678e-01 2.6323068141937256e-01</leafValues></_>
    <_>
      <internalNodes>
        0 -1 27005 -1033121891 1086330503 -1048472645 -688883802
        1796750321 -1172493616 -612225218 -12944083</internalNodes>
      <leafValues>
        -3.8712793588638306e-01 3.0709010362625122e-01</leafValues></_>
    <_>
      <internalNodes>
        0 -1 40250 -669846128 354230693 -1525775987 509944713 185245265
        1329809409 -1926985103 447280390</internalNodes>
      <leafValues>
        -4.6430552005767822e-01 2.7782753109931946e-01</leafValues></_>
    <_>
      <internalNodes>
        0 -1 39093 -2144677782 1321317315 103531 1494332291 -1566521095
        -1090146191 493977786 2065565483</internalNodes>
      <leafValues>
        -3.8411545753479004e-01 3.2374128699302673e-01</leafValues></_>
    <_>
      <internalNodes>
        0 -1 66629 1543323455 -752958623 278065318 -1537494982
        1925475452 -1071930567 -999556638 -730596501</internalNodes>
      <leafValues>
        -3.9152678847312927e-01 3.1767559051513672e-01</leafValues></_></weakClassifiers></stage11>
</opencv_storage>
