<?xml version="1.0"?>
<opencv_storage>
<stage18>
  <maxWeakCount>11</maxWeakCount>
  <stageThreshold>-7.6558041572570801e-01</stageThreshold>
  <weakClassifiers>
    <_>
      <internalNodes>
        0 -1 10705 -2104481826 532021264 -2071985878 -1539260208
        135274626 721551370 -1945466680 173818057</internalNodes>
      <leafValues>
        -6.4672362804412842e-01 5.8505672216415405e-01</leafValues></_>
    <_>
      <internalNodes>
        0 -1 40957 1856998691 -617664725 1069513486 -248332317
        -2018007119 -470028289 -170024737 1933557325</internalNodes>
      <leafValues>
        -3.8117176294326782e-01 5.5351603031158447e-01</leafValues></_>
    <_>
      <internalNodes>
        0 -1 24809 -770293540 1402844418 -1874591043 -1223380854
        -1559908121 -1665126400 -2129100629 -1945921533</internalNodes>
      <leafValues>
        -4.6194908022880554e-01 4.8163729906082153e-01</leafValues></_>
    <_>
      <internalNodes>
        0 -1 29853 2010512893 1609981943 -1090568199 -421380127
        -1101742650 -1083826233 -1073840292 -1348279164</internalNodes>
      <leafValues>
        -4.5503449440002441e-01 4.8636421561241150e-01</leafValues></_>
    <_>
      <internalNodes>
        0 -1 57226 -2030043777 2144042703 -687895849 1902247365
        -562692293 -1305561318 -145753153 -2145304659</internalNodes>
      <leafValues>
        -3.8398268818855286e-01 5.9186607599258423e-01</leafValues></_>
    <_>
      <internalNodes>
        0 -1 36414 1170248059 -255845942 -1199475967 -779741145
        -1945926878 -1065219448 1094845209 531425373</internalNodes>
      <leafValues>
        -5.2033418416976929e-01 4.4408568739891052e-01</leafValues></_>
    <_>
      <internalNodes>
        0 -1 52402 -1591994841 -2013233148 -511470577 -503218031
        1744896597 -1064754173 680002085 -294346731</internalNodes>
      <leafValues>
        -6.4128440618515015e-01 3.3632057905197144e-01</leafValues></_>
    <_>
      <internalNodes>
        0 -1 17946 671174912 -872296448 1157633485 881220185 82348
        77217800 -2004811381 1673136494</internalNodes>
      <leafValues>
        -5.7455170154571533e-01 4.0127786993980408e-01</leafValues></_>
    <_>
      <internalNodes>
        0 -1 34853 -2058644293 -1660415596 16891933 -649059811 814125554
        -935312128 814534667 1478623341</internalNodes>
      <leafValues>
        -4.9420371651649475e-01 4.9501222372055054e-01</leafValues></_>
    <_>
      <internalNodes>
        0 -1 29415 -1224633812 285231387 1140854994 -586215296 134255341
        157417480 319377939 1468240707</internalNodes>
      <leafValues>
        -6.0390341281890869e-01 3.8909289240837097e-01</leafValues></_>
    <_>
      <internalNodes>
        0 -1 0 -298048319 -429367825 -8472721 -122683587 -143360008
        -193003914 -973080853 -1389687586</internalNodes>
      <leafValues>
        -4.2497789859771729e-01 5.7445180416107178e-01</leafValues></_></weakClassifiers></stage18>
</opencv_storage>
