<?xml version="1.0"?>
<opencv_storage>
<stage17>
  <maxWeakCount>11</maxWeakCount>
  <stageThreshold>-8.0915707349777222e-01</stageThreshold>
  <weakClassifiers>
    <_>
      <internalNodes>
        0 -1 11771 620527605 753037167 -1124073479 785317709 -34570244
        -1519292442 1971287858 1191346044</internalNodes>
      <leafValues>
        -4.8751357197761536e-01 6.2936305999755859e-01</leafValues></_>
    <_>
      <internalNodes>
        0 -1 6039 -1039209729 -1370689255 -1341504426 -264732280
        2122918295 -918413303 -238990370 -192618390</internalNodes>
      <leafValues>
        -4.6912047266960144e-01 4.7960489988327026e-01</leafValues></_>
    <_>
      <internalNodes>
        0 -1 169 -991068369 -146446186 -50336013 -733692180 -536870934
        -15401167 -136341506 -140386447</internalNodes>
      <leafValues>
        -3.9828011393547058e-01 5.3697305917739868e-01</leafValues></_>
    <_>
      <internalNodes>
        0 -1 67530 -134217857 -421075009 -625236278 1111031532 -2218
        1668415309 -28969120 -392170001</internalNodes>
      <leafValues>
        -4.3928724527359009e-01 5.0446033477783203e-01</leafValues></_>
    <_>
      <internalNodes>
        0 -1 29441 -2012548304 536920552 142832987 1459937521 -627031815
        -1500757900 420347989 1059082549</internalNodes>
      <leafValues>
        -7.3793840408325195e-01 2.7148753404617310e-01</leafValues></_>
    <_>
      <internalNodes>
        0 -1 67058 -138413377 -1737756051 -1073742079 -144906684
        -17171273 -807993492 1995732805 -605628459</internalNodes>
      <leafValues>
        -4.3893083930015564e-01 4.9500167369842529e-01</leafValues></_>
    <_>
      <internalNodes>
        0 -1 15662 1078652120 -630116069 -1878261441 1551290718
        546871699 -334560704 -2063447928 859898049</internalNodes>
      <leafValues>
        -5.3214007616043091e-01 4.2453488707542419e-01</leafValues></_>
    <_>
      <internalNodes>
        0 -1 16849 -1768801601 -1244642860 25961219 -1023143500
        -1073490694 -1396129151 816750735 -2009181725</internalNodes>
      <leafValues>
        -5.2006947994232178e-01 4.0977102518081665e-01</leafValues></_>
    <_>
      <internalNodes>
        0 -1 61919 1962792895 -218205465 2147483643 1994908923
        -1611137028 -179404972 -547889733 -529867265</internalNodes>
      <leafValues>
        -4.2250353097915649e-01 5.2402037382125854e-01</leafValues></_>
    <_>
      <internalNodes>
        0 -1 18087 1380068046 1402036354 4121 -116317800 1820492181
        1343488 -529759689 1912656048</internalNodes>
      <leafValues>
        -6.6164481639862061e-01 3.4563836455345154e-01</leafValues></_>
    <_>
      <internalNodes>
        0 -1 52743 1553550845 -804188011 -989613867 68423942 -1299698452
        -1330936781 568941229 1807237501</internalNodes>
      <leafValues>
        -5.5556899309158325e-01 3.6674541234970093e-01</leafValues></_></weakClassifiers></stage17>
</opencv_storage>
