<?xml version="1.0"?>
<opencv_storage>
<stage9>
  <maxWeakCount>8</maxWeakCount>
  <stageThreshold>-5.2840948104858398e-01</stageThreshold>
  <weakClassifiers>
    <_>
      <internalNodes>
        0 -1 36121 -1879175386 -1904574654 -16892100 1521631034
        -1363497046 804741634 -1729357824 154827826</internalNodes>
      <leafValues>
        -5.9918200969696045e-01 6.9287288188934326e-01</leafValues></_>
    <_>
      <internalNodes>
        0 -1 23581 415833456 160174261 -2147284571 -83787581 784867754
        -1467432509 2049051196 408257971</internalNodes>
      <leafValues>
        -5.2899932861328125e-01 5.0944977998733521e-01</leafValues></_>
    <_>
      <internalNodes>
        0 -1 38726 1749264005 1867849992 67191976 -1861726208
        -1072004424 -1576893805 -1975481201 1930071721</internalNodes>
      <leafValues>
        -5.3617668151855469e-01 4.2759034037590027e-01</leafValues></_>
    <_>
      <internalNodes>
        0 -1 27 -836843878 -644460392 -1878261433 -6941149 146440380
        -840263678 -2113875855 1237156101</internalNodes>
      <leafValues>
        -5.0537413358688354e-01 4.9846819043159485e-01</leafValues></_>
    <_>
      <internalNodes>
        0 -1 59366 1698816256 286458265 1078002060 5984593 -255668094
        -1442733800 -837635670 34403226</internalNodes>
      <leafValues>
        -6.4420139789581299e-01 3.3765637874603271e-01</leafValues></_>
    <_>
      <internalNodes>
        0 -1 65259 1066369013 1895002039 2122311537 880123827 451542995
        -206831746 -1887977577 -139105523</internalNodes>
      <leafValues>
        -4.8670464754104614e-01 5.4365837574005127e-01</leafValues></_>
    <_>
      <internalNodes>
        0 -1 6129 -58323734 -1726414832 813712026 1523089602 1444528267
        328730881 -1023342450 1997680967</internalNodes>
      <leafValues>
        -6.1162036657333374e-01 3.9213731884956360e-01</leafValues></_>
    <_>
      <internalNodes>
        0 -1 36807 42513662 2055749771 272695679 1406992387 -1971284738
        -1424997807 -2147385301 410587155</internalNodes>
      <leafValues>
        -5.4630160331726074e-01 4.3446654081344604e-01</leafValues></_></weakClassifiers></stage9>
</opencv_storage>
