<?xml version="1.0"?>
<opencv_storage>
<stage10>
  <maxWeakCount>21</maxWeakCount>
  <stageThreshold>-1.2059441804885864e+00</stageThreshold>
  <weakClassifiers>
    <_>
      <internalNodes>
        0 -1 40905 -1442067647 -864172275 -646495605 1351668496
        -955210620 1874067246 -1178646290 2072968081</internalNodes>
      <leafValues>
        -5.0104600191116333e-01 3.1023314595222473e-01</leafValues></_>
    <_>
      <internalNodes>
        0 -1 39675 2063449854 -1613382145 1073332223 -68026982
        2147467210 -16385 -1103759362 -67251030</internalNodes>
      <leafValues>
        -3.5991421341896057e-01 3.9570203423500061e-01</leafValues></_>
    <_>
      <internalNodes>
        0 -1 2593 -401947922 -589957787 -88944774 -187668854 2119848839
        1864026128 -232244486 -42844158</internalNodes>
      <leafValues>
        -5.2208501100540161e-01 2.5406071543693542e-01</leafValues></_>
    <_>
      <internalNodes>
        0 -1 31568 736075703 -1364533291 -77233177 502693935 2144566769
        -1359438446 1191929189 2465255</internalNodes>
      <leafValues>
        -5.0369006395339966e-01 2.7972182631492615e-01</leafValues></_>
    <_>
      <internalNodes>
        0 -1 59754 -1101013057 2067121392 -782646896 1301675413
        -1719943493 675212960 4526836 1230965681</internalNodes>
      <leafValues>
        -4.5154967904090881e-01 2.6689690351486206e-01</leafValues></_>
    <_>
      <internalNodes>
        0 -1 69 -2136427779 -108725027 -2029378471 -180103193 19535281
        -1006188371 -2126132509 1145390497</internalNodes>
      <leafValues>
        -4.2414927482604980e-01 3.0681431293487549e-01</leafValues></_>
    <_>
      <internalNodes>
        0 -1 51185 869601525 -1680903497 -1378583721 -92636833 -63621892
        -71231017 -1173856556 -22268428</internalNodes>
      <leafValues>
        -4.3642142415046692e-01 2.7421617507934570e-01</leafValues></_>
    <_>
      <internalNodes>
        0 -1 32240 1453287359 -856785559 -823730211 -1506132464
        250310621 -85721098 -1363216388 -2565044</internalNodes>
      <leafValues>
        -3.4211280941963196e-01 3.6082330346107483e-01</leafValues></_>
    <_>
      <internalNodes>
        0 -1 40641 -456446729 -866310543 1606485976 -565423600
        -1412271280 -40837733 -1075242080 1498732920</internalNodes>
      <leafValues>
        -5.8883863687515259e-01 2.0077891647815704e-01</leafValues></_>
    <_>
      <internalNodes>
        0 -1 36176 -1128067076 -201272368 201656272 -36828185 780260058
        -2004559927 -1202070965 -216038777</internalNodes>
      <leafValues>
        -3.4905320405960083e-01 3.5982125997543335e-01</leafValues></_>
    <_>
      <internalNodes>
        0 -1 6701 -1114523653 2145210705 -628060674 -187938310 690894163
        -716011471 436313108 -1318651949</internalNodes>
      <leafValues>
        -4.2038488388061523e-01 3.3697301149368286e-01</leafValues></_>
    <_>
      <internalNodes>
        0 -1 20939 -523620601 -1059917113 -1326397345 -423955350
        545485701 -2146913100 -1033811785 1884320274</internalNodes>
      <leafValues>
        -5.7255464792251587e-01 2.2212392091751099e-01</leafValues></_>
    <_>
      <internalNodes>
        0 -1 34299 -172247898 -604193233 2130247159 2143269434 771225591
        -816034347 -1280121409 1531650443</internalNodes>
      <leafValues>
        -3.2778978347778320e-01 4.1965952515602112e-01</leafValues></_>
    <_>
      <internalNodes>
        0 -1 847 -71778 -568700324 159682719 -20955120 239250098
        -827719414 1133482947 1603994306</internalNodes>
      <leafValues>
        -3.9770704507827759e-01 3.4718084335327148e-01</leafValues></_>
    <_>
      <internalNodes>
        0 -1 34413 -247286109 -152289526 1144063037 1530517393
        -1975144519 -17816107 1416746235 -1153743089</internalNodes>
      <leafValues>
        -2.9230859875679016e-01 4.6011263132095337e-01</leafValues></_>
    <_>
      <internalNodes>
        0 -1 52034 580062977 1910446909 -1757170755 -1092731939
        -1467915791 -69456225 574558292 985441780</internalNodes>
      <leafValues>
        -6.1754316091537476e-01 2.0848688483238220e-01</leafValues></_>
    <_>
      <internalNodes>
        0 -1 62648 -1421369597 240491389 -57923967 584037171 -175384063
        -1123429991 -419763422 -2035361822</internalNodes>
      <leafValues>
        -4.3144497275352478e-01 3.0167818069458008e-01</leafValues></_>
    <_>
      <internalNodes>
        0 -1 52284 -467278285 2071051565 -1098977749 1692888999
        1450254246 -105777665 -1083740629 -699439497</internalNodes>
      <leafValues>
        -3.4143462777137756e-01 3.7022414803504944e-01</leafValues></_>
    <_>
      <internalNodes>
        0 -1 47064 -218087264 2010296266 -632861792 -41240438 -225342799
        2014325539 -2146335812 105909709</internalNodes>
      <leafValues>
        -6.1058557033538818e-01 2.1938900649547577e-01</leafValues></_>
    <_>
      <internalNodes>
        0 -1 29104 760683968 -1594720163 -13968437 277235705 1340148729
        1434812671 -667366725 1493805734</internalNodes>
      <leafValues>
        -4.7211462259292603e-01 2.8454452753067017e-01</leafValues></_>
    <_>
      <internalNodes>
        0 -1 51140 268475764 -1801956351 1403802585 1439839554
        -2105409384 -66076454 1064334843 520755432</internalNodes>
      <leafValues>
        -4.9955061078071594e-01 2.6923397183418274e-01</leafValues></_></weakClassifiers></stage10>
</opencv_storage>
