<?xml version="1.0"?>
<opencv_storage>
<stage3>
  <maxWeakCount>15</maxWeakCount>
  <stageThreshold>-1.5093050003051758e+00</stageThreshold>
  <weakClassifiers>
    <_>
      <internalNodes>
        0 -1 12488 1217056494 -102960804 -962843526 -98929954 54582520
        974922480 1510232060 2113949714</internalNodes>
      <leafValues>
        -7.2335326671600342e-01 3.6276274919509888e-01</leafValues></_>
    <_>
      <internalNodes>
        0 -1 40731 -1552476225 -1365618561 -1816237217 -543661826
        -776760911 -1650857199 1232268074 348911306</internalNodes>
      <leafValues>
        -5.4267084598541260e-01 3.7799933552742004e-01</leafValues></_>
    <_>
      <internalNodes>
        0 -1 704 -301137954 -301799672 1371773151 -100081144 72222426
        -930561792 26952190 1598358595</internalNodes>
      <leafValues>
        -5.4249817132949829e-01 3.3481463789939880e-01</leafValues></_>
    <_>
      <internalNodes>
        0 -1 48591 -1346416671 936328935 1906151307 -1159734929
        -353148971 -3333 989286420 -92347040</internalNodes>
      <leafValues>
        -4.8246756196022034e-01 3.5618671774864197e-01</leafValues></_>
    <_>
      <internalNodes>
        0 -1 26484 2084857518 2033248855 -294194593 -538916089
        1114910459 1028183329 -829469953 1594717415</internalNodes>
      <leafValues>
        -4.4812738895416260e-01 3.7594032287597656e-01</leafValues></_>
    <_>
      <internalNodes>
        0 -1 55865 -941918349 -83822335 -644779664 1539850584
        -1950072901 -19805889 1407155604 -1969717868</internalNodes>
      <leafValues>
        -4.6770942211151123e-01 3.5396447777748108e-01</leafValues></_>
    <_>
      <internalNodes>
        0 -1 64298 -276842697 1853816503 -3531 1571291123 -294256831
        -1890582785 -338169072 -356522501</internalNodes>
      <leafValues>
        -3.9124813675880432e-01 4.7229290008544922e-01</leafValues></_>
    <_>
      <internalNodes>
        0 -1 48773 -458756573 -61057185 -518039781 -198705229 1627866959
        2137490262 -281601365 -100100843</internalNodes>
      <leafValues>
        -3.9646080136299133e-01 4.1803589463233948e-01</leafValues></_>
    <_>
      <internalNodes>
        0 -1 2332 -47545106 -1722355389 269010527 -9246204 476507390
        1241576379 1053679807 2131907278</internalNodes>
      <leafValues>
        -4.5810666680335999e-01 3.5627093911170959e-01</leafValues></_>
    <_>
      <internalNodes>
        0 -1 32016 -15605034 1023609888 -912208728 1840877469 2030894069
        2084059184 135807449 2064332547</internalNodes>
      <leafValues>
        -4.8617747426033020e-01 3.4439274668693542e-01</leafValues></_>
    <_>
      <internalNodes>
        0 -1 67314 -1124335873 753804015 -386024867 -982204542
        -1415388297 -873668661 1542968404 -588186208</internalNodes>
      <leafValues>
        -4.3936070799827576e-01 3.8343849778175354e-01</leafValues></_>
    <_>
      <internalNodes>
        0 -1 41262 -264240901 -546305311 672663653 1830131697
        -1935105860 -583003136 578978747 976769451</internalNodes>
      <leafValues>
        -4.5426839590072632e-01 3.5680845379829407e-01</leafValues></_>
    <_>
      <internalNodes>
        0 -1 67233 -558465 237912367 -101330466 -156351845 -809206201
        -830827520 -228019663 1818820342</internalNodes>
      <leafValues>
        -4.8172977566719055e-01 3.4178045392036438e-01</leafValues></_>
    <_>
      <internalNodes>
        0 -1 44746 -1411964965 -543345903 -109051556 1597985564
        -2087067743 1535355424 1276124552 475495954</internalNodes>
      <leafValues>
        -4.5293506979942322e-01 3.4598273038864136e-01</leafValues></_>
    <_>
      <internalNodes>
        0 -1 47104 -1366340825 -1507442737 -969860045 -2131462729
        1091121988 -297080860 -534611969 -472484365</internalNodes>
      <leafValues>
        -5.5662202835083008e-01 2.8473275899887085e-01</leafValues></_></weakClassifiers></stage3>
</opencv_storage>
