<?xml version="1.0"?>
<opencv_storage>
<stage7>
  <maxWeakCount>18</maxWeakCount>
  <stageThreshold>-1.2837855815887451e+00</stageThreshold>
  <weakClassifiers>
    <_>
      <internalNodes>
        0 -1 5826 238048470 -1446064050 -612910113 -623324945 1044570336
        -97632001 -1842637548 1481721055</internalNodes>
      <leafValues>
        -5.5920529365539551e-01 3.3911645412445068e-01</leafValues></_>
    <_>
      <internalNodes>
        0 -1 62882 -403247107 867882879 -306777104 736678064 -1444037637
        -1883401413 1158426820 96321976</internalNodes>
      <leafValues>
        -4.9207022786140442e-01 2.9885628819465637e-01</leafValues></_>
    <_>
      <internalNodes>
        0 -1 14764 -1758582993 -1208123665 -222572069 -208994995
        -1323481601 -1323805667 153733631 1900205771</internalNodes>
      <leafValues>
        -4.3387347459793091e-01 3.4075719118118286e-01</leafValues></_>
    <_>
      <internalNodes>
        0 -1 44713 2044701402 -234896549 819354396 -775086884
        -1340680207 -570121523 715307952 1361120522</internalNodes>
      <leafValues>
        -4.8747599124908447e-01 3.1034192442893982e-01</leafValues></_>
    <_>
      <internalNodes>
        0 -1 21220 -486553857 -359384257 -355270951 -497096806 -76851713
        -77602757 -34002145 -156046342</internalNodes>
      <leafValues>
        -3.9077189564704895e-01 3.7988692522048950e-01</leafValues></_>
    <_>
      <internalNodes>
        0 -1 59253 -455102707 823205149 -1336241349 286610239 -239308276
        -1113245428 -536027126 -1430522962</internalNodes>
      <leafValues>
        -3.6815375089645386e-01 3.9147576689720154e-01</leafValues></_>
    <_>
      <internalNodes>
        0 -1 44 -2146501121 -859461155 -1585158183 -874658869 799657451
        -928664607 30490837 88428869</internalNodes>
      <leafValues>
        -5.2615535259246826e-01 2.6494175195693970e-01</leafValues></_>
    <_>
      <internalNodes>
        0 -1 48547 -613694591 1514345843 475741977 1446393123 961256913
        195021705 63183496 1123579765</internalNodes>
      <leafValues>
        -5.5409902334213257e-01 2.5893250107765198e-01</leafValues></_>
    <_>
      <internalNodes>
        0 -1 53943 -739510838 290511582 275974218 939004698 270458104
        -5756535 1912458379 1321718675</internalNodes>
      <leafValues>
        -4.2206296324729919e-01 3.1101000308990479e-01</leafValues></_>
    <_>
      <internalNodes>
        0 -1 48868 -941642845 685689815 -515911933 -1599640145 108485159
        -8922281 1214935503 -727547409</internalNodes>
      <leafValues>
        -4.1196030378341675e-01 3.2567533850669861e-01</leafValues></_>
    <_>
      <internalNodes>
        0 -1 5824 991649014 -1887739744 964365943 -268934172 2136945412
        -1153881971 2124969404 1517777350</internalNodes>
      <leafValues>
        -4.7649171948432922e-01 2.9960638284683228e-01</leafValues></_>
    <_>
      <internalNodes>
        0 -1 3546 -49522212 -715849467 289682368 -4894239 1228675582
        446642493 -1448215738 930299700</internalNodes>
      <leafValues>
        -4.9145981669425964e-01 2.7817064523696899e-01</leafValues></_>
    <_>
      <internalNodes>
        0 -1 63726 -69338283 -221838389 -392681292 2026558010 -124537437
        -176019127 -1432100136 1881358329</internalNodes>
      <leafValues>
        -4.2159560322761536e-01 3.3315554261207581e-01</leafValues></_>
    <_>
      <internalNodes>
        0 -1 67484 -3178917 -631800947 1614194421 1181365287 -484027380
        -852799482 -598807500 -1070667809</internalNodes>
      <leafValues>
        -3.7383294105529785e-01 3.7158006429672241e-01</leafValues></_>
    <_>
      <internalNodes>
        0 -1 60760 -2018001015 171684827 1561679136 -1389316361
        832223470 -1563729731 -741366332 -587549447</internalNodes>
      <leafValues>
        -3.9925700426101685e-01 3.6038178205490112e-01</leafValues></_>
    <_>
      <internalNodes>
        0 -1 34219 1819324215 -234696080 -421069729 1444452176
        1081756132 1487929488 -51621921 1856198451</internalNodes>
      <leafValues>
        -4.3836480379104614e-01 3.0745118856430054e-01</leafValues></_>
    <_>
      <internalNodes>
        0 -1 50584 239037447 731076025 -213656961 -121711909 -194284809
        -408332109 -1290308988 -19377164</internalNodes>
      <leafValues>
        -4.4612571597099304e-01 3.0731412768363953e-01</leafValues></_>
    <_>
      <internalNodes>
        0 -1 49057 -1002715990 -38734000 -1197844932 -1078134495 8126712
        2050031040 1611139818 975919417</internalNodes>
      <leafValues>
        -4.9024531245231628e-01 2.8512185811996460e-01</leafValues></_></weakClassifiers></stage7>
</opencv_storage>
