<?xml version="1.0"?>
<opencv_storage>
<stage7>
  <maxWeakCount>30</maxWeakCount>
  <stageThreshold>-8.8298630714416504e-01</stageThreshold>
  <weakClassifiers>
    <_>
      <internalNodes>
        0 -1 46772 -229392585 -797200013 -1224392866 -275826653
        -1797023339 -134223655 -57689905 -84943105</internalNodes>
      <leafValues>
        -3.1203931570053101e-01 2.9032257199287415e-01</leafValues></_>
    <_>
      <internalNodes>
        0 -1 2949 1818372320 1949311922 -310317430 -903290144 2064392148
        532644278 -254064116 -962589074</internalNodes>
      <leafValues>
        -4.0180251002311707e-01 1.3977390527725220e-01</leafValues></_>
    <_>
      <internalNodes>
        0 -1 42558 1064681407 -302670218 2129948668 -421274509
        -546767439 -541133068 -51609868 1598147774</internalNodes>
      <leafValues>
        -2.2843018174171448e-01 2.5490227341651917e-01</leafValues></_>
    <_>
      <internalNodes>
        0 -1 50863 579339826 -1983355918 -670702093 750552212
        -1977396985 -74959708 -1550959276 -321869228</internalNodes>
      <leafValues>
        -4.1206797957420349e-01 1.4500327408313751e-01</leafValues></_>
    <_>
      <internalNodes>
        0 -1 67435 -747767822 -803327988 1786805949 1358479504
        -209340368 -758732796 -2071596018 564848874</internalNodes>
      <leafValues>
        -2.6247054338455200e-01 2.2883166372776031e-01</leafValues></_>
    <_>
      <internalNodes>
        0 -1 48709 -2103958217 -1660750589 -1207580337 -1348349565
        1477828689 -542830381 -323808005 776660496</internalNodes>
      <leafValues>
        -2.7891850471496582e-01 2.4801935255527496e-01</leafValues></_>
    <_>
      <internalNodes>
        0 -1 45519 1846017520 -676271824 -1753162320 -1693306367
        -1203657987 -1127473232 1841405864 -1937145720</internalNodes>
      <leafValues>
        -3.1850317120552063e-01 2.0517091453075409e-01</leafValues></_>
    <_>
      <internalNodes>
        0 -1 41056 -884085465 -231030795 773897782 1799174449 1878090808
        2079424092 -296331625 584547222</internalNodes>
      <leafValues>
        -2.4864241480827332e-01 2.7626836299896240e-01</leafValues></_>
    <_>
      <internalNodes>
        0 -1 61596 1408754688 -971707591 1089554628 818948460 -381291456
        -2117957168 -281797952 15001440</internalNodes>
      <leafValues>
        -5.2678155899047852e-01 1.0882672667503357e-01</leafValues></_>
    <_>
      <internalNodes>
        0 -1 52408 1911840 -2045103052 1538365012 -1439689825 1402610468
        -106297267 -371367851 1781571877</internalNodes>
      <leafValues>
        -5.1276338100433350e-01 1.2225244939327240e-01</leafValues></_>
    <_>
      <internalNodes>
        0 -1 44855 1479926146 916586127 -1107722644 997538926
        -1113913877 -9424975 -1650388062 1430229023</internalNodes>
      <leafValues>
        -2.3792289197444916e-01 2.8043714165687561e-01</leafValues></_>
    <_>
      <internalNodes>
        0 -1 34115 1069459448 2043339305 488988169 1110456488 966802146
        1798851003 -1244760016 -114551644</internalNodes>
      <leafValues>
        -3.2015049457550049e-01 2.2806839644908905e-01</leafValues></_>
    <_>
      <internalNodes>
        0 -1 67106 -154505 -371634434 -2080592352 1361673394 -7870982
        -2081621580 2065229244 -1249142785</internalNodes>
      <leafValues>
        -2.0325046777725220e-01 3.6918383836746216e-01</leafValues></_>
    <_>
      <internalNodes>
        0 -1 21305 2052433707 468253735 -1594331270 939097791 1700560597
        249397217 -2132707861 1052239702</internalNodes>
      <leafValues>
        -2.1600595116615295e-01 3.2543930411338806e-01</leafValues></_>
    <_>
      <internalNodes>
        0 -1 45788 1288175189 1951956215 -65802988 1691653596 -654209222
        -224912768 -1779561316 578883328</internalNodes>
      <leafValues>
        -3.2095217704772949e-01 2.1475316584110260e-01</leafValues></_>
    <_>
      <internalNodes>
        0 -1 8579 -1514862734 -924749448 -1055908532 -253430812
        -269434016 -1698627076 1649987328 579166226</internalNodes>
      <leafValues>
        -4.7349473834037781e-01 1.4924862980842590e-01</leafValues></_>
    <_>
      <internalNodes>
        0 -1 23643 352743082 1179467791 -2028012527 2098668461
        1006829904 -1028553824 138524211 1248366825</internalNodes>
      <leafValues>
        -3.4987413883209229e-01 2.0042662322521210e-01</leafValues></_>
    <_>
      <internalNodes>
        0 -1 47007 -2103259373 1753399242 -901728930 -661368117
        1157660069 1921882610 1205945856 375280064</internalNodes>
      <leafValues>
        -4.0793028473854065e-01 1.7956407368183136e-01</leafValues></_>
    <_>
      <internalNodes>
        0 -1 66503 -994319683 -2128644860 -766309291 1952981983
        -490229403 2034721031 -120940436 1880201631</internalNodes>
      <leafValues>
        -2.7378135919570923e-01 2.7453488111495972e-01</leafValues></_>
    <_>
      <internalNodes>
        0 -1 3367 104892153 621175240 -1826908401 -196425243 643392760
        1452743410 59479501 186606809</internalNodes>
      <leafValues>
        -2.9950812458992004e-01 2.4542111158370972e-01</leafValues></_>
    <_>
      <internalNodes>
        0 -1 67413 -738213967 -1110528273 -1728157012 -261001494
        2011099033 -1478560028 -926092234 -511043896</internalNodes>
      <leafValues>
        -2.5764524936676025e-01 2.8753349184989929e-01</leafValues></_>
    <_>
      <internalNodes>
        0 -1 55227 1725654915 813001042 -1115563931 663536052 428809237
        -1467772517 -442310918 448294946</internalNodes>
      <leafValues>
        -2.8824275732040405e-01 2.7025356888771057e-01</leafValues></_>
    <_>
      <internalNodes>
        0 -1 6760 -1072717423 -844026657 1084512296 1380718734
        -516571066 2017112256 -246488171 100858255</internalNodes>
      <leafValues>
        -3.4059911966323853e-01 2.1594282984733582e-01</leafValues></_>
    <_>
      <internalNodes>
        0 -1 12964 -1840427055 1497835824 481773313 -51041190 1989264633
        -143294699 868009417 1867484159</internalNodes>
      <leafValues>
        -2.2936287522315979e-01 3.2058891654014587e-01</leafValues></_>
    <_>
      <internalNodes>
        0 -1 62425 777154355 171039355 -375514949 -1669225836 -64204544
        1685553238 564247521 1980135558</internalNodes>
      <leafValues>
        -3.7673437595367432e-01 2.0741049945354462e-01</leafValues></_>
    <_>
      <internalNodes>
        0 -1 3185 -979242439 -469818327 -293624388 -695525653
        -1342186999 1679777548 632875501 -35950625</internalNodes>
      <leafValues>
        -2.2066843509674072e-01 3.6035394668579102e-01</leafValues></_>
    <_>
      <internalNodes>
        0 -1 50730 260315138 712172184 -2146393892 776483733 -235003291
        -1593139198 -1079377157 -1462492655</internalNodes>
      <leafValues>
        -4.6358361840248108e-01 1.7198643088340759e-01</leafValues></_>
    <_>
      <internalNodes>
        0 -1 34502 -1048583191 -1648844236 1411121162 354015774
        1914710422 -1432314331 1994247995 258883749</internalNodes>
      <leafValues>
        -2.9184347391128540e-01 2.6909843087196350e-01</leafValues></_>
    <_>
      <internalNodes>
        0 -1 31 214607450 1145565203 -2070822624 -1088974206 -1039737932
        142607106 -929938028 11886660</internalNodes>
      <leafValues>
        -4.6736949682235718e-01 1.6503165662288666e-01</leafValues></_>
    <_>
      <internalNodes>
        0 -1 494 -552075341 -555278340 -287447498 -725897602 -1627455605
        -933300241 1440522382 -403202577</internalNodes>
      <leafValues>
        -1.7798021435737610e-01 4.6973812580108643e-01</leafValues></_></weakClassifiers></stage7>
</opencv_storage>
