<?xml version="1.0"?>
<opencv_storage>
<stage3>
  <maxWeakCount>28</maxWeakCount>
  <stageThreshold>-1.2717487812042236e+00</stageThreshold>
  <weakClassifiers>
    <_>
      <internalNodes>
        0 -1 2668 1146482372 -673659005 1213219454 -835680674 1622973164
        966005144 1627187898 -192647602</internalNodes>
      <leafValues>
        -5.3383457660675049e-01 2.1630614995956421e-02</leafValues></_>
    <_>
      <internalNodes>
        0 -1 58553 -638091497 1595880269 961351507 1649558356 -80480587
        -141912947 1001389370 2120512</internalNodes>
      <leafValues>
        -3.5639250278472900e-01 2.2245582938194275e-01</leafValues></_>
    <_>
      <internalNodes>
        0 -1 30823 536686428 -1905770626 -1218890148 1590181588
        -2009942880 -48356634 -86462736 406892674</internalNodes>
      <leafValues>
        -4.7252961993217468e-01 1.6990558803081512e-01</leafValues></_>
    <_>
      <internalNodes>
        0 -1 59072 1195491240 1963304551 -478763064 1797334532 -82254460
        -578616635 -1949267568 630184387</internalNodes>
      <leafValues>
        -3.1456872820854187e-01 2.5893130898475647e-01</leafValues></_>
    <_>
      <internalNodes>
        0 -1 40694 1383834299 -1707135051 -1342457638 992836797
        108831915 -815414204 -403231313 1702284736</internalNodes>
      <leafValues>
        -2.6596838235855103e-01 3.0799627304077148e-01</leafValues></_>
    <_>
      <internalNodes>
        0 -1 2872 2105437999 -156700977 -268726290 1577772642 1686064823
        1793029939 1836992412 -76847293</internalNodes>
      <leafValues>
        -2.6936098933219910e-01 3.0191734433174133e-01</leafValues></_>
    <_>
      <internalNodes>
        0 -1 9123 1256365790 776656592 1434997633 1526780690 2079323088
        -67448692 -7572280 947943928</internalNodes>
      <leafValues>
        -4.3454173207283020e-01 1.7513589560985565e-01</leafValues></_>
    <_>
      <internalNodes>
        0 -1 18002 537690892 1791903008 -660604996 -5576120 3430878
        181977213 40998260 289755774</internalNodes>
      <leafValues>
        -4.4965267181396484e-01 1.8172220885753632e-01</leafValues></_>
    <_>
      <internalNodes>
        0 -1 0 -724741910 -139091028 -1842825536 551163599 -663196642
        67649540 1358975534 1090523838</internalNodes>
      <leafValues>
        -4.3670606613159180e-01 1.9165016710758209e-01</leafValues></_>
    <_>
      <internalNodes>
        0 -1 23203 594885397 -1803013546 231434239 887919068 697536889
        -40187238 -1361856832 1781085616</internalNodes>
      <leafValues>
        -3.8904675841331482e-01 1.9125668704509735e-01</leafValues></_>
    <_>
      <internalNodes>
        0 -1 33052 195841676 1568222066 -1358687139 -590328779
        -2133207629 -1453694665 268613772 311364118</internalNodes>
      <leafValues>
        -3.4732517600059509e-01 2.5637134909629822e-01</leafValues></_>
    <_>
      <internalNodes>
        0 -1 53981 -411572735 1343771131 -776154832 233299338 1704037665
        41978815 1805382016 1882847578</internalNodes>
      <leafValues>
        -3.8949647545814514e-01 1.9918495416641235e-01</leafValues></_>
    <_>
      <internalNodes>
        0 -1 56 -1541100402 -2078096439 -644824746 998906250 1745116408
        -1666424648 9537664 75845892</internalNodes>
      <leafValues>
        -5.2028167247772217e-01 1.6390398144721985e-01</leafValues></_>
    <_>
      <internalNodes>
        0 -1 2717 -1027435447 -1059491077 1279497259 -220577152
        -721391360 1932843046 1942692195 -481123802</internalNodes>
      <leafValues>
        -3.2253259420394897e-01 2.5983050465583801e-01</leafValues></_>
    <_>
      <internalNodes>
        0 -1 36394 1887415958 -596545873 -134333441 2057760681 610129567
        -445296969 -328765714 2074595067</internalNodes>
      <leafValues>
        -2.3742495477199554e-01 3.6336687207221985e-01</leafValues></_>
    <_>
      <internalNodes>
        0 -1 66315 -846270626 -1674603921 -400827940 -1333594276
        2029693855 1347592330 -773054056 1074542296</internalNodes>
      <leafValues>
        -4.0442284941673279e-01 2.1671193838119507e-01</leafValues></_>
    <_>
      <internalNodes>
        0 -1 61699 -176554448 1889138152 -1526644066 991174816
        2035203993 -1340620206 1004913024 -322599040</internalNodes>
      <leafValues>
        -3.9477899670600891e-01 2.3128104209899902e-01</leafValues></_>
    <_>
      <internalNodes>
        0 -1 98 -130228012 -934751204 -1918575675 -550993834 570829243
        -1773520159 -1896115244 -1929162582</internalNodes>
      <leafValues>
        -3.9160415530204773e-01 2.0792329311370850e-01</leafValues></_>
    <_>
      <internalNodes>
        0 -1 52340 -1033009405 -1740652213 -908897453 1049788162
        -259000489 2044197405 -1058276983 1845242528</internalNodes>
      <leafValues>
        -3.0311158299446106e-01 2.9315790534019470e-01</leafValues></_>
    <_>
      <internalNodes>
        0 -1 34235 1450568542 1071099903 1039990704 -538579360
        1055135728 -948637713 1148222489 523484511</internalNodes>
      <leafValues>
        -2.6311483979225159e-01 3.2950836420059204e-01</leafValues></_>
    <_>
      <internalNodes>
        0 -1 51070 76506553 848167473 -50162443 -310515692 1334864289
        -99317519 378315717 -50846732</internalNodes>
      <leafValues>
        -3.1604534387588501e-01 2.8169333934783936e-01</leafValues></_>
    <_>
      <internalNodes>
        0 -1 339 -19637300 -480702407 -359634742 2047771666 -641069024
        1522246443 -183968240 385876992</internalNodes>
      <leafValues>
        -5.0239652395248413e-01 1.8321433663368225e-01</leafValues></_>
    <_>
      <internalNodes>
        0 -1 59586 -439563775 -1298606965 -884892764 793702964 583102241
        965106082 -87734844 -1603682908</internalNodes>
      <leafValues>
        -4.0409013628959656e-01 2.2685872018337250e-01</leafValues></_>
    <_>
      <internalNodes>
        0 -1 39548 747420945 -226038595 -1408383531 -1378474863
        1766889968 -113724428 2141969279 146544992</internalNodes>
      <leafValues>
        -4.3860101699829102e-01 1.9039998948574066e-01</leafValues></_>
    <_>
      <internalNodes>
        0 -1 2203 -1429748938 -1931338918 558944857 -393448960 984060768
        -1060075253 2078890573 -800623762</internalNodes>
      <leafValues>
        -3.6283186078071594e-01 2.5710406899452209e-01</leafValues></_>
    <_>
      <internalNodes>
        0 -1 3522 2147274076 1364268776 478221212 -1460899002 1138492095
        -82702321 -1204694242 213433635</internalNodes>
      <leafValues>
        -4.1538900136947632e-01 2.2195215523242950e-01</leafValues></_>
    <_>
      <internalNodes>
        0 -1 4156 2105409331 -599770189 -537029219 -1739791 -1602306307
        -1921671848 722970205 2076938310</internalNodes>
      <leafValues>
        -2.3201575875282288e-01 4.2026406526565552e-01</leafValues></_>
    <_>
      <internalNodes>
        0 -1 58102 -933279839 333346135 -2062979696 -1537775728
        767250435 799148310 -945730272 74770981</internalNodes>
      <leafValues>
        -4.9662134051322937e-01 1.9791662693023682e-01</leafValues></_></weakClassifiers></stage3>
</opencv_storage>
