<?xml version="1.0"?>
<opencv_storage>
<stage9>
  <maxWeakCount>34</maxWeakCount>
  <stageThreshold>-9.6678495407104492e-01</stageThreshold>
  <weakClassifiers>
    <_>
      <internalNodes>
        0 -1 30810 -1652572163 -378965700 -1689058917 -539160499
        -1944455185 -104867960 -1618494565 -1154493781</internalNodes>
      <leafValues>
        -3.1179082393646240e-01 2.7906978130340576e-01</leafValues></_>
    <_>
      <internalNodes>
        0 -1 21684 1216611343 973799445 -1240167282 -1869728346
        427183346 2143071003 -234067434 -160405391</internalNodes>
      <leafValues>
        -3.3337101340293884e-01 1.5544423460960388e-01</leafValues></_>
    <_>
      <internalNodes>
        0 -1 48877 1278977922 1009165442 -577545844 1069497265
        -992312600 2065903250 742909 1586484196</internalNodes>
      <leafValues>
        -2.7771097421646118e-01 1.9559985399246216e-01</leafValues></_>
    <_>
      <internalNodes>
        0 -1 6565 -846772365 1251525859 -1632958808 2090234070 5347947
        1949769753 1575522296 2004486652</internalNodes>
      <leafValues>
        -2.8505247831344604e-01 1.9864147901535034e-01</leafValues></_>
    <_>
      <internalNodes>
        0 -1 47106 -633896155 -653464009 -1789434246 2017405280
        675694752 -645873268 -1890598698 245398443</internalNodes>
      <leafValues>
        -2.6530480384826660e-01 2.1873642504215240e-01</leafValues></_>
    <_>
      <internalNodes>
        0 -1 36633 -531715582 -1001854634 -595566022 943284624
        1327283608 225221017 1133121471 1067967109</internalNodes>
      <leafValues>
        -2.8117328882217407e-01 2.3759637773036957e-01</leafValues></_>
    <_>
      <internalNodes>
        0 -1 60555 1314055973 -1123903464 1301344272 1004726824 -1841388
        1793691008 -394876288 206979780</internalNodes>
      <leafValues>
        -4.1758400201797485e-01 1.3545508682727814e-01</leafValues></_>
    <_>
      <internalNodes>
        0 -1 3315 -2033621111 -976274014 1073425205 -104974616 664778175
        -160465026 293224208 2143690143</internalNodes>
      <leafValues>
        -2.2647522389888763e-01 2.6898133754730225e-01</leafValues></_>
    <_>
      <internalNodes>
        0 -1 50703 -1060133849 278433415 1557143523 -426930006
        1482916755 825474434 -226375520 1703843221</internalNodes>
      <leafValues>
        -3.2804781198501587e-01 1.7900417745113373e-01</leafValues></_>
    <_>
      <internalNodes>
        0 -1 52605 141176608 1033138824 1125181198 -2053619576 514195861
        -1895082307 -377394572 721166448</internalNodes>
      <leafValues>
        -4.9849921464920044e-01 1.3559032976627350e-01</leafValues></_>
    <_>
      <internalNodes>
        0 -1 40675 -519085798 -1870644980 -452836612 -1615938983
        759910613 1002686607 -1850851064 171843361</internalNodes>
      <leafValues>
        -3.5509476065635681e-01 1.7636366188526154e-01</leafValues></_>
    <_>
      <internalNodes>
        0 -1 41055 1175973121 -1873759851 1294082519 -1211484791
        -451984907 -1707707810 -1665119565 613362659</internalNodes>
      <leafValues>
        -2.6501563191413879e-01 2.3644512891769409e-01</leafValues></_>
    <_>
      <internalNodes>
        0 -1 45542 1487836593 448819160 -1887485973 1032716214 678393307
        -1411580930 1756866009 448746959</internalNodes>
      <leafValues>
        -2.2085542976856232e-01 3.0093139410018921e-01</leafValues></_>
    <_>
      <internalNodes>
        0 -1 26237 570861059 -2075651804 -1509652830 -1528943448 8479120
        143150233 34817975 4488789</internalNodes>
      <leafValues>
        -4.8076945543289185e-01 1.5437604486942291e-01</leafValues></_>
    <_>
      <internalNodes>
        0 -1 67118 -620893753 1035794660 -80211097 -655622524 -579863877
        -1578369042 -795298341 -1281642347</internalNodes>
      <leafValues>
        -1.8261562287807465e-01 3.7398490309715271e-01</leafValues></_>
    <_>
      <internalNodes>
        0 -1 31968 1583252439 -88084907 1844444721 360410336 1692907034
        -1095959117 1187315211 1264283495</internalNodes>
      <leafValues>
        -2.0701938867568970e-01 3.2858607172966003e-01</leafValues></_>
    <_>
      <internalNodes>
        0 -1 47277 -998256811 1470938325 -8589480 738188772 -304291916
        -143065388 2128528404 -1571076650</internalNodes>
      <leafValues>
        -2.2528038918972015e-01 2.9561612010002136e-01</leafValues></_>
    <_>
      <internalNodes>
        0 -1 62639 2081698864 -379830258 -2130311108 1057358976
        -647528652 1216492058 -1032770080 146808964</internalNodes>
      <leafValues>
        -6.3640630245208740e-01 9.5747798681259155e-02</leafValues></_>
    <_>
      <internalNodes>
        0 -1 52821 -1598608844 -112600339 -645542447 -1096834755
        59505104 -10188267 1573707578 -1467136159</internalNodes>
      <leafValues>
        -2.8911170363426208e-01 2.3477125167846680e-01</leafValues></_>
    <_>
      <internalNodes>
        0 -1 16919 399691599 266244187 587606581 -548388010 1007253520
        -662103461 1320876680 507617493</internalNodes>
      <leafValues>
        -2.7588060498237610e-01 2.5029793381690979e-01</leafValues></_>
    <_>
      <internalNodes>
        0 -1 5053 1186886600 -884604276 -792683119 1149278958 184083318
        863342610 -636673379 1087231215</internalNodes>
      <leafValues>
        -3.8339161872863770e-01 1.7177803814411163e-01</leafValues></_>
    <_>
      <internalNodes>
        0 -1 6422 -941791886 -313104295 -1878490011 1388856823
        -1820111853 -230096632 -930688531 -16860830</internalNodes>
      <leafValues>
        -2.5836622714996338e-01 2.7246844768524170e-01</leafValues></_>
    <_>
      <internalNodes>
        0 -1 44495 1440003976 138131397 48308065 -270061461 1675866469
        -777927512 1749607406 425333007</internalNodes>
      <leafValues>
        -2.9329815506935120e-01 2.4173453450202942e-01</leafValues></_>
    <_>
      <internalNodes>
        0 -1 51706 120594316 1421299947 -1366610607 408167187
        -1208770560 -1593301952 2032538464 303058560</internalNodes>
      <leafValues>
        -4.7573223710060120e-01 1.3815537095069885e-01</leafValues></_>
    <_>
      <internalNodes>
        0 -1 54328 25435265 1259496524 1082819608 1613893807 41104273
        403235202 1620032385 -53567824</internalNodes>
      <leafValues>
        -3.4796220064163208e-01 2.0162370800971985e-01</leafValues></_>
    <_>
      <internalNodes>
        0 -1 67597 -1841275376 -255451120 1916930954 641930000
        -1465470971 1073779501 -1375302784 2003797887</internalNodes>
      <leafValues>
        -3.0138093233108521e-01 2.4098549783229828e-01</leafValues></_>
    <_>
      <internalNodes>
        0 -1 67390 -440598677 -1360120257 -424898848 1640322031
        -1099498820 -2041643444 -1110507854 429627326</internalNodes>
      <leafValues>
        -2.4846099317073822e-01 3.0706241726875305e-01</leafValues></_>
    <_>
      <internalNodes>
        0 -1 11536 483796910 181799715 -2146618684 -49661905 444805492
        -2080320999 1619055545 508021</internalNodes>
      <leafValues>
        -3.7485516071319580e-01 2.0177641510963440e-01</leafValues></_>
    <_>
      <internalNodes>
        0 -1 19137 771129295 -75916052 -1225854990 -9425180 -352847139
        -1770799113 -1428250934 -1397017509</internalNodes>
      <leafValues>
        -2.1978852152824402e-01 3.5464143753051758e-01</leafValues></_>
    <_>
      <internalNodes>
        0 -1 26690 1889444398 -431568619 268571306 -598231865 1113334000
        1562040865 1578395171 851756888</internalNodes>
      <leafValues>
        -3.6562687158584595e-01 2.0820154249668121e-01</leafValues></_>
    <_>
      <internalNodes>
        0 -1 43965 70518112 69931107 -1943352880 1432905520 571343234
        -269548920 -362239368 189154082</internalNodes>
      <leafValues>
        -4.5780125260353088e-01 1.5807679295539856e-01</leafValues></_>
    <_>
      <internalNodes>
        0 -1 5908 2011205232 680274999 -1106746986 164770194 -1056750528
        -2079588084 1955471979 712855621</internalNodes>
      <leafValues>
        -3.9208605885505676e-01 1.8708844482898712e-01</leafValues></_>
    <_>
      <internalNodes>
        0 -1 24185 1375455195 -1289045768 -1099111647 -88408073
        2136799372 -1085480980 897439635 784026683</internalNodes>
      <leafValues>
        -2.2689101099967957e-01 3.4090644121170044e-01</leafValues></_>
    <_>
      <internalNodes>
        0 -1 9222 1557954596 -1588250555 -234834706 -1568439262
        1674756544 1564543911 1480616437 1833001085</internalNodes>
      <leafValues>
        -3.7025249004364014e-01 2.1482959389686584e-01</leafValues></_></weakClassifiers></stage9>
</opencv_storage>
