<?xml version="1.0"?>
<opencv_storage>
<stage11>
  <maxWeakCount>36</maxWeakCount>
  <stageThreshold>-1.0180199146270752e+00</stageThreshold>
  <weakClassifiers>
    <_>
      <internalNodes>
        0 -1 17231 1772044151 -1076004401 -1677321923 -54434923
        -2102156140 -1697082462 50057394 -119586173</internalNodes>
      <leafValues>
        -3.6290082335472107e-01 1.2687914073467255e-01</leafValues></_>
    <_>
      <internalNodes>
        0 -1 42961 -512848127 -1734920678 1729217628 -1316004818
        -989025920 -642260785 -1597957564 620524772</internalNodes>
      <leafValues>
        -3.3099880814552307e-01 1.5932583808898926e-01</leafValues></_>
    <_>
      <internalNodes>
        0 -1 16219 -122933452 -1259842936 -1165444833 1671484696
        -1931874327 -1330137005 199069556 5837052</internalNodes>
      <leafValues>
        -4.0180841088294983e-01 1.2826587259769440e-01</leafValues></_>
    <_>
      <internalNodes>
        0 -1 26665 644022576 -1908925552 1431912814 1138775928
        -1521917327 -886962002 -410335226 985774598</internalNodes>
      <leafValues>
        -3.3343005180358887e-01 1.8388375639915466e-01</leafValues></_>
    <_>
      <internalNodes>
        0 -1 2561 -304706885 1213256558 -988248661 -364106300 76073528
        689205787 1689465284 1269233398</internalNodes>
      <leafValues>
        -3.0209633708000183e-01 1.9084230065345764e-01</leafValues></_>
    <_>
      <internalNodes>
        0 -1 24667 -1602613228 -1492450728 -2117961315 1924436506
        329019962 -1279442655 1057285072 1874740052</internalNodes>
      <leafValues>
        -3.6340162158012390e-01 1.4326813817024231e-01</leafValues></_>
    <_>
      <internalNodes>
        0 -1 33139 -1361617497 -2016350358 133806605 -54247683 56606125
        -289644562 173719279 -614475046</internalNodes>
      <leafValues>
        -1.6125006973743439e-01 3.5789370536804199e-01</leafValues></_>
    <_>
      <internalNodes>
        0 -1 169 2094875848 -1295822107 -2045527526 -905424402
        -804603334 -261619646 1369764378 39353791</internalNodes>
      <leafValues>
        -3.8114446401596069e-01 1.5535300970077515e-01</leafValues></_>
    <_>
      <internalNodes>
        0 -1 54012 -964696295 -30363661 -536873513 -1079584528
        -1667347206 -285704558 -1443002922 702502386</internalNodes>
      <leafValues>
        -2.1123979985713959e-01 2.8521075844764709e-01</leafValues></_>
    <_>
      <internalNodes>
        0 -1 66833 -606208373 -578006338 1380631184 1354195256
        -1734285392 -1036450747 -844303460 397023132</internalNodes>
      <leafValues>
        -2.4718649685382843e-01 2.4039340019226074e-01</leafValues></_>
    <_>
      <internalNodes>
        0 -1 67106 -142674364 2129089221 1015339778 1104865430
        -775382537 -2066494708 1259501844 562793468</internalNodes>
      <leafValues>
        -2.9809796810150146e-01 2.0264585316181183e-01</leafValues></_>
    <_>
      <internalNodes>
        0 -1 44947 266285900 -556863683 -1088512039 -95748243 1605320634
        -1742962746 1895084843 1406791863</internalNodes>
      <leafValues>
        -2.2885176539421082e-01 2.8073626756668091e-01</leafValues></_>
    <_>
      <internalNodes>
        0 -1 67425 -37889581 -1826631032 1631781290 -1205929892
        -2113800139 839795784 -167466463 -532628968</internalNodes>
      <leafValues>
        -3.0054861307144165e-01 2.0994760096073151e-01</leafValues></_>
    <_>
      <internalNodes>
        0 -1 14910 -1241735201 -1512752928 -1073742505 -742136099
        -197533070 -1076535733 -17315863 1342635219</internalNodes>
      <leafValues>
        -1.9670133292675018e-01 3.4175065159797668e-01</leafValues></_>
    <_>
      <internalNodes>
        0 -1 32218 -471797859 511241783 -536986066 461233629 389846754
        -217163 -1627797894 992862849</internalNodes>
      <leafValues>
        -2.2552919387817383e-01 3.0205178260803223e-01</leafValues></_>
    <_>
      <internalNodes>
        0 -1 50631 1498742368 -49224152 -616403200 505232160 1107841712
        1306632744 688471264 203485636</internalNodes>
      <leafValues>
        -6.0237950086593628e-01 1.0896275937557220e-01</leafValues></_>
    <_>
      <internalNodes>
        0 -1 67339 -931998552 1972339984 -738063087 1557688568
        1220071958 -2130468781 -1551000976 1523314783</internalNodes>
      <leafValues>
        -2.8291645646095276e-01 2.3880715668201447e-01</leafValues></_>
    <_>
      <internalNodes>
        0 -1 52326 -907736060 -1193211588 -335423275 -1375267001
        -1606054892 -644990803 -104310748 45962613</internalNodes>
      <leafValues>
        -3.7690395116806030e-01 1.7343755066394806e-01</leafValues></_>
    <_>
      <internalNodes>
        0 -1 54253 199968768 235018030 -2145451599 -1076833333 722544897
        1538924935 865308528 171742784</internalNodes>
      <leafValues>
        -4.5265471935272217e-01 1.5220840275287628e-01</leafValues></_>
    <_>
      <internalNodes>
        0 -1 31598 -326685946 1854047443 -1772563403 -365786484
        1861287159 -259784494 1023230609 1059988167</internalNodes>
      <leafValues>
        -3.1200811266899109e-01 2.1803361177444458e-01</leafValues></_>
    <_>
      <internalNodes>
        0 -1 42077 -1515264352 34829078 -1593662583 -2116531533
        588297201 2117706410 -1017859544 1397969935</internalNodes>
      <leafValues>
        -3.3961740136146545e-01 2.0469072461128235e-01</leafValues></_>
    <_>
      <internalNodes>
        0 -1 210 876527071 -813891930 -1073873164 -1346701206 1844831680
        -808140929 1056437974 -86817737</internalNodes>
      <leafValues>
        -2.4174779653549194e-01 2.9589933156967163e-01</leafValues></_>
    <_>
      <internalNodes>
        0 -1 38136 1049496626 -1866837333 -669527947 211194100
        1755794232 -359431523 1971677747 216272724</internalNodes>
      <leafValues>
        -4.6260258555412292e-01 1.5713809430599213e-01</leafValues></_>
    <_>
      <internalNodes>
        0 -1 67570 -110459137 -978867486 1813798422 -135545634 658308991
        -907119243 -1162551312 -1611667154</internalNodes>
      <leafValues>
        -1.8824182450771332e-01 3.7527191638946533e-01</leafValues></_>
    <_>
      <internalNodes>
        0 -1 42320 1784325936 246499164 587611407 1590642221 -1450200576
        -1450556797 1602840819 168194080</internalNodes>
      <leafValues>
        -3.9313706755638123e-01 1.7284357547760010e-01</leafValues></_>
    <_>
      <internalNodes>
        0 -1 8793 -1876162243 -1903521339 1075564585 1314710084
        2131974640 -2067650286 -690462115 275015085</internalNodes>
      <leafValues>
        -3.8524937629699707e-01 1.7745211720466614e-01</leafValues></_>
    <_>
      <internalNodes>
        0 -1 31950 -972412406 1412738578 -768583359 1058533380
        1012762014 1549026106 1734095335 309819862</internalNodes>
      <leafValues>
        -3.3892926573753357e-01 2.0925651490688324e-01</leafValues></_>
    <_>
      <internalNodes>
        0 -1 43550 -232261353 -245272925 -822233699 832411597 209243647
        -1695090759 1996119471 784286799</internalNodes>
      <leafValues>
        -1.7170304059982300e-01 4.3714925646781921e-01</leafValues></_>
    <_>
      <internalNodes>
        0 -1 30934 968322574 16564529 -1610146855 -761000843 408882262
        -707114268 -364213477 -1013506095</internalNodes>
      <leafValues>
        -2.8055903315544128e-01 2.5887072086334229e-01</leafValues></_>
    <_>
      <internalNodes>
        0 -1 9868 -164209341 -2025127347 59961729 848775006 -86859929
        1734420853 -966487913 861909916</internalNodes>
      <leafValues>
        -2.8317391872406006e-01 2.7686128020286560e-01</leafValues></_>
    <_>
      <internalNodes>
        0 -1 67142 -1000580670 -458712870 -968610082 -1806057020
        625305890 -1517598300 -1051086700 1100005576</internalNodes>
      <leafValues>
        -3.9739352464675903e-01 1.9118420779705048e-01</leafValues></_>
    <_>
      <internalNodes>
        0 -1 67474 -32519562 -1109890998 -555026910 1894493910 -1200598
        -663835014 -853148420 -442652243</internalNodes>
      <leafValues>
        -2.3258067667484283e-01 3.1695985794067383e-01</leafValues></_>
    <_>
      <internalNodes>
        0 -1 35719 425381124 327822664 -654067672 1326580529 134959196
        -1736290263 171594250 56785004</internalNodes>
      <leafValues>
        -4.5765620470046997e-01 1.6489341855049133e-01</leafValues></_>
    <_>
      <internalNodes>
        0 -1 45691 -1128246959 269914668 1494040983 220643447
        -1861729624 909361439 -107939103 797591592</internalNodes>
      <leafValues>
        -3.6177670955657959e-01 1.9919358193874359e-01</leafValues></_>
    <_>
      <internalNodes>
        0 -1 16160 475543001 -1730637361 33667998 245428315 -1156326699
        -83357695 97464785 -1399773611</internalNodes>
      <leafValues>
        -3.1925472617149353e-01 2.3062743246555328e-01</leafValues></_>
    <_>
      <internalNodes>
        0 -1 58145 324985512 1427956933 -1595782620 644129940
        -1411653056 1853939893 1803712352 1412314819</internalNodes>
      <leafValues>
        -4.3441316485404968e-01 1.7029437422752380e-01</leafValues></_></weakClassifiers></stage11>
</opencv_storage>
