<?xml version="1.0"?>
<opencv_storage>
<stage12>
  <maxWeakCount>38</maxWeakCount>
  <stageThreshold>-8.8600361347198486e-01</stageThreshold>
  <weakClassifiers>
    <_>
      <internalNodes>
        0 -1 31699 1067907067 -2282627 1276416599 -27923745 257507575
        -808089744 1164422063 -605080705</internalNodes>
      <leafValues>
        -3.2620599865913391e-01 2.1545064449310303e-01</leafValues></_>
    <_>
      <internalNodes>
        0 -1 52402 271876 -1412035316 2098152795 -33056101 282594452
        -68992875 -91106337 -50546188</internalNodes>
      <leafValues>
        -2.9429742693901062e-01 1.7245338857173920e-01</leafValues></_>
    <_>
      <internalNodes>
        0 -1 39216 -1069289595 870091316 -754785100 951251790 -188469135
        -1663978751 -1174008401 773485605</internalNodes>
      <leafValues>
        -2.8156605362892151e-01 1.8306556344032288e-01</leafValues></_>
    <_>
      <internalNodes>
        0 -1 57969 1771507537 -1271487661 465624723 734081813 833344081
        -1272856443 -145227487 436211316</internalNodes>
      <leafValues>
        -3.4797245264053345e-01 1.4944325387477875e-01</leafValues></_>
    <_>
      <internalNodes>
        0 -1 50648 -905977937 292894646 -16811355 1744828853 -1930063802
        -1925730575 1072790602 1002395099</internalNodes>
      <leafValues>
        -1.3290512561798096e-01 3.6971658468246460e-01</leafValues></_>
    <_>
      <internalNodes>
        0 -1 66325 -783026560 491160077 -1048215551 -1325119360
        -192728576 1116065924 -528158144 540211216</internalNodes>
      <leafValues>
        -4.3012276291847229e-01 1.3241472840309143e-01</leafValues></_>
    <_>
      <internalNodes>
        0 -1 1553 1189589484 -725645750 -2076143052 534833736 692787793
        -1205658895 1138482304 1371589166</internalNodes>
      <leafValues>
        -3.6124005913734436e-01 1.6137078404426575e-01</leafValues></_>
    <_>
      <internalNodes>
        0 -1 49069 1517270951 2142042807 1065328065 698479909 -403326277
        -76169270 -520227074 1268775419</internalNodes>
      <leafValues>
        -1.6135744750499725e-01 3.6273285746574402e-01</leafValues></_>
    <_>
      <internalNodes>
        0 -1 67073 -1300308641 -407658641 1256636088 -1885798833
        -1681409721 209509682 1001717476 -1147224403</internalNodes>
      <leafValues>
        -2.2291390597820282e-01 2.6425182819366455e-01</leafValues></_>
    <_>
      <internalNodes>
        0 -1 49905 92201864 1913852625 -1609535408 -587090829 -800142326
        -1474887264 -1031245614 394911419</internalNodes>
      <leafValues>
        -2.4561996757984161e-01 2.4354685842990875e-01</leafValues></_>
    <_>
      <internalNodes>
        0 -1 25814 712519488 -915269304 -1927970506 -899242352 255991024
        -862410000 -2129674912 269222800</internalNodes>
      <leafValues>
        -5.1958280801773071e-01 1.1517027020454407e-01</leafValues></_>
    <_>
      <internalNodes>
        0 -1 15481 1889431514 143771677 -1543075804 -1684675980
        2041024996 -1000832968 -923207065 994196102</internalNodes>
      <leafValues>
        -3.2557502388954163e-01 1.7595700919628143e-01</leafValues></_>
    <_>
      <internalNodes>
        0 -1 888 -554987277 -149836684 -1350746632 -98836150 -1610741915
        -1453428875 -1904239282 1829201375</internalNodes>
      <leafValues>
        -1.8818685412406921e-01 3.2770267128944397e-01</leafValues></_>
    <_>
      <internalNodes>
        0 -1 52269 299231104 -1197744632 -1328443403 -1328160578
        -635571387 884065077 -497391040 599118672</internalNodes>
      <leafValues>
        -4.0888696908950806e-01 1.4278516173362732e-01</leafValues></_>
    <_>
      <internalNodes>
        0 -1 169 1855743080 2050314895 -2113021431 1514489166
        -1416696316 -43497982 -985111846 299417818</internalNodes>
      <leafValues>
        -3.2198652625083923e-01 2.0429374277591705e-01</leafValues></_>
    <_>
      <internalNodes>
        0 -1 42987 -1744855405 1826664178 -1075119243 -389170445
        1580457903 -434841758 -414312049 -1086466340</internalNodes>
      <leafValues>
        -1.8690016865730286e-01 3.5745966434478760e-01</leafValues></_>
    <_>
      <internalNodes>
        0 -1 39026 -389488021 407684882 923138728 -1231808751 681619588
        2014529665 -1308270877 67140534</internalNodes>
      <leafValues>
        -3.5588344931602478e-01 1.8828387558460236e-01</leafValues></_>
    <_>
      <internalNodes>
        0 -1 6696 691458480 -2092099320 59317614 77646234 -220810680
        252385377 30951672 2135544318</internalNodes>
      <leafValues>
        -3.1296023726463318e-01 2.0403859019279480e-01</leafValues></_>
    <_>
      <internalNodes>
        0 -1 57070 580518663 988517785 -880544357 -1534582378 1317841568
        -901979893 -170929416 -1132551584</internalNodes>
      <leafValues>
        -2.9971987009048462e-01 2.2542420029640198e-01</leafValues></_>
    <_>
      <internalNodes>
        0 -1 41240 68290736 -1369827254 -1334234027 1015447580
        1117799175 -644740172 906888791 -1098211292</internalNodes>
      <leafValues>
        -4.0593555569648743e-01 1.5562506020069122e-01</leafValues></_>
    <_>
      <internalNodes>
        0 -1 40836 -211836425 -841992097 -1090682890 -164123545
        583787626 -1160384547 1718918617 -212226065</internalNodes>
      <leafValues>
        -1.5799146890640259e-01 4.2282795906066895e-01</leafValues></_>
    <_>
      <internalNodes>
        0 -1 67340 -1038227262 -513792316 109228680 -533854768 -22611448
        -870316007 1196683797 51187219</internalNodes>
      <leafValues>
        -3.7710040807723999e-01 1.7612497508525848e-01</leafValues></_>
    <_>
      <internalNodes>
        0 -1 42473 2092363701 1583375742 511413620 460240431 324893867
        -958791851 706363028 504225763</internalNodes>
      <leafValues>
        -2.4940919876098633e-01 2.6895692944526672e-01</leafValues></_>
    <_>
      <internalNodes>
        0 -1 63010 2033734455 -1074103174 -828413449 1435598578
        -537591874 -19030162 -924013349 -2088034305</internalNodes>
      <leafValues>
        -1.4601355791091919e-01 4.6877747774124146e-01</leafValues></_>
    <_>
      <internalNodes>
        0 -1 13148 -701059224 2017711393 -915346764 -1246713534
        -833617473 168905009 -1840035630 839918608</internalNodes>
      <leafValues>
        -4.3572953343391418e-01 1.4972038567066193e-01</leafValues></_>
    <_>
      <internalNodes>
        0 -1 31815 -995054041 152615653 -267563888 -1160854387 114371537
        -1177284196 -1290914230 1058694981</internalNodes>
      <leafValues>
        -3.2320591807365417e-01 2.1299712359905243e-01</leafValues></_>
    <_>
      <internalNodes>
        0 -1 47439 1226081938 284472084 -1823617754 -1400234347
        1619800801 771627739 -1142750798 208025668</internalNodes>
      <leafValues>
        -4.0315300226211548e-01 1.7475315928459167e-01</leafValues></_>
    <_>
      <internalNodes>
        0 -1 9700 -683842185 -597334039 -2067857465 476700514 -475988488
        976215924 1050301662 -85504537</internalNodes>
      <leafValues>
        -2.1648661792278290e-01 3.3213496208190918e-01</leafValues></_>
    <_>
      <internalNodes>
        0 -1 52276 -2038493692 255473614 -1874833195 -1475016686
        293757589 1452998837 -1113857376 677425696</internalNodes>
      <leafValues>
        -5.0282675027847290e-01 1.5730781853199005e-01</leafValues></_>
    <_>
      <internalNodes>
        0 -1 19952 854816717 1502854895 -285264657 -1652165393
        1599981556 -1132593925 -285700773 -988811513</internalNodes>
      <leafValues>
        -1.9265165925025940e-01 3.9168933033943176e-01</leafValues></_>
    <_>
      <internalNodes>
        0 -1 16135 -1493634981 2145918908 1056880573 1601224619
        1862199036 -445939843 708607367 -1119382297</internalNodes>
      <leafValues>
        -2.1096819639205933e-01 3.3947348594665527e-01</leafValues></_>
    <_>
      <internalNodes>
        0 -1 8764 -1621816243 1733589202 671289822 568727768 379318362
        848497040 858500177 313547012</internalNodes>
      <leafValues>
        -3.8182514905929565e-01 1.8869377672672272e-01</leafValues></_>
    <_>
      <internalNodes>
        0 -1 23547 1063765687 -59298254 -16795987 -584391093 611687789
        1149074423 -1729342193 1397718682</internalNodes>
      <leafValues>
        -2.3837307095527649e-01 3.0301699042320251e-01</leafValues></_>
    <_>
      <internalNodes>
        0 -1 37089 -724897648 -1785665791 -682616334 21534849 -919854944
        2053925033 1628129821 1812464387</internalNodes>
      <leafValues>
        -3.2139280438423157e-01 2.2870141267776489e-01</leafValues></_>
    <_>
      <internalNodes>
        0 -1 3354 -301176148 1229865469 1394168148 1867530319 1514183677
        -1119171902 4167896 994643261</internalNodes>
      <leafValues>
        -3.3246469497680664e-01 2.2553363442420959e-01</leafValues></_>
    <_>
      <internalNodes>
        0 -1 35887 679781923 -2064092521 -2130569261 1707952880
        -735360430 -1290106722 516555255 138444613</internalNodes>
      <leafValues>
        -4.0271472930908203e-01 1.8134433031082153e-01</leafValues></_>
    <_>
      <internalNodes>
        0 -1 23371 923168245 1173756810 -1687503607 -1872641934
        -341639824 -564622036 1078474296 -1635909085</internalNodes>
      <leafValues>
        -2.6767736673355103e-01 2.6748257875442505e-01</leafValues></_>
    <_>
      <internalNodes>
        0 -1 67582 -1475461377 637599152 -88296642 -1668502554
        1072234109 -1770197961 2132606916 -1894797320</internalNodes>
      <leafValues>
        -2.7232256531715393e-01 2.8269147872924805e-01</leafValues></_></weakClassifiers></stage12>
</opencv_storage>
