<?xml version="1.0"?>
<opencv_storage>
<cascade>
  <stageType>BOOST</stageType>
  <featureType>LBP</featureType>
  <height>40</height>
  <width>40</width>
  <stageParams>
    <boostType>GAB</boostType>
    <minHitRate>9.9900001287460327e-01</minHitRate>
    <maxFalseAlarm>3.0000001192092896e-01</maxFalseAlarm>
    <weightTrimRate>9.4999999999999996e-01</weightTrimRate>
    <maxDepth>1</maxDepth>
    <maxWeakCount>100</maxWeakCount></stageParams>
  <featureParams>
    <maxCatCount>256</maxCatCount>
    <featSize>1</featSize></featureParams>
  <stageNum>20</stageNum>
  <stages>
    <!-- stage 0 -->
    <_>
      <maxWeakCount>7</maxWeakCount>
      <stageThreshold>-4.6171808242797852e-01</stageThreshold>
      <weakClassifiers>
        <_>
          <internalNodes>
            0 -1 36 -117784840 -1073926494 285015248 1375682291
            -1359073288 788475440 -1896304133 177834634</internalNodes>
          <leafValues>
            -3.1777626276016235e-01 7.8600090742111206e-01</leafValues></_>
        <_>
          <internalNodes>
            0 -1 99 139448 -1693379453 16777553 822413345 -2147376984
            -1979383680 -939489061 136413391</internalNodes>
          <leafValues>
            -5.4086476564407349e-01 6.3400506973266602e-01</leafValues></_>
        <_>
          <internalNodes>
            0 -1 37 -631536902 -788168192 268451891 318767112
            -1056304662 -1191149536 -259421989 1497714758</internalNodes>
          <leafValues>
            -5.8006274700164795e-01 5.6512355804443359e-01</leafValues></_>
        <_>
          <internalNodes>
            0 -1 104 -803040046 -1621000688 75236757 1428755829
            -2043641620 -1135576224 136380795 253299503</internalNodes>
          <leafValues>
            -5.3334379196166992e-01 6.2681794166564941e-01</leafValues></_>
        <_>
          <internalNodes>
            0 -1 173 -708594940 1459720218 67117320 84267024 -1876393720
            -1744304118 554297384 -1604335218</internalNodes>
          <leafValues>
            -6.4858418703079224e-01 5.0911468267440796e-01</leafValues></_>
        <_>
          <internalNodes>
            0 -1 18 1678737934 -166723584 272629795 -767423992
            1343389953 -2004875136 1082196207 -29208037</internalNodes>
          <leafValues>
            -5.9388202428817749e-01 5.4821091890335083e-01</leafValues></_>
        <_>
          <internalNodes>
            0 -1 126 -2121693729 1300824577 16814167 1392508930
            -1970763104 -1426061280 -1995831286 1565704402</internalNodes>
          <leafValues>
            -6.3273364305496216e-01 5.0692564249038696e-01</leafValues></_></weakClassifiers></_>
    <!-- stage 1 -->
    <_>
      <maxWeakCount>9</maxWeakCount>
      <stageThreshold>-7.1472793817520142e-01</stageThreshold>
      <weakClassifiers>
        <_>
          <internalNodes>
            0 -1 156 -1359003867 -1367343235 -1082130561 -1397686299
            794262357 -16842883 -311277711 -323948892</internalNodes>
          <leafValues>
            -6.0879123210906982e-01 6.6451615095138550e-01</leafValues></_>
        <_>
          <internalNodes>
            0 -1 95 1356157407 2068422810 186224848 1901455452
            -630464258 -402216576 -1306144630 -1090150264</internalNodes>
          <leafValues>
            -5.6544536352157593e-01 5.5216175317764282e-01</leafValues></_>
        <_>
          <internalNodes>
            0 -1 179 -132574 -713574618 -32783 -168460427 -50546940
            2004186928 -1349718840 -1043861350</internalNodes>
          <leafValues>
            -5.0489985942840576e-01 5.9887522459030151e-01</leafValues></_>
        <_>
          <internalNodes>
            0 -1 118 -880047096 1361517829 -1810688196 1897762851
            -313143393 856769132 134402298 1604552842</internalNodes>
          <leafValues>
            -5.1206660270690918e-01 5.3772312402725220e-01</leafValues></_>
        <_>
          <internalNodes>
            0 -1 211 -1351360551 -633683924 1118859734 -425246217
            -269897123 -273234765 -103748880 -1398260844</internalNodes>
          <leafValues>
            -5.7034409046173096e-01 4.9370339512825012e-01</leafValues></_>
        <_>
          <internalNodes>
            0 -1 157 798963511 553577301 -637081099 -1214344262
            -1594803403 -618679803 -829955513 -50662128</internalNodes>
          <leafValues>
            -5.9451282024383545e-01 4.9873554706573486e-01</leafValues></_>
        <_>
          <internalNodes>
            0 -1 52 -247006468 -1784741373 134484352 -683175463
            -787223491 -1145569144 -1996431718 431073552</internalNodes>
          <leafValues>
            -6.7554628849029541e-01 4.3481311202049255e-01</leafValues></_>
        <_>
          <internalNodes>
            0 -1 120 -1074050083 -151253293 -134220289 -288063561
            -25739812 -1090527906 -1350591043 -289878640</internalNodes>
          <leafValues>
            -4.8472291231155396e-01 6.2494015693664551e-01</leafValues></_>
        <_>
          <internalNodes>
            0 -1 20 -744423723 168092450 -670955361 -528328576 25560131
            -935151463 802357380 -512236545</internalNodes>
          <leafValues>
            -5.3225845098495483e-01 5.5020296573638916e-01</leafValues></_></weakClassifiers></_>
    <!-- stage 2 -->
    <_>
      <maxWeakCount>10</maxWeakCount>
      <stageThreshold>-1.0999301671981812e+00</stageThreshold>
      <weakClassifiers>
        <_>
          <internalNodes>
            0 -1 53 201348319 -7607841 -1589388993 -170078144
            -1852057089 -1761373048 -1179404896 1095782400</internalNodes>
          <leafValues>
            -6.4054054021835327e-01 5.9932434558868408e-01</leafValues></_>
        <_>
          <internalNodes>
            0 -1 128 -1561345299 -672788545 -3199232 -233112897
            -1086324817 -1 -1912650612 -1162167542</internalNodes>
          <leafValues>
            -4.7019544243812561e-01 5.1875197887420654e-01</leafValues></_>
        <_>
          <internalNodes>
            0 -1 178 -1959805385 -131081 -1493719626 -1613545484
            -1879574849 -807403916 125130068 -67592492</internalNodes>
          <leafValues>
            -4.6882954239845276e-01 5.1823389530181885e-01</leafValues></_>
        <_>
          <internalNodes>
            0 -1 146 1607858963 282129875 -872337398 1200209932
            1368450233 -796901307 -1169961478 1355124415</internalNodes>
          <leafValues>
            -4.9950748682022095e-01 4.9589547514915466e-01</leafValues></_>
        <_>
          <internalNodes>
            0 -1 5 -9638913 -1117460532 -2012188273 -73100796 1222643198
            1753251977 -1451079510 1061253591</internalNodes>
          <leafValues>
            -5.3326666355133057e-01 5.0114411115646362e-01</leafValues></_>
        <_>
          <internalNodes>
            0 -1 97 59318175 -179996449 -1337977942 -40642038 278621840
            -2003726169 -260572325 -1739288701</internalNodes>
          <leafValues>
            -5.8048611879348755e-01 4.0864530205726624e-01</leafValues></_>
        <_>
          <internalNodes>
            0 -1 39 -530086226 -293961454 -2147364770 -58547712
            -402517857 1175158817 -654181661 -144756168</internalNodes>
          <leafValues>
            -5.9103643894195557e-01 4.3154799938201904e-01</leafValues></_>
        <_>
          <internalNodes>
            0 -1 201 -556048961 -780451811 -788502958 1882476570
            -2000441637 -1776254976 -1064576091 -352550242</internalNodes>
          <leafValues>
            -5.0979548692703247e-01 5.0586539506912231e-01</leafValues></_>
        <_>
          <internalNodes>
            0 -1 110 1806675090 2080350157 -1145045092 -180361423
            1877962686 -134251017 -541093958 522161583</internalNodes>
          <leafValues>
            -4.7931063175201416e-01 5.3272759914398193e-01</leafValues></_>
        <_>
          <internalNodes>
            0 -1 96 -24971430 -1879002816 67178771 419680597 -1448598880
            -1526726504 1036604105 457454312</internalNodes>
          <leafValues>
            -5.8851283788681030e-01 4.7171872854232788e-01</leafValues></_></weakClassifiers></_>
    <!-- stage 3 -->
    <_>
      <maxWeakCount>11</maxWeakCount>
      <stageThreshold>-7.5510042905807495e-01</stageThreshold>
      <weakClassifiers>
        <_>
          <internalNodes>
            0 -1 151 -1525338329 -363362601 722010545 -1595617968
            -1974326992 -301814445 -351329932 -527373424</internalNodes>
          <leafValues>
            -6.5054601430892944e-01 5.6129455566406250e-01</leafValues></_>
        <_>
          <internalNodes>
            0 -1 191 -405276896 1473741122 -444560256 -686450942
            -527465980 -1056107958 -897474016 -439487061</internalNodes>
          <leafValues>
            -5.4832780361175537e-01 4.4902876019477844e-01</leafValues></_>
        <_>
          <internalNodes>
            0 -1 82 299710237 -1384279743 -988973811 1580565317
            -96855680 -1996488253 -1723268341 134328497</internalNodes>
          <leafValues>
            -5.6020873785018921e-01 4.3400555849075317e-01</leafValues></_>
        <_>
          <internalNodes>
            0 -1 197 -581846945 -780697319 310473691 1914213842
            -461126625 -1459513281 -523977064 -335502678</internalNodes>
          <leafValues>
            -5.4043167829513550e-01 4.7186940908432007e-01</leafValues></_>
        <_>
          <internalNodes>
            0 -1 147 -534986581 1968130395 1211191318 -259093737
            -1587036113 -281296759 319244842 -98956992</internalNodes>
          <leafValues>
            -5.7369291782379150e-01 4.2721444368362427e-01</leafValues></_>
        <_>
          <internalNodes>
            0 -1 140 -1217168397 -195043113 -1877780961 -601130679
            -1200913687 -1310243431 -1630555428 -701744604</internalNodes>
          <leafValues>
            -5.0986492633819580e-01 4.8659458756446838e-01</leafValues></_>
        <_>
          <internalNodes>
            0 -1 112 -804728688 1432209871 1091569905 1603339089
            -1202961412 -623859804 654598599 2136021125</internalNodes>
          <leafValues>
            -6.0725426673889160e-01 3.8562771677970886e-01</leafValues></_>
        <_>
          <internalNodes>
            0 -1 186 972515479 435650366 931069744 -541065986 2113395698
            -1384653516 1962930640 -67108993</internalNodes>
          <leafValues>
            -4.4974109530448914e-01 5.3304022550582886e-01</leafValues></_>
        <_>
          <internalNodes>
            0 -1 58 -269562113 552009470 -268444040 -890966286
            -411664673 1996226559 -9765398 -405356818</internalNodes>
          <leafValues>
            -4.8418113589286804e-01 5.0804024934768677e-01</leafValues></_>
        <_>
          <internalNodes>
            0 -1 26 -539099137 -654332425 1593470957 -1935284152
            -939655225 -612368540 -948572924 -1059979324</internalNodes>
          <leafValues>
            -4.4574162364006042e-01 5.6686908006668091e-01</leafValues></_>
        <_>
          <internalNodes>
            0 -1 175 -908221686 2001094750 85000476 969106398 -776748129
            1082688512 -739641782 546272250</internalNodes>
          <leafValues>
            -5.7717579603195190e-01 4.5798617601394653e-01</leafValues></_></weakClassifiers></_>
    <!-- stage 4 -->
    <_>
      <maxWeakCount>11</maxWeakCount>
      <stageThreshold>-7.0016020536422729e-01</stageThreshold>
      <weakClassifiers>
        <_>
          <internalNodes>
            0 -1 3 -1366389110 -331218 -1363235121 -34246690 216443886
            -42696920 -1905916786 67112004</internalNodes>
          <leafValues>
            -4.6770602464675903e-01 6.1384725570678711e-01</leafValues></_>
        <_>
          <internalNodes>
            0 -1 19 22362598 -1392466550 1343799687 -36796276 402815040
            -1560278496 1076920427 2135381134</internalNodes>
          <leafValues>
            -5.6598877906799316e-01 4.0894854068756104e-01</leafValues></_>
        <_>
          <internalNodes>
            0 -1 198 -249561609 906138545 1359416692 -46673510
            -1206662989 -1694250925 847376576 -2035033839</internalNodes>
          <leafValues>
            -4.7280561923980713e-01 4.4895070791244507e-01</leafValues></_>
        <_>
          <internalNodes>
            0 -1 2 -1066232858 363874577 -385165861 -611745484
            -1979471136 -2001204534 -972439065 -1952370655</internalNodes>
          <leafValues>
            -4.6409615874290466e-01 4.7392249107360840e-01</leafValues></_>
        <_>
          <internalNodes>
            0 -1 78 -362443329 -453806129 553316207 -262733969
            -1084866667 -545358468 1847930687 -212185622</internalNodes>
          <leafValues>
            -4.1455572843551636e-01 5.4837280511856079e-01</leafValues></_>
        <_>
          <internalNodes>
            0 -1 15 -790694918 -75495976 287506721 -553457136 4498562
            1214382466 418472486 -620557790</internalNodes>
          <leafValues>
            -4.9457618594169617e-01 4.4951808452606201e-01</leafValues></_>
        <_>
          <internalNodes>
            0 -1 49 470471792 -1895562877 -620752560 -708851305
            -1047990127 -5766756 1317837599 1497064307</internalNodes>
          <leafValues>
            -5.6510955095291138e-01 4.0965980291366577e-01</leafValues></_>
        <_>
          <internalNodes>
            0 -1 136 -792476219 -191944611 -909818496 1913762195
            1393652157 709681735 319806444 1516779793</internalNodes>
          <leafValues>
            -5.7284224033355713e-01 4.1784802079200745e-01</leafValues></_>
        <_>
          <internalNodes>
            0 -1 154 1499324219 2104819711 -196620 -4194594 2142961658
            2146991224 -1187185921 2141544126</internalNodes>
          <leafValues>
            -4.5925012230873108e-01 5.4299604892730713e-01</leafValues></_>
        <_>
          <internalNodes>
            0 -1 98 961795078 459866149 -519569374 476890179 1627406494
            -769490814 -1424774494 -1286676453</internalNodes>
          <leafValues>
            -4.9537515640258789e-01 4.8094055056571960e-01</leafValues></_>
        <_>
          <internalNodes>
            0 -1 7 -856046789 -129466032 -2076133236 -562524016
            -1340882691 -1841774440 -796851744 -1088486360</internalNodes>
          <leafValues>
            -5.1618576049804688e-01 4.4619178771972656e-01</leafValues></_></weakClassifiers></_>
    <!-- stage 5 -->
    <_>
      <maxWeakCount>13</maxWeakCount>
      <stageThreshold>-7.3600465059280396e-01</stageThreshold>
      <weakClassifiers>
        <_>
          <internalNodes>
            0 -1 133 1622081711 1785466813 -1073781967 1344959795
            -41964238 -33685505 913779720 985280536</internalNodes>
          <leafValues>
            -4.6712017059326172e-01 6.0752308368682861e-01</leafValues></_>
        <_>
          <internalNodes>
            0 -1 51 -1073033490 -782286255 -531578410 -1204669798
            1426081940 1195464912 -878097717 2140291618</internalNodes>
          <leafValues>
            -5.6284493207931519e-01 4.1532328724861145e-01</leafValues></_>
        <_>
          <internalNodes>
            0 -1 13 -1570834092 -796488059 1292419543 -36574672
            1086824899 193003601 19132531 1409241457</internalNodes>
          <leafValues>
            -5.3522765636444092e-01 3.9175266027450562e-01</leafValues></_>
        <_>
          <internalNodes>
            0 -1 205 -33554561 922711854 -1426719132 1828650798
            -34212031 -1519913178 -67636640 -462422025</internalNodes>
          <leafValues>
            -4.5307493209838867e-01 5.0483739376068115e-01</leafValues></_>
        <_>
          <internalNodes>
            0 -1 139 -1918955773 -2028662650 -2070305483 411048202
            -347460541 -825653069 -626517484 -1578188356</internalNodes>
          <leafValues>
            -6.0199487209320068e-01 3.5312968492507935e-01</leafValues></_>
        <_>
          <internalNodes>
            0 -1 214 -88083725 -2040883256 -1694109105 -179256204
            -137648861 27321089 -1246875036 -1645038956</internalNodes>
          <leafValues>
            -4.8675119876861572e-01 4.4810083508491516e-01</leafValues></_>
        <_>
          <internalNodes>
            0 -1 174 1904963903 1980842391 281671955 1880256977
            2055236283 -97933308 -610612295 2111522</internalNodes>
          <leafValues>
            -5.5037015676498413e-01 4.1786104440689087e-01</leafValues></_>
        <_>
          <internalNodes>
            0 -1 176 -1994217709 -23367971 984791671 -1615044612
            595001241 -1145733379 -1284966983 -1279256</internalNodes>
          <leafValues>
            -4.3293583393096924e-01 5.5084937810897827e-01</leafValues></_>
        <_>
          <internalNodes>
            0 -1 33 -758228898 -720223400 -770140902 -618656742 19040750
            -645183488 -2033833816 -1154922893</internalNodes>
          <leafValues>
            -5.0358587503433228e-01 4.6243047714233398e-01</leafValues></_>
        <_>
          <internalNodes>
            0 -1 148 1365369571 1610076143 -1074085976 -1311258
            -799424515 1580234621 422951659 1515424511</internalNodes>
          <leafValues>
            -4.0831759572029114e-01 5.5597448348999023e-01</leafValues></_>
        <_>
          <internalNodes>
            0 -1 192 -403229897 -515406059 -1073721231 -227524197
            -525260288 -2138896380 -2138453368 -2146435926</internalNodes>
          <leafValues>
            -4.8231682181358337e-01 4.9630951881408691e-01</leafValues></_>
        <_>
          <internalNodes>
            0 -1 77 -653469578 529929538 -1862126823 -610172907
            -1342172935 -1467119600 645974175 1876435718</internalNodes>
          <leafValues>
            -4.8732873797416687e-01 5.0021171569824219e-01</leafValues></_>
        <_>
          <internalNodes>
            0 -1 34 -967082121 1653785632 18897275 -1572182642
            -225225184 -2012175336 -1434318267 -939330814</internalNodes>
          <leafValues>
            -5.4858916997909546e-01 4.4963762164115906e-01</leafValues></_></weakClassifiers></_>
    <!-- stage 6 -->
    <_>
      <maxWeakCount>11</maxWeakCount>
      <stageThreshold>-8.8228273391723633e-01</stageThreshold>
      <weakClassifiers>
        <_>
          <internalNodes>
            0 -1 122 800009007 -1363509313 -1090769094 2119459568
            -202263631 -1992687824 -869619678 274330138</internalNodes>
          <leafValues>
            -4.8331743478775024e-01 6.8162959814071655e-01</leafValues></_>
        <_>
          <internalNodes>
            0 -1 100 -2146367448 -498401257 -997945336 -1269804661
            -2012607846 -1777858502 109831599 1359530412</internalNodes>
          <leafValues>
            -5.9800487756729126e-01 4.3260627985000610e-01</leafValues></_>
        <_>
          <internalNodes>
            0 -1 60 -1726631689 -2124478442 -1858009772 303169676
            -938401692 -761265638 92840096 -1347638622</internalNodes>
          <leafValues>
            -5.5307734012603760e-01 4.0907743573188782e-01</leafValues></_>
        <_>
          <internalNodes>
            0 -1 180 -673729662 1482887194 16846928 1427980548
            1216467624 497123584 1484841352 -22957912</internalNodes>
          <leafValues>
            -5.6067895889282227e-01 4.2158994078636169e-01</leafValues></_>
        <_>
          <internalNodes>
            0 -1 80 -971368255 -96202304 472056076 -1324171240 42129552
            -553089024 47054877 1516786079</internalNodes>
          <leafValues>
            -5.0967168807983398e-01 4.3984815478324890e-01</leafValues></_>
        <_>
          <internalNodes>
            0 -1 202 -193249419 892763947 1794816702 1479603834
            2013142358 -730038474 2138494622 -1070401537</internalNodes>
          <leafValues>
            -4.6489974856376648e-01 4.8548290133476257e-01</leafValues></_>
        <_>
          <internalNodes>
            0 -1 195 -996198093 613405038 -796704461 -1370733016
            84131861 -2128410531 -896925616 -1596985373</internalNodes>
          <leafValues>
            -5.2651000022888184e-01 4.4382169842720032e-01</leafValues></_>
        <_>
          <internalNodes>
            0 -1 158 -1112574541 -394400 2004761972 -1175306391
            482197146 -1073774594 897341624 -886475311</internalNodes>
          <leafValues>
            -3.9730250835418701e-01 6.0998994112014771e-01</leafValues></_>
        <_>
          <internalNodes>
            0 -1 145 1892730026 -712970111 -2147301058 1524306088
            -1509908244 -635142144 -1606317878 781933697</internalNodes>
          <leafValues>
            -5.2733302116394043e-01 4.6711006760597229e-01</leafValues></_>
        <_>
          <internalNodes>
            0 -1 142 176636097 -1440939945 -1073625593 -1977698042
            839076368 834502915 1241625380 -18043104</internalNodes>
          <leafValues>
            -7.0199936628341675e-01 3.7294241786003113e-01</leafValues></_>
        <_>
          <internalNodes>
            0 -1 124 -179404150 1359753559 1073779908 1359646783
            -566130023 2013282693 -1019212337 2078411978</internalNodes>
          <leafValues>
            -5.5938631296157837e-01 4.3916663527488708e-01</leafValues></_></weakClassifiers></_>
    <!-- stage 7 -->
    <_>
      <maxWeakCount>9</maxWeakCount>
      <stageThreshold>-8.3444255590438843e-01</stageThreshold>
      <weakClassifiers>
        <_>
          <internalNodes>
            0 -1 10 316668 69263496 -2062957945 -1476378356 1130628
            8489034 81952 1108426821</internalNodes>
          <leafValues>
            -6.7372351884841919e-01 6.3548499345779419e-01</leafValues></_>
        <_>
          <internalNodes>
            0 -1 162 -1809660956 273705482 117453000 1932554704
            1076079338 1477312650 -637296385 441440651</internalNodes>
          <leafValues>
            -5.3629499673843384e-01 4.8885440826416016e-01</leafValues></_>
        <_>
          <internalNodes>
            0 -1 84 1372784399 1902258315 1097793 1375256587 268452239
            -1609182967 1812499115 1360053331</internalNodes>
          <leafValues>
            -5.7171720266342163e-01 4.2662703990936279e-01</leafValues></_>
        <_>
          <internalNodes>
            0 -1 177 1908217115 -1522196399 621051931 -750774013
            1606537707 -1416494942 -487812123 25544</internalNodes>
          <leafValues>
            -5.2691262960433960e-01 4.5368888974189758e-01</leafValues></_>
        <_>
          <internalNodes>
            0 -1 41 -857703213 -545359151 717647519 -234719272
            -404970290 -16890800 -550246450 1913679475</internalNodes>
          <leafValues>
            -4.8484405875205994e-01 5.1649755239486694e-01</leafValues></_>
        <_>
          <internalNodes>
            0 -1 183 -471883523 1426522371 34685601 -580431597
            -263675508 1485963776 -1576008822 -518964854</internalNodes>
          <leafValues>
            -4.7222876548767090e-01 5.3241455554962158e-01</leafValues></_>
        <_>
          <internalNodes>
            0 -1 87 -2029312975 -100367322 1275068684 -208530934
            17958150 -2001862496 1252148344 -28573612</internalNodes>
          <leafValues>
            -5.5226862430572510e-01 4.5149400830268860e-01</leafValues></_>
        <_>
          <internalNodes>
            0 -1 160 -805067757 1896677507 17416389 -127449981
            -2126380669 -788168440 -2146366769 -166584735</internalNodes>
          <leafValues>
            -5.7364016771316528e-01 4.2141813039779663e-01</leafValues></_>
        <_>
          <internalNodes>
            0 -1 70 536829943 -1937809716 1073217521 -445645333
            -34127873 -42631700 -1120405631 -48265790</internalNodes>
          <leafValues>
            -4.1815832257270813e-01 6.1508244276046753e-01</leafValues></_></weakClassifiers></_>
    <!-- stage 8 -->
    <_>
      <maxWeakCount>10</maxWeakCount>
      <stageThreshold>-1.1274343729019165e+00</stageThreshold>
      <weakClassifiers>
        <_>
          <internalNodes>
            0 -1 29 33596484 -1073217504 -1870643119 -805175296 17957088
            8913024 285352085 1074922770</internalNodes>
          <leafValues>
            -7.1331828832626343e-01 6.8656718730926514e-01</leafValues></_>
        <_>
          <internalNodes>
            0 -1 153 1375724523 1610133503 1073446392 1741553272
            212983248 1511030719 955354282 270124255</internalNodes>
          <leafValues>
            -4.6017578244209290e-01 5.7360005378723145e-01</leafValues></_>
        <_>
          <internalNodes>
            0 -1 1 -95228686 -745389678 -788496265 -683016168
            -1869053192 -913718912 -1543470839 529268773</internalNodes>
          <leafValues>
            -5.1466286182403564e-01 4.8759672045707703e-01</leafValues></_>
        <_>
          <internalNodes>
            0 -1 172 -606920156 1374748825 4215875 286998731 1940144266
            973703176 -1060573184 1996577735</internalNodes>
          <leafValues>
            -5.0519633293151855e-01 4.8751369118690491e-01</leafValues></_>
        <_>
          <internalNodes>
            0 -1 22 -406324493 -1025029758 -1047929821 -1073051565
            -1985721595 1796767788 -1803341660 -1016707225</internalNodes>
          <leafValues>
            -5.0519204139709473e-01 5.0674331188201904e-01</leafValues></_>
        <_>
          <internalNodes>
            0 -1 17 -368772705 -355580793 18944419 -721120632 33718416
            1216580616 4329504 -2121055439</internalNodes>
          <leafValues>
            -5.4316169023513794e-01 4.6677389740943909e-01</leafValues></_>
        <_>
          <internalNodes>
            0 -1 103 -251605946 822149380 -1610315768 -1280915182
            1551928249 973897867 -2121414593 1336376073</internalNodes>
          <leafValues>
            -5.1800668239593506e-01 4.9945378303527832e-01</leafValues></_>
        <_>
          <internalNodes>
            0 -1 72 1486496174 -787410233 1075874309 -721373153
            1266835625 1493206273 1753424059 1997030596</internalNodes>
          <leafValues>
            -6.4809161424636841e-01 4.0841969847679138e-01</leafValues></_>
        <_>
          <internalNodes>
            0 -1 28 -1140154226 2077417478 -2147482624 -316832377
            -804222469 -896794624 -2129944437 1191348322</internalNodes>
          <leafValues>
            -6.0370314121246338e-01 3.9881342649459839e-01</leafValues></_>
        <_>
          <internalNodes>
            0 -1 181 -440180448 -1861017583 1627440393 318980745
            1749074058 721625225 1887848078 579793802</internalNodes>
          <leafValues>
            -5.2693200111389160e-01 4.6973669528961182e-01</leafValues></_></weakClassifiers></_>
    <!-- stage 9 -->
    <_>
      <maxWeakCount>8</maxWeakCount>
      <stageThreshold>-5.2840948104858398e-01</stageThreshold>
      <weakClassifiers>
        <_>
          <internalNodes>
            0 -1 108 -1879175386 -1904574654 -16892100 1521631034
            -1363497046 804741634 -1729357824 154827826</internalNodes>
          <leafValues>
            -5.9918200969696045e-01 6.9287288188934326e-01</leafValues></_>
        <_>
          <internalNodes>
            0 -1 81 415833456 160174261 -2147284571 -83787581 784867754
            -1467432509 2049051196 408257971</internalNodes>
          <leafValues>
            -5.2899932861328125e-01 5.0944977998733521e-01</leafValues></_>
        <_>
          <internalNodes>
            0 -1 116 1749264005 1867849992 67191976 -1861726208
            -1072004424 -1576893805 -1975481201 1930071721</internalNodes>
          <leafValues>
            -5.3617668151855469e-01 4.2759034037590027e-01</leafValues></_>
        <_>
          <internalNodes>
            0 -1 1 -836843878 -644460392 -1878261433 -6941149 146440380
            -840263678 -2113875855 1237156101</internalNodes>
          <leafValues>
            -5.0537413358688354e-01 4.9846819043159485e-01</leafValues></_>
        <_>
          <internalNodes>
            0 -1 182 1698816256 286458265 1078002060 5984593 -255668094
            -1442733800 -837635670 34403226</internalNodes>
          <leafValues>
            -6.4420139789581299e-01 3.3765637874603271e-01</leafValues></_>
        <_>
          <internalNodes>
            0 -1 199 1066369013 1895002039 2122311537 880123827
            451542995 -206831746 -1887977577 -139105523</internalNodes>
          <leafValues>
            -4.8670464754104614e-01 5.4365837574005127e-01</leafValues></_>
        <_>
          <internalNodes>
            0 -1 32 -58323734 -1726414832 813712026 1523089602
            1444528267 328730881 -1023342450 1997680967</internalNodes>
          <leafValues>
            -6.1162036657333374e-01 3.9213731884956360e-01</leafValues></_>
        <_>
          <internalNodes>
            0 -1 114 42513662 2055749771 272695679 1406992387
            -1971284738 -1424997807 -2147385301 410587155</internalNodes>
          <leafValues>
            -5.4630160331726074e-01 4.3446654081344604e-01</leafValues></_></weakClassifiers></_>
    <!-- stage 10 -->
    <_>
      <maxWeakCount>11</maxWeakCount>
      <stageThreshold>-7.4346518516540527e-01</stageThreshold>
      <weakClassifiers>
        <_>
          <internalNodes>
            0 -1 64 234041318 266173924 -655641 -1208418616 938990966
            1284786400 -9241005 387237070</internalNodes>
          <leafValues>
            -4.6536797285079956e-01 6.2319886684417725e-01</leafValues></_>
        <_>
          <internalNodes>
            0 -1 21 1877462719 576909118 -855703553 1916201594
            1560180703 1280767071 -134220654 -194586937</internalNodes>
          <leafValues>
            -4.3269297480583191e-01 5.3784281015396118e-01</leafValues></_>
        <_>
          <internalNodes>
            0 -1 115 -1730555427 -158105545 -1023405058 -763601192
            847568981 -1182596726 -2122251919 -204022764</internalNodes>
          <leafValues>
            -4.8596423864364624e-01 4.6848645806312561e-01</leafValues></_>
        <_>
          <internalNodes>
            0 -1 69 -690517766 -653194478 -267910472 -1155985406
            -1417085261 -402439739 713206361 461539431</internalNodes>
          <leafValues>
            -5.0586134195327759e-01 4.3378549814224243e-01</leafValues></_>
        <_>
          <internalNodes>
            0 -1 149 -1998656761 -2136636505 -1660579581 -536833761
            638401122 -359937557 26294547 -253621780</internalNodes>
          <leafValues>
            -6.4239513874053955e-01 3.2870635390281677e-01</leafValues></_>
        <_>
          <internalNodes>
            0 -1 201 -648054817 -1048061395 -2079731244 -261091187
            -1744123505 1090519075 679925985 -290812797</internalNodes>
          <leafValues>
            -4.6800482273101807e-01 4.7278001904487610e-01</leafValues></_>
        <_>
          <internalNodes>
            0 -1 102 144633521 92295387 -1063184047 1897070656
            1380457172 -290488310 726182665 136410007</internalNodes>
          <leafValues>
            -5.9360134601593018e-01 4.1042360663414001e-01</leafValues></_>
        <_>
          <internalNodes>
            0 -1 209 -178273446 -2117910461 -1069506365 -889470453
            -534609917 -1971254740 -866922956 -909382822</internalNodes>
          <leafValues>
            -4.9843034148216248e-01 4.7872713208198547e-01</leafValues></_>
        <_>
          <internalNodes>
            0 -1 79 1644848815 1846677508 -1072496421 1345724758
            -655423108 -796915523 -637458536 -215268130</internalNodes>
          <leafValues>
            -4.4526582956314087e-01 4.9295723438262939e-01</leafValues></_>
        <_>
          <internalNodes>
            0 -1 48 -1677249455 -2079850431 253429509 -57790139
            -1828632064 -368541688 738199052 1598580305</internalNodes>
          <leafValues>
            -5.8074486255645752e-01 3.8630044460296631e-01</leafValues></_>
        <_>
          <internalNodes>
            0 -1 44 -13852992 -80752736 -1124168515 -47506648 -17846501
            -869699771 -1293627734 -1425029302</internalNodes>
          <leafValues>
            -4.2905446887016296e-01 5.4184949398040771e-01</leafValues></_></weakClassifiers></_>
    <!-- stage 11 -->
    <_>
      <maxWeakCount>10</maxWeakCount>
      <stageThreshold>-5.3614693880081177e-01</stageThreshold>
      <weakClassifiers>
        <_>
          <internalNodes>
            0 -1 46 -1388822982 805060336 -1363345420 217869636
            -1086430568 1073643100 -1925649320 1062769682</internalNodes>
          <leafValues>
            -5.4725790023803711e-01 6.2223005294799805e-01</leafValues></_>
        <_>
          <internalNodes>
            0 -1 74 275654350 1930635459 537018403 1372976983 139220640
            318816769 1758169819 1459974900</internalNodes>
          <leafValues>
            -6.1397117376327515e-01 4.0342622995376587e-01</leafValues></_>
        <_>
          <internalNodes>
            0 -1 14 -1939415073 -2139045872 1073791193 -796867447
            36473043 -536321888 8534176 1074221155</internalNodes>
          <leafValues>
            -5.4819381237030029e-01 3.7893021106719971e-01</leafValues></_>
        <_>
          <internalNodes>
            0 -1 144 -1033149649 1243250704 -2127477757 808583556
            469900548 -1746406205 -735838176 -1058875164</internalNodes>
          <leafValues>
            -6.9818878173828125e-01 3.1089785695075989e-01</leafValues></_>
        <_>
          <internalNodes>
            0 -1 121 -33576213 -318902275 -1124254728 -52072466
            -1389117574 -453656579 -1537897109 1935376779</internalNodes>
          <leafValues>
            -4.2445722222328186e-01 5.0872433185577393e-01</leafValues></_>
        <_>
          <internalNodes>
            0 -1 42 -1299986597 -1098838271 -804021613 943980873
            -507262677 1764589728 -2105004473 -1133117697</internalNodes>
          <leafValues>
            -4.6632641553878784e-01 4.7953772544860840e-01</leafValues></_>
        <_>
          <internalNodes>
            0 -1 193 -875564924 1313239118 1074012832 -485179312
            -1333632479 -383172303 -1968074048 -460459889</internalNodes>
          <leafValues>
            -5.4128992557525635e-01 4.0087860822677612e-01</leafValues></_>
        <_>
          <internalNodes>
            0 -1 8 1937344131 -16007017 1074336641 1895964689 -784225759
            -653606783 -1562688881 -418183007</internalNodes>
          <leafValues>
            -4.2437797784805298e-01 5.1486551761627197e-01</leafValues></_>
        <_>
          <internalNodes>
            0 -1 94 -611641100 891125793 1207959589 1402145816
            -2127654727 -1451130208 -2111207039 -1618902381</internalNodes>
          <leafValues>
            -5.2917236089706421e-01 4.1885414719581604e-01</leafValues></_>
        <_>
          <internalNodes>
            0 -1 168 1205336972 374521962 -1659305522 889241872
            1182794190 -1264498661 1980338666 374163663</internalNodes>
          <leafValues>
            -5.0864702463150024e-01 4.4137233495712280e-01</leafValues></_></weakClassifiers></_>
    <!-- stage 12 -->
    <_>
      <maxWeakCount>13</maxWeakCount>
      <stageThreshold>-1.0571093559265137e+00</stageThreshold>
      <weakClassifiers>
        <_>
          <internalNodes>
            0 -1 38 672728433 583573660 -2029905844 1715663296
            1409376256 402704513 -988510134 4362</internalNodes>
          <leafValues>
            -6.7801856994628906e-01 5.6908971071243286e-01</leafValues></_>
        <_>
          <internalNodes>
            0 -1 16 342797151 -1318154034 353801237 -205257052 269093023
            143267010 1746571935 1905477115</internalNodes>
          <leafValues>
            -4.3124994635581970e-01 4.8302245140075684e-01</leafValues></_>
        <_>
          <internalNodes>
            0 -1 170 2008495901 2105523763 -1073866764 387947940
            1878179007 -306184251 829910128 -846494261</internalNodes>
          <leafValues>
            -4.0992209315299988e-01 5.1915442943572998e-01</leafValues></_>
        <_>
          <internalNodes>
            0 -1 25 -1068004277 1400083195 86005726 2052784927 704846637
            -1323761588 -1643659415 -774278447</internalNodes>
          <leafValues>
            -4.2096143960952759e-01 4.9622091650962830e-01</leafValues></_>
        <_>
          <internalNodes>
            0 -1 63 153515007 433651909 202904 911319233 -1174285271
            -1859360510 1107881779 1883295811</internalNodes>
          <leafValues>
            -6.1233818531036377e-01 3.3724820613861084e-01</leafValues></_>
        <_>
          <internalNodes>
            0 -1 213 -63701449 544194218 -1090584983 -13586832
            -705182443 -1888029570 1968985185 -609235407</internalNodes>
          <leafValues>
            -4.2513605952262878e-01 5.2520757913589478e-01</leafValues></_>
        <_>
          <internalNodes>
            0 -1 194 1266677847 -1649737730 -2051014789 -251920772
            1577050077 1752563575 -1627673701 -1875867073</internalNodes>
          <leafValues>
            -4.2534500360488892e-01 5.1529538631439209e-01</leafValues></_>
        <_>
          <internalNodes>
            0 -1 155 -729296625 1910735899 1401127964 -997487334
            1079341414 1889665824 -1032904085 -196128443</internalNodes>
          <leafValues>
            -4.9857679009437561e-01 4.3247869610786438e-01</leafValues></_>
        <_>
          <internalNodes>
            0 -1 86 274502874 1535713394 453052489 897783953 301995441
            -1463809503 1546764377 439042105</internalNodes>
          <leafValues>
            -5.2118688821792603e-01 4.4088479876518250e-01</leafValues></_>
        <_>
          <internalNodes>
            0 -1 56 -1539076881 1615913101 -2143268616 -22913189
            -267947503 -91242110 -1828677099 -61136336</internalNodes>
          <leafValues>
            -5.4418677091598511e-01 4.1597902774810791e-01</leafValues></_>
        <_>
          <internalNodes>
            0 -1 30 203258875 -1542417017 474044209 -288427659
            2013284480 -1199423104 137509120 235321418</internalNodes>
          <leafValues>
            -6.3044941425323486e-01 3.3371001482009888e-01</leafValues></_>
        <_>
          <internalNodes>
            0 -1 61 -74151876 1906884618 -2126315501 -650043264
            1107890824 -926121981 -402619395 460707327</internalNodes>
          <leafValues>
            -4.8978775739669800e-01 4.7407022118568420e-01</leafValues></_>
        <_>
          <internalNodes>
            0 -1 167 1785139 2128347463 29457789 2061799555 144242805
            -1599627117 -1700134859 1812215408</internalNodes>
          <leafValues>
            -6.7764359712600708e-01 3.4322986006736755e-01</leafValues></_></weakClassifiers></_>
    <!-- stage 13 -->
    <_>
      <maxWeakCount>14</maxWeakCount>
      <stageThreshold>-5.4209303855895996e-01</stageThreshold>
      <weakClassifiers>
        <_>
          <internalNodes>
            0 -1 132 728179687 206308453 -1061089010 1510477828
            -1576998221 -1001356974 704645770 1346654690</internalNodes>
          <leafValues>
            -5.7371795177459717e-01 5.3901171684265137e-01</leafValues></_>
        <_>
          <internalNodes>
            0 -1 171 -201329129 -184619145 -268484865 -1339916465
            1291681087 -176310659 -1207988391 -234849170</internalNodes>
          <leafValues>
            -4.2164710164070129e-01 4.7122702002525330e-01</leafValues></_>
        <_>
          <internalNodes>
            0 -1 85 1073791230 353206556 -1073741552 -1723473877
            1230550453 982739279 -644044528 2131300625</internalNodes>
          <leafValues>
            -5.8084952831268311e-01 3.2981067895889282e-01</leafValues></_>
        <_>
          <internalNodes>
            0 -1 24 -538902559 -1327123 -1107411202 -4542471 2139072072
            -537002114 2096633832 -562298883</internalNodes>
          <leafValues>
            -3.4429228305816650e-01 5.3205186128616333e-01</leafValues></_>
        <_>
          <internalNodes>
            0 -1 127 1118760867 1651949331 -609304815 901136179
            1342172942 1475739447 -806359062 -1307332678</internalNodes>
          <leafValues>
            -4.1095924377441406e-01 4.6692237257957458e-01</leafValues></_>
        <_>
          <internalNodes>
            0 -1 207 -268439681 1575989231 -29409322 -2017116161
            -135467243 -540084491 -1346642877 -2017992915</internalNodes>
          <leafValues>
            -4.0523958206176758e-01 4.7917801141738892e-01</leafValues></_>
        <_>
          <internalNodes>
            0 -1 129 616975475 -1378073467 -480848999 1991790938
            -920647524 -31762295 -1964201555 -87544676</internalNodes>
          <leafValues>
            -4.5502889156341553e-01 4.1265860199928284e-01</leafValues></_>
        <_>
          <internalNodes>
            0 -1 35 1850506725 1556943357 142790746 1745772574
            -930251147 1006930297 -402072903 -1044827552</internalNodes>
          <leafValues>
            -5.3287434577941895e-01 3.6967313289642334e-01</leafValues></_>
        <_>
          <internalNodes>
            0 -1 163 1616677343 -1261413678 537395310 -708775664
            487474122 -628586496 -528463715 509307307</internalNodes>
          <leafValues>
            -4.1889283061027527e-01 4.8389235138893127e-01</leafValues></_>
        <_>
          <internalNodes>
            0 -1 6 -380121810 -429866160 -1729064685 1686372881
            1619632271 -928757080 -225008729 1191216549</internalNodes>
          <leafValues>
            -6.0481417179107666e-01 3.3602997660636902e-01</leafValues></_>
        <_>
          <internalNodes>
            0 -1 141 1116118772 -82603371 -653848319 -601091561
            -1450523717 -1886945263 -1030651661 1512257715</internalNodes>
          <leafValues>
            -4.6283957362174988e-01 4.4046825170516968e-01</leafValues></_>
        <_>
          <internalNodes>
            0 -1 203 -187731923 1615341583 -2147434050 1083658474
            -398284792 -1205415607 -265650014 1884473607</internalNodes>
          <leafValues>
            -4.9563705921173096e-01 4.2729625105857849e-01</leafValues></_>
        <_>
          <internalNodes>
            0 -1 90 466959868 -2096032331 -1870527458 -539025537
            1275724706 -268402164 152032427 287148267</internalNodes>
          <leafValues>
            -5.2971112728118896e-01 3.9357179403305054e-01</leafValues></_>
        <_>
          <internalNodes>
            0 -1 55 -754650706 -1423498608 -1877881683 1497924819
            1905721519 -501186407 -1297536263 628151572</internalNodes>
          <leafValues>
            -5.8383101224899292e-01 3.4494853019714355e-01</leafValues></_></weakClassifiers></_>
    <!-- stage 14 -->
    <_>
      <maxWeakCount>13</maxWeakCount>
      <stageThreshold>-9.4437158107757568e-01</stageThreshold>
      <weakClassifiers>
        <_>
          <internalNodes>
            0 -1 138 467457 -1931524783 1074040081 -1070415822
            -644999903 -343891828 -1030042156 538983436</internalNodes>
          <leafValues>
            -7.0312500000000000e-01 5.2070266008377075e-01</leafValues></_>
        <_>
          <internalNodes>
            0 -1 206 -86510643 -1958485741 -737619627 1271091468
            497254871 -1980954620 -629022028 133679268</internalNodes>
          <leafValues>
            -4.5678061246871948e-01 4.2447111010551453e-01</leafValues></_>
        <_>
          <internalNodes>
            0 -1 54 -261225916 -1258172377 402800723 -198092717
            -757562469 -661553109 -1868919845 1473446490</internalNodes>
          <leafValues>
            -4.6005231142044067e-01 4.1952717304229736e-01</leafValues></_>
        <_>
          <internalNodes>
            0 -1 11 -1979124737 -1456553678 -922332327 -549402364
            -1902111829 -1735393267 -1073651533 4309115</internalNodes>
          <leafValues>
            -5.0452792644500732e-01 3.6936438083648682e-01</leafValues></_>
        <_>
          <internalNodes>
            0 -1 210 -505681185 -1760530048 1082253370 1388748816
            -905740149 -1965832187 -1265907249 -268371779</internalNodes>
          <leafValues>
            -4.7298118472099304e-01 4.2687711119651794e-01</leafValues></_>
        <_>
          <internalNodes>
            0 -1 204 -167807185 1359432093 -1549614061 -490319198
            -641341184 -1073593343 -503136094 -198975070</internalNodes>
          <leafValues>
            -4.6861606836318970e-01 4.1369533538818359e-01</leafValues></_>
        <_>
          <internalNodes>
            0 -1 125 -119113709 1359159296 -173928425 2074646529
            2038454522 -1684403953 164405993 -1159545792</internalNodes>
          <leafValues>
            -4.1655740141868591e-01 4.9667131900787354e-01</leafValues></_>
        <_>
          <internalNodes>
            0 -1 9 1101647173 1258348754 273913008 -713407560
            -2121793111 -1987442662 8429910 603420307</internalNodes>
          <leafValues>
            -4.7455123066902161e-01 4.1073599457740784e-01</leafValues></_>
        <_>
          <internalNodes>
            0 -1 109 616630265 -2012999381 403838225 -187407104
            613556226 -1398636522 990034459 298905712</internalNodes>
          <leafValues>
            -7.6868647336959839e-01 2.7259734272956848e-01</leafValues></_>
        <_>
          <internalNodes>
            0 -1 101 1779008154 -753887441 1409647040 437452931
            1633395355 -1341644487 -1525743413 2108530959</internalNodes>
          <leafValues>
            -4.6242097020149231e-01 4.4694292545318604e-01</leafValues></_>
        <_>
          <internalNodes>
            0 -1 23 1967608831 1083785807 -214324782 1610670082
            1879992577 -721608632 -268262349 -180651421</internalNodes>
          <leafValues>
            -4.6233153343200684e-01 4.4411653280258179e-01</leafValues></_>
        <_>
          <internalNodes>
            0 -1 215 1649287735 -344381033 1544640899 1116342668
            1512140429 -637221660 587696866 2003516208</internalNodes>
          <leafValues>
            -5.6594181060791016e-01 3.6982023715972900e-01</leafValues></_>
        <_>
          <internalNodes>
            0 -1 73 -1354289222 -965807342 -1609121761 -368174829
            1263223227 -22118008 2013286559 -125273600</internalNodes>
          <leafValues>
            -5.3811764717102051e-01 3.9045348763465881e-01</leafValues></_></weakClassifiers></_>
    <!-- stage 15 -->
    <_>
      <maxWeakCount>12</maxWeakCount>
      <stageThreshold>-6.0606026649475098e-01</stageThreshold>
      <weakClassifiers>
        <_>
          <internalNodes>
            0 -1 164 -12582918 -5439492 1073690544 -550062147 -41967686
            2138996668 1327469820 -1919937400</internalNodes>
          <leafValues>
            -3.0804809927940369e-01 6.2352043390274048e-01</leafValues></_>
        <_>
          <internalNodes>
            0 -1 135 -1040003409 1202921971 51597571 311071115
            -1052548280 -1878349688 1224949760 -1162942196</internalNodes>
          <leafValues>
            -5.6231284141540527e-01 3.5289147496223450e-01</leafValues></_>
        <_>
          <internalNodes>
            0 -1 89 1440561150 1090983404 135428 1922554130 1375932578
            -393566080 210473041 1067549903</internalNodes>
          <leafValues>
            -4.9509513378143311e-01 3.6706236004829407e-01</leafValues></_>
        <_>
          <internalNodes>
            0 -1 185 -178474058 1393643846 1073873093 1929594189
            -1060478834 -498270180 -2009022070 -645041494</internalNodes>
          <leafValues>
            -4.3312743306159973e-01 4.4813370704650879e-01</leafValues></_>
        <_>
          <internalNodes>
            0 -1 152 -776876764 -590308416 169902172 -285159099
            1082150090 -637499096 536874697 2103396491</internalNodes>
          <leafValues>
            -4.8698100447654724e-01 3.9090326428413391e-01</leafValues></_>
        <_>
          <internalNodes>
            0 -1 166 998628789 2081288617 570522079 -663846790 180711627
            -1146370020 23550084 -1146566248</internalNodes>
          <leafValues>
            -4.7645214200019836e-01 4.1775473952293396e-01</leafValues></_>
        <_>
          <internalNodes>
            0 -1 107 -2080005957 -1248808301 -2013261547 -653469690
            1887470298 -7757164 343977919 136369648</internalNodes>
          <leafValues>
            -4.2080554366111755e-01 4.8827132582664490e-01</leafValues></_>
        <_>
          <internalNodes>
            0 -1 134 -1028665449 -554238188 -65776 331231167 -268456188
            -268455946 -1342246999 -609226945</internalNodes>
          <leafValues>
            -3.2607415318489075e-01 6.2434524297714233e-01</leafValues></_>
        <_>
          <internalNodes>
            0 -1 189 -800433803 488645128 25371899 940968592 -233207459
            -335314931 -1643428945 405957445</internalNodes>
          <leafValues>
            -6.2966042757034302e-01 3.2655963301658630e-01</leafValues></_>
        <_>
          <internalNodes>
            0 -1 150 1934320032 1402143328 1099318336 -654290944
            268992977 1342178432 1076216971 1109149625</internalNodes>
          <leafValues>
            -6.7918682098388672e-01 3.0712860822677612e-01</leafValues></_>
        <_>
          <internalNodes>
            0 -1 40 -862525441 -1610053820 -367066923 -1035818864
            1214491064 -1023149894 -531941203 -798979226</internalNodes>
          <leafValues>
            -5.9230315685272217e-01 3.1343132257461548e-01</leafValues></_>
        <_>
          <internalNodes>
            0 -1 184 -1067743739 1979793953 -2130624503 -1290012213
            -1643316343 -1190952912 -2004290942 539648982</internalNodes>
          <leafValues>
            -5.3203105926513672e-01 3.7327238917350769e-01</leafValues></_></weakClassifiers></_>
    <!-- stage 16 -->
    <_>
      <maxWeakCount>13</maxWeakCount>
      <stageThreshold>-5.8006393909454346e-01</stageThreshold>
      <weakClassifiers>
        <_>
          <internalNodes>
            0 -1 76 -285266681 1861156727 -16781740 -487686170
            -813929349 -196737 -25600906 -67142030</internalNodes>
          <leafValues>
            -2.7914109826087952e-01 6.9449079036712646e-01</leafValues></_>
        <_>
          <internalNodes>
            0 -1 68 -1785152244 -746123259 -1560001376 1495665376
            -1945927417 956891399 -1425024576 284342544</internalNodes>
          <leafValues>
            -6.8205678462982178e-01 3.6367067694664001e-01</leafValues></_>
        <_>
          <internalNodes>
            0 -1 196 861142423 815893343 -1044028456 -171338611
            818216959 444711083 177545616 -137117288</internalNodes>
          <leafValues>
            -4.9684187769889832e-01 4.3779179453849792e-01</leafValues></_>
        <_>
          <internalNodes>
            0 -1 75 472560855 738172575 -1052696 -841001489 -542245640
            -5452539 388756988 1498888007</internalNodes>
          <leafValues>
            -4.5563173294067383e-01 4.8527431488037109e-01</leafValues></_>
        <_>
          <internalNodes>
            0 -1 43 1745512785 -740065259 168120669 -38975066 2163
            1761771523 1937851248 -1079959259</internalNodes>
          <leafValues>
            -4.6942779421806335e-01 4.5086789131164551e-01</leafValues></_>
        <_>
          <internalNodes>
            0 -1 66 -1048336449 -968961520 -1870560739 -871726268
            143731035 -1847883717 1074554527 -556864992</internalNodes>
          <leafValues>
            -5.3948706388473511e-01 3.7840384244918823e-01</leafValues></_>
        <_>
          <internalNodes>
            0 -1 119 -1088421750 -747904663 -1609281456 1573863439
            -1434222381 -117403264 58928555 2069922242</internalNodes>
          <leafValues>
            -5.7789540290832520e-01 3.9734083414077759e-01</leafValues></_>
        <_>
          <internalNodes>
            0 -1 200 -537010727 -195297314 -1075970379 -258640793
            -1157825117 -730333618 -8718605 -1268836645</internalNodes>
          <leafValues>
            -4.1484767198562622e-01 5.4159027338027954e-01</leafValues></_>
        <_>
          <internalNodes>
            0 -1 190 -530530 1862215479 -65545 1937334135 -3691382
            -1084342468 -456857694 -74203734</internalNodes>
          <leafValues>
            -3.5310330986976624e-01 6.1410713195800781e-01</leafValues></_>
        <_>
          <internalNodes>
            0 -1 131 521832159 -1202487279 1347436680 1929613314
            -2096977536 -1878359679 -780025376 1381339341</internalNodes>
          <leafValues>
            -5.9034764766693115e-01 3.7528866529464722e-01</leafValues></_>
        <_>
          <internalNodes>
            0 -1 143 -2076016381 -737914763 -1040039887 -796637409
            -2112876239 -1740042229 -1442358724 -1275074679</internalNodes>
          <leafValues>
            -5.2523356676101685e-01 4.6004039049148560e-01</leafValues></_>
        <_>
          <internalNodes>
            0 -1 169 213351539 -1343701136 1861386027 -543298563
            -1076077315 -1073742089 -445467970 -1111580923</internalNodes>
          <leafValues>
            -4.2722958326339722e-01 5.1525503396987915e-01</leafValues></_>
        <_>
          <internalNodes>
            0 -1 113 -655685416 352528005 1212191008 1401917659
            -360535157 -1290499296 -1524328453 1494287131</internalNodes>
          <leafValues>
            -5.2139902114868164e-01 4.4552934169769287e-01</leafValues></_></weakClassifiers></_>
    <!-- stage 17 -->
    <_>
      <maxWeakCount>11</maxWeakCount>
      <stageThreshold>-8.0915707349777222e-01</stageThreshold>
      <weakClassifiers>
        <_>
          <internalNodes>
            0 -1 47 620527605 753037167 -1124073479 785317709 -34570244
            -1519292442 1971287858 1191346044</internalNodes>
          <leafValues>
            -4.8751357197761536e-01 6.2936305999755859e-01</leafValues></_>
        <_>
          <internalNodes>
            0 -1 31 -1039209729 -1370689255 -1341504426 -264732280
            2122918295 -918413303 -238990370 -192618390</internalNodes>
          <leafValues>
            -4.6912047266960144e-01 4.7960489988327026e-01</leafValues></_>
        <_>
          <internalNodes>
            0 -1 4 -991068369 -146446186 -50336013 -733692180 -536870934
            -15401167 -136341506 -140386447</internalNodes>
          <leafValues>
            -3.9828011393547058e-01 5.3697305917739868e-01</leafValues></_>
        <_>
          <internalNodes>
            0 -1 212 -134217857 -421075009 -625236278 1111031532 -2218
            1668415309 -28969120 -392170001</internalNodes>
          <leafValues>
            -4.3928724527359009e-01 5.0446033477783203e-01</leafValues></_>
        <_>
          <internalNodes>
            0 -1 92 -2012548304 536920552 142832987 1459937521
            -627031815 -1500757900 420347989 1059082549</internalNodes>
          <leafValues>
            -7.3793840408325195e-01 2.7148753404617310e-01</leafValues></_>
        <_>
          <internalNodes>
            0 -1 208 -138413377 -1737756051 -1073742079 -144906684
            -17171273 -807993492 1995732805 -605628459</internalNodes>
          <leafValues>
            -4.3893083930015564e-01 4.9500167369842529e-01</leafValues></_>
        <_>
          <internalNodes>
            0 -1 59 1078652120 -630116069 -1878261441 1551290718
            546871699 -334560704 -2063447928 859898049</internalNodes>
          <leafValues>
            -5.3214007616043091e-01 4.2453488707542419e-01</leafValues></_>
        <_>
          <internalNodes>
            0 -1 62 -1768801601 -1244642860 25961219 -1023143500
            -1073490694 -1396129151 816750735 -2009181725</internalNodes>
          <leafValues>
            -5.2006947994232178e-01 4.0977102518081665e-01</leafValues></_>
        <_>
          <internalNodes>
            0 -1 187 1962792895 -218205465 2147483643 1994908923
            -1611137028 -179404972 -547889733 -529867265</internalNodes>
          <leafValues>
            -4.2250353097915649e-01 5.2402037382125854e-01</leafValues></_>
        <_>
          <internalNodes>
            0 -1 67 1380068046 1402036354 4121 -116317800 1820492181
            1343488 -529759689 1912656048</internalNodes>
          <leafValues>
            -6.6164481639862061e-01 3.4563836455345154e-01</leafValues></_>
        <_>
          <internalNodes>
            0 -1 165 1553550845 -804188011 -989613867 68423942
            -1299698452 -1330936781 568941229 1807237501</internalNodes>
          <leafValues>
            -5.5556899309158325e-01 3.6674541234970093e-01</leafValues></_></weakClassifiers></_>
    <!-- stage 18 -->
    <_>
      <maxWeakCount>11</maxWeakCount>
      <stageThreshold>-7.6558041572570801e-01</stageThreshold>
      <weakClassifiers>
        <_>
          <internalNodes>
            0 -1 45 -2104481826 532021264 -2071985878 -1539260208
            135274626 721551370 -1945466680 173818057</internalNodes>
          <leafValues>
            -6.4672362804412842e-01 5.8505672216415405e-01</leafValues></_>
        <_>
          <internalNodes>
            0 -1 123 1856998691 -617664725 1069513486 -248332317
            -2018007119 -470028289 -170024737 1933557325</internalNodes>
          <leafValues>
            -3.8117176294326782e-01 5.5351603031158447e-01</leafValues></_>
        <_>
          <internalNodes>
            0 -1 83 -770293540 1402844418 -1874591043 -1223380854
            -1559908121 -1665126400 -2129100629 -1945921533</internalNodes>
          <leafValues>
            -4.6194908022880554e-01 4.8163729906082153e-01</leafValues></_>
        <_>
          <internalNodes>
            0 -1 93 2010512893 1609981943 -1090568199 -421380127
            -1101742650 -1083826233 -1073840292 -1348279164</internalNodes>
          <leafValues>
            -4.5503449440002441e-01 4.8636421561241150e-01</leafValues></_>
        <_>
          <internalNodes>
            0 -1 177 -2030043777 2144042703 -687895849 1902247365
            -562692293 -1305561318 -145753153 -2145304659</internalNodes>
          <leafValues>
            -3.8398268818855286e-01 5.9186607599258423e-01</leafValues></_>
        <_>
          <internalNodes>
            0 -1 111 1170248059 -255845942 -1199475967 -779741145
            -1945926878 -1065219448 1094845209 531425373</internalNodes>
          <leafValues>
            -5.2033418416976929e-01 4.4408568739891052e-01</leafValues></_>
        <_>
          <internalNodes>
            0 -1 161 -1591994841 -2013233148 -511470577 -503218031
            1744896597 -1064754173 680002085 -294346731</internalNodes>
          <leafValues>
            -6.4128440618515015e-01 3.3632057905197144e-01</leafValues></_>
        <_>
          <internalNodes>
            0 -1 65 671174912 -872296448 1157633485 881220185 82348
            77217800 -2004811381 1673136494</internalNodes>
          <leafValues>
            -5.7455170154571533e-01 4.0127786993980408e-01</leafValues></_>
        <_>
          <internalNodes>
            0 -1 106 -2058644293 -1660415596 16891933 -649059811
            814125554 -935312128 814534667 1478623341</internalNodes>
          <leafValues>
            -4.9420371651649475e-01 4.9501222372055054e-01</leafValues></_>
        <_>
          <internalNodes>
            0 -1 91 -1224633812 285231387 1140854994 -586215296
            134255341 157417480 319377939 1468240707</internalNodes>
          <leafValues>
            -6.0390341281890869e-01 3.8909289240837097e-01</leafValues></_>
        <_>
          <internalNodes>
            0 -1 0 -298048319 -429367825 -8472721 -122683587 -143360008
            -193003914 -973080853 -1389687586</internalNodes>
          <leafValues>
            -4.2497789859771729e-01 5.7445180416107178e-01</leafValues></_></weakClassifiers></_>
    <!-- stage 19 -->
    <_>
      <maxWeakCount>12</maxWeakCount>
      <stageThreshold>-7.2328299283981323e-01</stageThreshold>
      <weakClassifiers>
        <_>
          <internalNodes>
            0 -1 27 143322877 209383291 787396343 -1748828167 67174141
            -2130706447 -990349833 71320817</internalNodes>
          <leafValues>
            -4.8768472671508789e-01 5.8725762367248535e-01</leafValues></_>
        <_>
          <internalNodes>
            0 -1 71 -1521080401 -1072390085 1073807411 -528429630
            466829775 -1853677405 -978710305 -323063796</internalNodes>
          <leafValues>
            -5.4024785757064819e-01 4.3410214781761169e-01</leafValues></_>
        <_>
          <internalNodes>
            0 -1 130 -1493018152 1493402376 306971467 -721350653
            142838504 271057664 135324836 907243687</internalNodes>
          <leafValues>
            -5.1824748516082764e-01 4.2663818597793579e-01</leafValues></_>
        <_>
          <internalNodes>
            0 -1 105 889281909 -247128061 285839551 -669337503 731282
            -92034791 27828354 -366853996</internalNodes>
          <leafValues>
            -4.7685906291007996e-01 4.3417909741401672e-01</leafValues></_>
        <_>
          <internalNodes>
            0 -1 137 1269432498 975268387 35686513 -41061952 1886101505
            -627757054 571226644 1987119583</internalNodes>
          <leafValues>
            -6.2808346748352051e-01 3.4078407287597656e-01</leafValues></_>
        <_>
          <internalNodes>
            0 -1 12 -621885729 -352559510 -1090519041 -436736405
            -1483237561 -857940120 -1968027415 -973900779</internalNodes>
          <leafValues>
            -4.2797017097473145e-01 4.9950644373893738e-01</leafValues></_>
        <_>
          <internalNodes>
            0 -1 117 1256100102 1116209418 -1857773302 -1808788944
            591610259 -1842216952 109379909 715671985</internalNodes>
          <leafValues>
            -6.6197913885116577e-01 3.3000904321670532e-01</leafValues></_>
        <_>
          <internalNodes>
            0 -1 50 1792009103 -1073588224 -531626419 -525672190
            1375929673 -2138505085 -771011831 1892201267</internalNodes>
          <leafValues>
            -6.1426484584808350e-01 3.2639482617378235e-01</leafValues></_>
        <_>
          <internalNodes>
            0 -1 57 -1529882510 1124597766 -738115309 -809385837
            -201268812 -1702264665 403084167 -1151352297</internalNodes>
          <leafValues>
            -4.1210716962814331e-01 5.4800844192504883e-01</leafValues></_>
        <_>
          <internalNodes>
            0 -1 88 2016186580 861164316 281022664 369402160 -1316839133
            -2113863534 177840207 -1736084983</internalNodes>
          <leafValues>
            -5.3797972202301025e-01 4.1072839498519897e-01</leafValues></_>
        <_>
          <internalNodes>
            0 -1 188 -669824493 1360658640 -1843096936 546439745
            -1803517834 -1199419759 -937391844 974130024</internalNodes>
          <leafValues>
            -6.3135975599288940e-01 3.4779545664787292e-01</leafValues></_>
        <_>
          <internalNodes>
            0 -1 159 856774675 940819731 50429979 -767833798 573969049
            -1180655603 174674068 2053669048</internalNodes>
          <leafValues>
            -5.4501497745513916e-01 4.1835168004035950e-01</leafValues></_></weakClassifiers></_></stages>
  <features>
    <_>
      <rect>
        0 0 1 1</rect></_>
    <_>
      <rect>
        0 0 3 2</rect></_>
    <_>
      <rect>
        0 0 4 2</rect></_>
    <_>
      <rect>
        0 0 11 5</rect></_>
    <_>
      <rect>
        0 1 1 1</rect></_>
    <_>
      <rect>
        0 1 8 10</rect></_>
    <_>
      <rect>
        0 2 1 1</rect></_>
    <_>
      <rect>
        0 2 2 1</rect></_>
    <_>
      <rect>
        0 3 1 2</rect></_>
    <_>
      <rect>
        0 4 3 2</rect></_>
    <_>
      <rect>
        0 4 4 4</rect></_>
    <_>
      <rect>
        0 4 6 5</rect></_>
    <_>
      <rect>
        0 5 1 6</rect></_>
    <_>
      <rect>
        0 5 2 3</rect></_>
    <_>
      <rect>
        0 5 3 7</rect></_>
    <_>
      <rect>
        0 5 4 9</rect></_>
    <_>
      <rect>
        0 6 7 6</rect></_>
    <_>
      <rect>
        0 8 2 3</rect></_>
    <_>
      <rect>
        0 15 6 4</rect></_>
    <_>
      <rect>
        0 15 9 4</rect></_>
    <_>
      <rect>
        0 18 2 2</rect></_>
    <_>
      <rect>
        0 18 3 3</rect></_>
    <_>
      <rect>
        0 23 1 1</rect></_>
    <_>
      <rect>
        0 24 2 2</rect></_>
    <_>
      <rect>
        0 31 1 3</rect></_>
    <_>
      <rect>
        0 34 2 1</rect></_>
    <_>
      <rect>
        0 36 1 1</rect></_>
    <_>
      <rect>
        1 0 5 4</rect></_>
    <_>
      <rect>
        1 1 13 6</rect></_>
    <_>
      <rect>
        1 10 4 5</rect></_>
    <_>
      <rect>
        1 14 11 4</rect></_>
    <_>
      <rect>
        1 21 4 3</rect></_>
    <_>
      <rect>
        1 22 6 3</rect></_>
    <_>
      <rect>
        1 22 7 5</rect></_>
    <_>
      <rect>
        1 24 1 1</rect></_>
    <_>
      <rect>
        1 34 2 2</rect></_>
    <_>
      <rect>
        2 0 12 8</rect></_>
    <_>
      <rect>
        2 10 6 9</rect></_>
    <_>
      <rect>
        2 15 12 4</rect></_>
    <_>
      <rect>
        2 16 4 3</rect></_>
    <_>
      <rect>
        2 19 2 2</rect></_>
    <_>
      <rect>
        2 27 6 3</rect></_>
    <_>
      <rect>
        2 37 3 1</rect></_>
    <_>
      <rect>
        3 0 2 1</rect></_>
    <_>
      <rect>
        3 2 12 5</rect></_>
    <_>
      <rect>
        3 5 8 5</rect></_>
    <_>
      <rect>
        3 6 10 5</rect></_>
    <_>
      <rect>
        3 14 9 4</rect></_>
    <_>
      <rect>
        3 14 11 3</rect></_>
    <_>
      <rect>
        3 20 8 4</rect></_>
    <_>
      <rect>
        3 21 2 2</rect></_>
    <_>
      <rect>
        3 21 6 4</rect></_>
    <_>
      <rect>
        4 1 12 9</rect></_>
    <_>
      <rect>
        4 7 9 11</rect></_>
    <_>
      <rect>
        4 16 5 5</rect></_>
    <_>
      <rect>
        4 17 6 3</rect></_>
    <_>
      <rect>
        4 20 3 2</rect></_>
    <_>
      <rect>
        4 22 9 4</rect></_>
    <_>
      <rect>
        4 23 2 1</rect></_>
    <_>
      <rect>
        4 24 5 3</rect></_>
    <_>
      <rect>
        4 37 4 1</rect></_>
    <_>
      <rect>
        5 1 5 11</rect></_>
    <_>
      <rect>
        5 5 5 4</rect></_>
    <_>
      <rect>
        5 11 6 5</rect></_>
    <_>
      <rect>
        5 12 6 6</rect></_>
    <_>
      <rect>
        5 15 9 3</rect></_>
    <_>
      <rect>
        5 17 2 1</rect></_>
    <_>
      <rect>
        5 17 5 4</rect></_>
    <_>
      <rect>
        6 2 10 9</rect></_>
    <_>
      <rect>
        6 2 11 6</rect></_>
    <_>
      <rect>
        6 12 7 6</rect></_>
    <_>
      <rect>
        6 15 2 2</rect></_>
    <_>
      <rect>
        6 16 5 4</rect></_>
    <_>
      <rect>
        6 17 2 2</rect></_>
    <_>
      <rect>
        6 17 5 4</rect></_>
    <_>
      <rect>
        6 18 9 4</rect></_>
    <_>
      <rect>
        6 20 3 2</rect></_>
    <_>
      <rect>
        6 21 8 4</rect></_>
    <_>
      <rect>
        6 23 2 2</rect></_>
    <_>
      <rect>
        6 25 3 2</rect></_>
    <_>
      <rect>
        6 25 8 4</rect></_>
    <_>
      <rect>
        7 14 9 6</rect></_>
    <_>
      <rect>
        7 14 10 5</rect></_>
    <_>
      <rect>
        8 0 9 6</rect></_>
    <_>
      <rect>
        8 14 4 4</rect></_>
    <_>
      <rect>
        8 20 5 4</rect></_>
    <_>
      <rect>
        8 22 8 3</rect></_>
    <_>
      <rect>
        8 31 6 3</rect></_>
    <_>
      <rect>
        9 2 7 5</rect></_>
    <_>
      <rect>
        9 13 5 7</rect></_>
    <_>
      <rect>
        9 13 7 5</rect></_>
    <_>
      <rect>
        9 22 5 2</rect></_>
    <_>
      <rect>
        9 22 9 4</rect></_>
    <_>
      <rect>
        9 34 2 2</rect></_>
    <_>
      <rect>
        10 0 10 7</rect></_>
    <_>
      <rect>
        10 7 5 10</rect></_>
    <_>
      <rect>
        10 23 9 5</rect></_>
    <_>
      <rect>
        11 9 7 8</rect></_>
    <_>
      <rect>
        11 10 4 5</rect></_>
    <_>
      <rect>
        11 16 7 4</rect></_>
    <_>
      <rect>
        11 17 6 3</rect></_>
    <_>
      <rect>
        11 18 5 3</rect></_>
    <_>
      <rect>
        11 18 8 3</rect></_>
    <_>
      <rect>
        11 20 4 3</rect></_>
    <_>
      <rect>
        11 23 6 3</rect></_>
    <_>
      <rect>
        11 37 4 1</rect></_>
    <_>
      <rect>
        12 0 2 1</rect></_>
    <_>
      <rect>
        12 0 3 1</rect></_>
    <_>
      <rect>
        12 12 9 4</rect></_>
    <_>
      <rect>
        12 13 7 4</rect></_>
    <_>
      <rect>
        12 16 5 4</rect></_>
    <_>
      <rect>
        12 16 8 7</rect></_>
    <_>
      <rect>
        12 20 5 5</rect></_>
    <_>
      <rect>
        12 21 5 4</rect></_>
    <_>
      <rect>
        12 23 7 3</rect></_>
    <_>
      <rect>
        12 36 2 1</rect></_>
    <_>
      <rect>
        13 16 5 3</rect></_>
    <_>
      <rect>
        13 17 8 6</rect></_>
    <_>
      <rect>
        13 19 4 3</rect></_>
    <_>
      <rect>
        13 19 5 4</rect></_>
    <_>
      <rect>
        13 31 1 1</rect></_>
    <_>
      <rect>
        14 13 5 5</rect></_>
    <_>
      <rect>
        14 13 8 5</rect></_>
    <_>
      <rect>
        14 17 5 2</rect></_>
    <_>
      <rect>
        14 20 4 3</rect></_>
    <_>
      <rect>
        14 34 3 2</rect></_>
    <_>
      <rect>
        15 12 6 5</rect></_>
    <_>
      <rect>
        15 15 3 3</rect></_>
    <_>
      <rect>
        15 15 4 2</rect></_>
    <_>
      <rect>
        15 28 1 1</rect></_>
    <_>
      <rect>
        16 3 7 6</rect></_>
    <_>
      <rect>
        16 12 5 7</rect></_>
    <_>
      <rect>
        16 12 6 5</rect></_>
    <_>
      <rect>
        16 14 4 3</rect></_>
    <_>
      <rect>
        16 15 2 3</rect></_>
    <_>
      <rect>
        16 15 3 2</rect></_>
    <_>
      <rect>
        16 15 4 2</rect></_>
    <_>
      <rect>
        16 16 4 5</rect></_>
    <_>
      <rect>
        16 18 3 2</rect></_>
    <_>
      <rect>
        16 19 2 1</rect></_>
    <_>
      <rect>
        16 37 1 1</rect></_>
    <_>
      <rect>
        17 0 6 7</rect></_>
    <_>
      <rect>
        17 15 2 1</rect></_>
    <_>
      <rect>
        17 17 3 2</rect></_>
    <_>
      <rect>
        17 18 2 1</rect></_>
    <_>
      <rect>
        17 22 4 3</rect></_>
    <_>
      <rect>
        18 15 5 5</rect></_>
    <_>
      <rect>
        18 16 3 2</rect></_>
    <_>
      <rect>
        18 17 4 4</rect></_>
    <_>
      <rect>
        18 18 2 1</rect></_>
    <_>
      <rect>
        18 18 4 3</rect></_>
    <_>
      <rect>
        18 19 2 1</rect></_>
    <_>
      <rect>
        18 21 3 3</rect></_>
    <_>
      <rect>
        19 15 4 5</rect></_>
    <_>
      <rect>
        19 15 4 7</rect></_>
    <_>
      <rect>
        19 17 3 2</rect></_>
    <_>
      <rect>
        19 19 1 1</rect></_>
    <_>
      <rect>
        19 20 1 1</rect></_>
    <_>
      <rect>
        19 33 6 2</rect></_>
    <_>
      <rect>
        19 37 3 1</rect></_>
    <_>
      <rect>
        20 14 2 3</rect></_>
    <_>
      <rect>
        20 20 1 1</rect></_>
    <_>
      <rect>
        20 20 4 3</rect></_>
    <_>
      <rect>
        20 22 3 3</rect></_>
    <_>
      <rect>
        20 24 6 5</rect></_>
    <_>
      <rect>
        20 33 3 2</rect></_>
    <_>
      <rect>
        20 37 2 1</rect></_>
    <_>
      <rect>
        21 12 2 1</rect></_>
    <_>
      <rect>
        21 18 4 3</rect></_>
    <_>
      <rect>
        21 23 1 1</rect></_>
    <_>
      <rect>
        21 34 6 2</rect></_>
    <_>
      <rect>
        22 0 6 3</rect></_>
    <_>
      <rect>
        22 9 6 6</rect></_>
    <_>
      <rect>
        22 17 6 4</rect></_>
    <_>
      <rect>
        23 0 5 2</rect></_>
    <_>
      <rect>
        23 15 4 5</rect></_>
    <_>
      <rect>
        23 37 2 1</rect></_>
    <_>
      <rect>
        24 0 3 1</rect></_>
    <_>
      <rect>
        24 37 4 1</rect></_>
    <_>
      <rect>
        25 8 5 9</rect></_>
    <_>
      <rect>
        25 8 5 10</rect></_>
    <_>
      <rect>
        25 12 4 4</rect></_>
    <_>
      <rect>
        25 16 4 3</rect></_>
    <_>
      <rect>
        26 6 4 7</rect></_>
    <_>
      <rect>
        26 13 3 3</rect></_>
    <_>
      <rect>
        27 5 4 10</rect></_>
    <_>
      <rect>
        27 34 4 1</rect></_>
    <_>
      <rect>
        28 0 4 1</rect></_>
    <_>
      <rect>
        28 1 2 1</rect></_>
    <_>
      <rect>
        28 1 4 5</rect></_>
    <_>
      <rect>
        28 7 4 8</rect></_>
    <_>
      <rect>
        28 18 4 4</rect></_>
    <_>
      <rect>
        29 14 3 4</rect></_>
    <_>
      <rect>
        29 19 3 3</rect></_>
    <_>
      <rect>
        30 0 3 2</rect></_>
    <_>
      <rect>
        30 20 2 2</rect></_>
    <_>
      <rect>
        30 33 3 2</rect></_>
    <_>
      <rect>
        31 0 3 3</rect></_>
    <_>
      <rect>
        31 26 3 3</rect></_>
    <_>
      <rect>
        31 37 3 1</rect></_>
    <_>
      <rect>
        32 0 2 1</rect></_>
    <_>
      <rect>
        33 0 2 2</rect></_>
    <_>
      <rect>
        34 11 2 2</rect></_>
    <_>
      <rect>
        34 13 2 3</rect></_>
    <_>
      <rect>
        34 15 2 3</rect></_>
    <_>
      <rect>
        34 19 2 2</rect></_>
    <_>
      <rect>
        34 30 2 2</rect></_>
    <_>
      <rect>
        35 24 1 1</rect></_>
    <_>
      <rect>
        35 28 1 1</rect></_>
    <_>
      <rect>
        36 20 1 1</rect></_>
    <_>
      <rect>
        37 0 1 3</rect></_>
    <_>
      <rect>
        37 2 1 1</rect></_>
    <_>
      <rect>
        37 19 1 1</rect></_>
    <_>
      <rect>
        37 23 1 2</rect></_>
    <_>
      <rect>
        37 29 1 1</rect></_>
    <_>
      <rect>
        37 37 1 1</rect></_></features></cascade>
</opencv_storage>
