<?xml version="1.0"?>
<opencv_storage>
<stage16>
  <maxWeakCount>13</maxWeakCount>
  <stageThreshold>-5.8006393909454346e-01</stageThreshold>
  <weakClassifiers>
    <_>
      <internalNodes>
        0 -1 21160 -285266681 1861156727 -16781740 -487686170 -813929349
        -196737 -25600906 -67142030</internalNodes>
      <leafValues>
        -2.7914109826087952e-01 6.9449079036712646e-01</leafValues></_>
    <_>
      <internalNodes>
        0 -1 19382 -1785152244 -746123259 -1560001376 1495665376
        -1945927417 956891399 -1425024576 284342544</internalNodes>
      <leafValues>
        -6.8205678462982178e-01 3.6367067694664001e-01</leafValues></_>
    <_>
      <internalNodes>
        0 -1 64464 861142423 815893343 -1044028456 -171338611 818216959
        444711083 177545616 -137117288</internalNodes>
      <leafValues>
        -4.9684187769889832e-01 4.3779179453849792e-01</leafValues></_>
    <_>
      <internalNodes>
        0 -1 21052 472560855 738172575 -1052696 -841001489 -542245640
        -5452539 388756988 1498888007</internalNodes>
      <leafValues>
        -4.5563173294067383e-01 4.8527431488037109e-01</leafValues></_>
    <_>
      <internalNodes>
        0 -1 9893 1745512785 -740065259 168120669 -38975066 2163
        1761771523 1937851248 -1079959259</internalNodes>
      <leafValues>
        -4.6942779421806335e-01 4.5086789131164551e-01</leafValues></_>
    <_>
      <internalNodes>
        0 -1 18063 -1048336449 -968961520 -1870560739 -871726268
        143731035 -1847883717 1074554527 -556864992</internalNodes>
      <leafValues>
        -5.3948706388473511e-01 3.7840384244918823e-01</leafValues></_>
    <_>
      <internalNodes>
        0 -1 38921 -1088421750 -747904663 -1609281456 1573863439
        -1434222381 -117403264 58928555 2069922242</internalNodes>
      <leafValues>
        -5.7789540290832520e-01 3.9734083414077759e-01</leafValues></_>
    <_>
      <internalNodes>
        0 -1 65273 -537010727 -195297314 -1075970379 -258640793
        -1157825117 -730333618 -8718605 -1268836645</internalNodes>
      <leafValues>
        -4.1484767198562622e-01 5.4159027338027954e-01</leafValues></_>
    <_>
      <internalNodes>
        0 -1 62256 -530530 1862215479 -65545 1937334135 -3691382
        -1084342468 -456857694 -74203734</internalNodes>
      <leafValues>
        -3.5310330986976624e-01 6.1410713195800781e-01</leafValues></_>
    <_>
      <internalNodes>
        0 -1 44794 521832159 -1202487279 1347436680 1929613314
        -2096977536 -1878359679 -780025376 1381339341</internalNodes>
      <leafValues>
        -5.9034764766693115e-01 3.7528866529464722e-01</leafValues></_>
    <_>
      <internalNodes>
        0 -1 47007 -2076016381 -737914763 -1040039887 -796637409
        -2112876239 -1740042229 -1442358724 -1275074679</internalNodes>
      <leafValues>
        -5.2523356676101685e-01 4.6004039049148560e-01</leafValues></_>
    <_>
      <internalNodes>
        0 -1 54070 213351539 -1343701136 1861386027 -543298563
        -1076077315 -1073742089 -445467970 -1111580923</internalNodes>
      <leafValues>
        -4.2722958326339722e-01 5.1525503396987915e-01</leafValues></_>
    <_>
      <internalNodes>
        0 -1 36694 -655685416 352528005 1212191008 1401917659 -360535157
        -1290499296 -1524328453 1494287131</internalNodes>
      <leafValues>
        -5.2139902114868164e-01 4.4552934169769287e-01</leafValues></_></weakClassifiers></stage16>
</opencv_storage>
