<?xml version="1.0"?>
<opencv_storage>
<stage4>
  <maxWeakCount>11</maxWeakCount>
  <stageThreshold>-7.0016020536422729e-01</stageThreshold>
  <weakClassifiers>
    <_>
      <internalNodes>
        0 -1 134 -1366389110 -331218 -1363235121 -34246690 216443886
        -42696920 -1905916786 67112004</internalNodes>
      <leafValues>
        -4.6770602464675903e-01 6.1384725570678711e-01</leafValues></_>
    <_>
      <internalNodes>
        0 -1 2147 22362598 -1392466550 1343799687 -36796276 402815040
        -1560278496 1076920427 2135381134</internalNodes>
      <leafValues>
        -5.6598877906799316e-01 4.0894854068756104e-01</leafValues></_>
    <_>
      <internalNodes>
        0 -1 65180 -249561609 906138545 1359416692 -46673510 -1206662989
        -1694250925 847376576 -2035033839</internalNodes>
      <leafValues>
        -4.7280561923980713e-01 4.4895070791244507e-01</leafValues></_>
    <_>
      <internalNodes>
        0 -1 40 -1066232858 363874577 -385165861 -611745484 -1979471136
        -2001204534 -972439065 -1952370655</internalNodes>
      <leafValues>
        -4.6409615874290466e-01 4.7392249107360840e-01</leafValues></_>
    <_>
      <internalNodes>
        0 -1 21351 -362443329 -453806129 553316207 -262733969
        -1084866667 -545358468 1847930687 -212185622</internalNodes>
      <leafValues>
        -4.1455572843551636e-01 5.4837280511856079e-01</leafValues></_>
    <_>
      <internalNodes>
        0 -1 847 -790694918 -75495976 287506721 -553457136 4498562
        1214382466 418472486 -620557790</internalNodes>
      <leafValues>
        -4.9457618594169617e-01 4.4951808452606201e-01</leafValues></_>
    <_>
      <internalNodes>
        0 -1 12289 470471792 -1895562877 -620752560 -708851305
        -1047990127 -5766756 1317837599 1497064307</internalNodes>
      <leafValues>
        -5.6510955095291138e-01 4.0965980291366577e-01</leafValues></_>
    <_>
      <internalNodes>
        0 -1 44985 -792476219 -191944611 -909818496 1913762195
        1393652157 709681735 319806444 1516779793</internalNodes>
      <leafValues>
        -5.7284224033355713e-01 4.1784802079200745e-01</leafValues></_>
    <_>
      <internalNodes>
        0 -1 50550 1499324219 2104819711 -196620 -4194594 2142961658
        2146991224 -1187185921 2141544126</internalNodes>
      <leafValues>
        -4.5925012230873108e-01 5.4299604892730713e-01</leafValues></_>
    <_>
      <internalNodes>
        0 -1 33569 961795078 459866149 -519569374 476890179 1627406494
        -769490814 -1424774494 -1286676453</internalNodes>
      <leafValues>
        -4.9537515640258789e-01 4.8094055056571960e-01</leafValues></_>
    <_>
      <internalNodes>
        0 -1 350 -856046789 -129466032 -2076133236 -562524016
        -1340882691 -1841774440 -796851744 -1088486360</internalNodes>
      <leafValues>
        -5.1618576049804688e-01 4.4619178771972656e-01</leafValues></_></weakClassifiers></stage4>
</opencv_storage>
