<?xml version="1.0"?>
<opencv_storage>
<stage6>
  <maxWeakCount>11</maxWeakCount>
  <stageThreshold>-8.8228273391723633e-01</stageThreshold>
  <weakClassifiers>
    <_>
      <internalNodes>
        0 -1 40731 800009007 -1363509313 -1090769094 2119459568
        -202263631 -1992687824 -869619678 274330138</internalNodes>
      <leafValues>
        -4.8331743478775024e-01 6.8162959814071655e-01</leafValues></_>
    <_>
      <internalNodes>
        0 -1 34121 -2146367448 -498401257 -997945336 -1269804661
        -2012607846 -1777858502 109831599 1359530412</internalNodes>
      <leafValues>
        -5.9800487756729126e-01 4.3260627985000610e-01</leafValues></_>
    <_>
      <internalNodes>
        0 -1 16111 -1726631689 -2124478442 -1858009772 303169676
        -938401692 -761265638 92840096 -1347638622</internalNodes>
      <leafValues>
        -5.5307734012603760e-01 4.0907743573188782e-01</leafValues></_>
    <_>
      <internalNodes>
        0 -1 59024 -673729662 1482887194 16846928 1427980548 1216467624
        497123584 1484841352 -22957912</internalNodes>
      <leafValues>
        -5.6067895889282227e-01 4.2158994078636169e-01</leafValues></_>
    <_>
      <internalNodes>
        0 -1 21493 -971368255 -96202304 472056076 -1324171240 42129552
        -553089024 47054877 1516786079</internalNodes>
      <leafValues>
        -5.0967168807983398e-01 4.3984815478324890e-01</leafValues></_>
    <_>
      <internalNodes>
        0 -1 66560 -193249419 892763947 1794816702 1479603834 2013142358
        -730038474 2138494622 -1070401537</internalNodes>
      <leafValues>
        -4.6489974856376648e-01 4.8548290133476257e-01</leafValues></_>
    <_>
      <internalNodes>
        0 -1 64298 -996198093 613405038 -796704461 -1370733016 84131861
        -2128410531 -896925616 -1596985373</internalNodes>
      <leafValues>
        -5.2651000022888184e-01 4.4382169842720032e-01</leafValues></_>
    <_>
      <internalNodes>
        0 -1 51182 -1112574541 -394400 2004761972 -1175306391 482197146
        -1073774594 897341624 -886475311</internalNodes>
      <leafValues>
        -3.9730250835418701e-01 6.0998994112014771e-01</leafValues></_>
    <_>
      <internalNodes>
        0 -1 47243 1892730026 -712970111 -2147301058 1524306088
        -1509908244 -635142144 -1606317878 781933697</internalNodes>
      <leafValues>
        -5.2733302116394043e-01 4.6711006760597229e-01</leafValues></_>
    <_>
      <internalNodes>
        0 -1 46888 176636097 -1440939945 -1073625593 -1977698042
        839076368 834502915 1241625380 -18043104</internalNodes>
      <leafValues>
        -7.0199936628341675e-01 3.7294241786003113e-01</leafValues></_>
    <_>
      <internalNodes>
        0 -1 41116 -179404150 1359753559 1073779908 1359646783
        -566130023 2013282693 -1019212337 2078411978</internalNodes>
      <leafValues>
        -5.5938631296157837e-01 4.3916663527488708e-01</leafValues></_></weakClassifiers></stage6>
</opencv_storage>
