<?xml version="1.0"?>
<opencv_storage>
<stage13>
  <maxWeakCount>14</maxWeakCount>
  <stageThreshold>-5.4209303855895996e-01</stageThreshold>
  <weakClassifiers>
    <_>
      <internalNodes>
        0 -1 44801 728179687 206308453 -1061089010 1510477828
        -1576998221 -1001356974 704645770 1346654690</internalNodes>
      <leafValues>
        -5.7371795177459717e-01 5.3901171684265137e-01</leafValues></_>
    <_>
      <internalNodes>
        0 -1 54407 -201329129 -184619145 -268484865 -1339916465
        1291681087 -176310659 -1207988391 -234849170</internalNodes>
      <leafValues>
        -4.2164710164070129e-01 4.7122702002525330e-01</leafValues></_>
    <_>
      <internalNodes>
        0 -1 26697 1073791230 353206556 -1073741552 -1723473877
        1230550453 982739279 -644044528 2131300625</internalNodes>
      <leafValues>
        -5.8084952831268311e-01 3.2981067895889282e-01</leafValues></_>
    <_>
      <internalNodes>
        0 -1 3226 -538902559 -1327123 -1107411202 -4542471 2139072072
        -537002114 2096633832 -562298883</internalNodes>
      <leafValues>
        -3.4429228305816650e-01 5.3205186128616333e-01</leafValues></_>
    <_>
      <internalNodes>
        0 -1 42898 1118760867 1651949331 -609304815 901136179 1342172942
        1475739447 -806359062 -1307332678</internalNodes>
      <leafValues>
        -4.1095924377441406e-01 4.6692237257957458e-01</leafValues></_>
    <_>
      <internalNodes>
        0 -1 67040 -268439681 1575989231 -29409322 -2017116161
        -135467243 -540084491 -1346642877 -2017992915</internalNodes>
      <leafValues>
        -4.0523958206176758e-01 4.7917801141738892e-01</leafValues></_>
    <_>
      <internalNodes>
        0 -1 43504 616975475 -1378073467 -480848999 1991790938
        -920647524 -31762295 -1964201555 -87544676</internalNodes>
      <leafValues>
        -4.5502889156341553e-01 4.1265860199928284e-01</leafValues></_>
    <_>
      <internalNodes>
        0 -1 6698 1850506725 1556943357 142790746 1745772574 -930251147
        1006930297 -402072903 -1044827552</internalNodes>
      <leafValues>
        -5.3287434577941895e-01 3.6967313289642334e-01</leafValues></_>
    <_>
      <internalNodes>
        0 -1 52488 1616677343 -1261413678 537395310 -708775664 487474122
        -628586496 -528463715 509307307</internalNodes>
      <leafValues>
        -4.1889283061027527e-01 4.8389235138893127e-01</leafValues></_>
    <_>
      <internalNodes>
        0 -1 338 -380121810 -429866160 -1729064685 1686372881 1619632271
        -928757080 -225008729 1191216549</internalNodes>
      <leafValues>
        -6.0481417179107666e-01 3.3602997660636902e-01</leafValues></_>
    <_>
      <internalNodes>
        0 -1 45831 1116118772 -82603371 -653848319 -601091561
        -1450523717 -1886945263 -1030651661 1512257715</internalNodes>
      <leafValues>
        -4.6283957362174988e-01 4.4046825170516968e-01</leafValues></_>
    <_>
      <internalNodes>
        0 -1 66597 -187731923 1615341583 -2147434050 1083658474
        -398284792 -1205415607 -265650014 1884473607</internalNodes>
      <leafValues>
        -4.9563705921173096e-01 4.2729625105857849e-01</leafValues></_>
    <_>
      <internalNodes>
        0 -1 28788 466959868 -2096032331 -1870527458 -539025537
        1275724706 -268402164 152032427 287148267</internalNodes>
      <leafValues>
        -5.2971112728118896e-01 3.9357179403305054e-01</leafValues></_>
    <_>
      <internalNodes>
        0 -1 15149 -754650706 -1423498608 -1877881683 1497924819
        1905721519 -501186407 -1297536263 628151572</internalNodes>
      <leafValues>
        -5.8383101224899292e-01 3.4494853019714355e-01</leafValues></_></weakClassifiers></stage13>
</opencv_storage>
