<?xml version="1.0"?>
<opencv_storage>
<stage0>
  <maxWeakCount>7</maxWeakCount>
  <stageThreshold>-4.6171808242797852e-01</stageThreshold>
  <weakClassifiers>
    <_>
      <internalNodes>
        0 -1 6910 -117784840 -1073926494 285015248 1375682291
        -1359073288 788475440 -1896304133 177834634</internalNodes>
      <leafValues>
        -3.1777626276016235e-01 7.8600090742111206e-01</leafValues></_>
    <_>
      <internalNodes>
        0 -1 34063 139448 -1693379453 16777553 822413345 -2147376984
        -1979383680 -939489061 136413391</internalNodes>
      <leafValues>
        -5.4086476564407349e-01 6.3400506973266602e-01</leafValues></_>
    <_>
      <internalNodes>
        0 -1 8198 -631536902 -788168192 268451891 318767112 -1056304662
        -1191149536 -259421989 1497714758</internalNodes>
      <leafValues>
        -5.8006274700164795e-01 5.6512355804443359e-01</leafValues></_>
    <_>
      <internalNodes>
        0 -1 34462 -803040046 -1621000688 75236757 1428755829
        -2043641620 -1135576224 136380795 253299503</internalNodes>
      <leafValues>
        -5.3334379196166992e-01 6.2681794166564941e-01</leafValues></_>
    <_>
      <internalNodes>
        0 -1 55434 -708594940 1459720218 67117320 84267024 -1876393720
        -1744304118 554297384 -1604335218</internalNodes>
      <leafValues>
        -6.4858418703079224e-01 5.0911468267440796e-01</leafValues></_>
    <_>
      <internalNodes>
        0 -1 2123 1678737934 -166723584 272629795 -767423992 1343389953
        -2004875136 1082196207 -29208037</internalNodes>
      <leafValues>
        -5.9388202428817749e-01 5.4821091890335083e-01</leafValues></_>
    <_>
      <internalNodes>
        0 -1 42721 -2121693729 1300824577 16814167 1392508930
        -1970763104 -1426061280 -1995831286 1565704402</internalNodes>
      <leafValues>
        -6.3273364305496216e-01 5.0692564249038696e-01</leafValues></_></weakClassifiers></stage0>
</opencv_storage>
