<?xml version="1.0"?>
<opencv_storage>
<stage14>
  <maxWeakCount>13</maxWeakCount>
  <stageThreshold>-9.4437158107757568e-01</stageThreshold>
  <weakClassifiers>
    <_>
      <internalNodes>
        0 -1 45159 467457 -1931524783 1074040081 -1070415822 -644999903
        -343891828 -1030042156 538983436</internalNodes>
      <leafValues>
        -7.0312500000000000e-01 5.2070266008377075e-01</leafValues></_>
    <_>
      <internalNodes>
        0 -1 66794 -86510643 -1958485741 -737619627 1271091468 497254871
        -1980954620 -629022028 133679268</internalNodes>
      <leafValues>
        -4.5678061246871948e-01 4.2447111010551453e-01</leafValues></_>
    <_>
      <internalNodes>
        0 -1 15052 -261225916 -1258172377 402800723 -198092717
        -757562469 -661553109 -1868919845 1473446490</internalNodes>
      <leafValues>
        -4.6005231142044067e-01 4.1952717304229736e-01</leafValues></_>
    <_>
      <internalNodes>
        0 -1 714 -1979124737 -1456553678 -922332327 -549402364
        -1902111829 -1735393267 -1073651533 4309115</internalNodes>
      <leafValues>
        -5.0452792644500732e-01 3.6936438083648682e-01</leafValues></_>
    <_>
      <internalNodes>
        0 -1 67342 -505681185 -1760530048 1082253370 1388748816
        -905740149 -1965832187 -1265907249 -268371779</internalNodes>
      <leafValues>
        -4.7298118472099304e-01 4.2687711119651794e-01</leafValues></_>
    <_>
      <internalNodes>
        0 -1 66630 -167807185 1359432093 -1549614061 -490319198
        -641341184 -1073593343 -503136094 -198975070</internalNodes>
      <leafValues>
        -4.6861606836318970e-01 4.1369533538818359e-01</leafValues></_>
    <_>
      <internalNodes>
        0 -1 41565 -119113709 1359159296 -173928425 2074646529
        2038454522 -1684403953 164405993 -1159545792</internalNodes>
      <leafValues>
        -4.1655740141868591e-01 4.9667131900787354e-01</leafValues></_>
    <_>
      <internalNodes>
        0 -1 675 1101647173 1258348754 273913008 -713407560 -2121793111
        -1987442662 8429910 603420307</internalNodes>
      <leafValues>
        -4.7455123066902161e-01 4.1073599457740784e-01</leafValues></_>
    <_>
      <internalNodes>
        0 -1 36184 616630265 -2012999381 403838225 -187407104 613556226
        -1398636522 990034459 298905712</internalNodes>
      <leafValues>
        -7.6868647336959839e-01 2.7259734272956848e-01</leafValues></_>
    <_>
      <internalNodes>
        0 -1 34177 1779008154 -753887441 1409647040 437452931 1633395355
        -1341644487 -1525743413 2108530959</internalNodes>
      <leafValues>
        -4.6242097020149231e-01 4.4694292545318604e-01</leafValues></_>
    <_>
      <internalNodes>
        0 -1 2866 1967608831 1083785807 -214324782 1610670082 1879992577
        -721608632 -268262349 -180651421</internalNodes>
      <leafValues>
        -4.6233153343200684e-01 4.4411653280258179e-01</leafValues></_>
    <_>
      <internalNodes>
        0 -1 67599 1649287735 -344381033 1544640899 1116342668
        1512140429 -637221660 587696866 2003516208</internalNodes>
      <leafValues>
        -5.6594181060791016e-01 3.6982023715972900e-01</leafValues></_>
    <_>
      <internalNodes>
        0 -1 20924 -1354289222 -965807342 -1609121761 -368174829
        1263223227 -22118008 2013286559 -125273600</internalNodes>
      <leafValues>
        -5.3811764717102051e-01 3.9045348763465881e-01</leafValues></_></weakClassifiers></stage14>
</opencv_storage>
