<?xml version="1.0"?>
<opencv_storage>
<stage5>
  <maxWeakCount>13</maxWeakCount>
  <stageThreshold>-7.3600465059280396e-01</stageThreshold>
  <weakClassifiers>
    <_>
      <internalNodes>
        0 -1 44922 1622081711 1785466813 -1073781967 1344959795
        -41964238 -33685505 913779720 985280536</internalNodes>
      <leafValues>
        -4.6712017059326172e-01 6.0752308368682861e-01</leafValues></_>
    <_>
      <internalNodes>
        0 -1 12349 -1073033490 -782286255 -531578410 -1204669798
        1426081940 1195464912 -878097717 2140291618</internalNodes>
      <leafValues>
        -5.6284493207931519e-01 4.1532328724861145e-01</leafValues></_>
    <_>
      <internalNodes>
        0 -1 819 -1570834092 -796488059 1292419543 -36574672 1086824899
        193003601 19132531 1409241457</internalNodes>
      <leafValues>
        -5.3522765636444092e-01 3.9175266027450562e-01</leafValues></_>
    <_>
      <internalNodes>
        0 -1 66688 -33554561 922711854 -1426719132 1828650798 -34212031
        -1519913178 -67636640 -462422025</internalNodes>
      <leafValues>
        -4.5307493209838867e-01 5.0483739376068115e-01</leafValues></_>
    <_>
      <internalNodes>
        0 -1 45207 -1918955773 -2028662650 -2070305483 411048202
        -347460541 -825653069 -626517484 -1578188356</internalNodes>
      <leafValues>
        -6.0199487209320068e-01 3.5312968492507935e-01</leafValues></_>
    <_>
      <internalNodes>
        0 -1 67582 -88083725 -2040883256 -1694109105 -179256204
        -137648861 27321089 -1246875036 -1645038956</internalNodes>
      <leafValues>
        -4.8675119876861572e-01 4.4810083508491516e-01</leafValues></_>
    <_>
      <internalNodes>
        0 -1 55953 1904963903 1980842391 281671955 1880256977 2055236283
        -97933308 -610612295 2111522</internalNodes>
      <leafValues>
        -5.5037015676498413e-01 4.1786104440689087e-01</leafValues></_>
    <_>
      <internalNodes>
        0 -1 57196 -1994217709 -23367971 984791671 -1615044612 595001241
        -1145733379 -1284966983 -1279256</internalNodes>
      <leafValues>
        -4.3293583393096924e-01 5.5084937810897827e-01</leafValues></_>
    <_>
      <internalNodes>
        0 -1 6137 -758228898 -720223400 -770140902 -618656742 19040750
        -645183488 -2033833816 -1154922893</internalNodes>
      <leafValues>
        -5.0358587503433228e-01 4.6243047714233398e-01</leafValues></_>
    <_>
      <internalNodes>
        0 -1 48836 1365369571 1610076143 -1074085976 -1311258 -799424515
        1580234621 422951659 1515424511</internalNodes>
      <leafValues>
        -4.0831759572029114e-01 5.5597448348999023e-01</leafValues></_>
    <_>
      <internalNodes>
        0 -1 63395 -403229897 -515406059 -1073721231 -227524197
        -525260288 -2138896380 -2138453368 -2146435926</internalNodes>
      <leafValues>
        -4.8231682181358337e-01 4.9630951881408691e-01</leafValues></_>
    <_>
      <internalNodes>
        0 -1 21258 -653469578 529929538 -1862126823 -610172907
        -1342172935 -1467119600 645974175 1876435718</internalNodes>
      <leafValues>
        -4.8732873797416687e-01 5.0021171569824219e-01</leafValues></_>
    <_>
      <internalNodes>
        0 -1 6240 -967082121 1653785632 18897275 -1572182642 -225225184
        -2012175336 -1434318267 -939330814</internalNodes>
      <leafValues>
        -5.4858916997909546e-01 4.4963762164115906e-01</leafValues></_></weakClassifiers></stage5>
</opencv_storage>
