<?xml version="1.0"?>
<opencv_storage>
<stage12>
  <maxWeakCount>13</maxWeakCount>
  <stageThreshold>-1.0571093559265137e+00</stageThreshold>
  <weakClassifiers>
    <_>
      <internalNodes>
        0 -1 8771 672728433 583573660 -2029905844 1715663296 1409376256
        402704513 -988510134 4362</internalNodes>
      <leafValues>
        -6.7801856994628906e-01 5.6908971071243286e-01</leafValues></_>
    <_>
      <internalNodes>
        0 -1 1020 342797151 -1318154034 353801237 -205257052 269093023
        143267010 1746571935 1905477115</internalNodes>
      <leafValues>
        -4.3124994635581970e-01 4.8302245140075684e-01</leafValues></_>
    <_>
      <internalNodes>
        0 -1 54321 2008495901 2105523763 -1073866764 387947940
        1878179007 -306184251 829910128 -846494261</internalNodes>
      <leafValues>
        -4.0992209315299988e-01 5.1915442943572998e-01</leafValues></_>
    <_>
      <internalNodes>
        0 -1 3317 -1068004277 1400083195 86005726 2052784927 704846637
        -1323761588 -1643659415 -774278447</internalNodes>
      <leafValues>
        -4.2096143960952759e-01 4.9622091650962830e-01</leafValues></_>
    <_>
      <internalNodes>
        0 -1 17544 153515007 433651909 202904 911319233 -1174285271
        -1859360510 1107881779 1883295811</internalNodes>
      <leafValues>
        -6.1233818531036377e-01 3.3724820613861084e-01</leafValues></_>
    <_>
      <internalNodes>
        0 -1 67556 -63701449 544194218 -1090584983 -13586832 -705182443
        -1888029570 1968985185 -609235407</internalNodes>
      <leafValues>
        -4.2513605952262878e-01 5.2520757913589478e-01</leafValues></_>
    <_>
      <internalNodes>
        0 -1 63727 1266677847 -1649737730 -2051014789 -251920772
        1577050077 1752563575 -1627673701 -1875867073</internalNodes>
      <leafValues>
        -4.2534500360488892e-01 5.1529538631439209e-01</leafValues></_>
    <_>
      <internalNodes>
        0 -1 50647 -729296625 1910735899 1401127964 -997487334
        1079341414 1889665824 -1032904085 -196128443</internalNodes>
      <leafValues>
        -4.9857679009437561e-01 4.3247869610786438e-01</leafValues></_>
    <_>
      <internalNodes>
        0 -1 26834 274502874 1535713394 453052489 897783953 301995441
        -1463809503 1546764377 439042105</internalNodes>
      <leafValues>
        -5.2118688821792603e-01 4.4088479876518250e-01</leafValues></_>
    <_>
      <internalNodes>
        0 -1 15377 -1539076881 1615913101 -2143268616 -22913189
        -267947503 -91242110 -1828677099 -61136336</internalNodes>
      <leafValues>
        -5.4418677091598511e-01 4.1597902774810791e-01</leafValues></_>
    <_>
      <internalNodes>
        0 -1 5439 203258875 -1542417017 474044209 -288427659 2013284480
        -1199423104 137509120 235321418</internalNodes>
      <leafValues>
        -6.3044941425323486e-01 3.3371001482009888e-01</leafValues></_>
    <_>
      <internalNodes>
        0 -1 16325 -74151876 1906884618 -2126315501 -650043264
        1107890824 -926121981 -402619395 460707327</internalNodes>
      <leafValues>
        -4.8978775739669800e-01 4.7407022118568420e-01</leafValues></_>
    <_>
      <internalNodes>
        0 -1 53593 1785139 2128347463 29457789 2061799555 144242805
        -1599627117 -1700134859 1812215408</internalNodes>
      <leafValues>
        -6.7764359712600708e-01 3.4322986006736755e-01</leafValues></_></weakClassifiers></stage12>
</opencv_storage>
