<?xml version="1.0"?>
<opencv_storage>
<stage1>
  <maxWeakCount>9</maxWeakCount>
  <stageThreshold>-7.1472793817520142e-01</stageThreshold>
  <weakClassifiers>
    <_>
      <internalNodes>
        0 -1 50730 -1359003867 -1367343235 -1082130561 -1397686299
        794262357 -16842883 -311277711 -323948892</internalNodes>
      <leafValues>
        -6.0879123210906982e-01 6.6451615095138550e-01</leafValues></_>
    <_>
      <internalNodes>
        0 -1 30793 1356157407 2068422810 186224848 1901455452 -630464258
        -402216576 -1306144630 -1090150264</internalNodes>
      <leafValues>
        -5.6544536352157593e-01 5.5216175317764282e-01</leafValues></_>
    <_>
      <internalNodes>
        0 -1 59023 -132574 -713574618 -32783 -168460427 -50546940
        2004186928 -1349718840 -1043861350</internalNodes>
      <leafValues>
        -5.0489985942840576e-01 5.9887522459030151e-01</leafValues></_>
    <_>
      <internalNodes>
        0 -1 38913 -880047096 1361517829 -1810688196 1897762851
        -313143393 856769132 134402298 1604552842</internalNodes>
      <leafValues>
        -5.1206660270690918e-01 5.3772312402725220e-01</leafValues></_>
    <_>
      <internalNodes>
        0 -1 67366 -1351360551 -633683924 1118859734 -425246217
        -269897123 -273234765 -103748880 -1398260844</internalNodes>
      <leafValues>
        -5.7034409046173096e-01 4.9370339512825012e-01</leafValues></_>
    <_>
      <internalNodes>
        0 -1 50779 798963511 553577301 -637081099 -1214344262
        -1594803403 -618679803 -829955513 -50662128</internalNodes>
      <leafValues>
        -5.9451282024383545e-01 4.9873554706573486e-01</leafValues></_>
    <_>
      <internalNodes>
        0 -1 13307 -247006468 -1784741373 134484352 -683175463
        -787223491 -1145569144 -1996431718 431073552</internalNodes>
      <leafValues>
        -6.7554628849029541e-01 4.3481311202049255e-01</leafValues></_>
    <_>
      <internalNodes>
        0 -1 39412 -1074050083 -151253293 -134220289 -288063561
        -25739812 -1090527906 -1350591043 -289878640</internalNodes>
      <leafValues>
        -4.8472291231155396e-01 6.2494015693664551e-01</leafValues></_>
    <_>
      <internalNodes>
        0 -1 2387 -744423723 168092450 -670955361 -528328576 25560131
        -935151463 802357380 -512236545</internalNodes>
      <leafValues>
        -5.3225845098495483e-01 5.5020296573638916e-01</leafValues></_></weakClassifiers></stage1>
</opencv_storage>
