<?xml version="1.0"?>
<opencv_storage>
<stage13>
  <maxWeakCount>15</maxWeakCount>
  <stageThreshold>-1.0989365577697754e+00</stageThreshold>
  <weakClassifiers>
    <_>
      <internalNodes>
        0 -1 31904 1368436882 1292345355 -1138107243 -784394756
        446256829 -1661143708 879867275 -610850679</internalNodes>
      <leafValues>
        -3.8551121950149536e-01 5.4097574949264526e-01</leafValues></_>
    <_>
      <internalNodes>
        0 -1 4940 -2146164649 -1877790294 71304529 -256315224 402690187
        -1845395375 4674 1515475599</internalNodes>
      <leafValues>
        -5.1140791177749634e-01 4.1419968008995056e-01</leafValues></_>
    <_>
      <internalNodes>
        0 -1 65193 -1022114991 131346 4164 -519987000 8507777
        -2130706358 32896 690422568</internalNodes>
      <leafValues>
        -5.5760121345520020e-01 3.8698026537895203e-01</leafValues></_>
    <_>
      <internalNodes>
        0 -1 31949 -536752978 269484096 82048 1442878482 -2138906495
        814481440 -1996436469 1912815755</internalNodes>
      <leafValues>
        -5.1328736543655396e-01 4.7937110066413879e-01</leafValues></_>
    <_>
      <internalNodes>
        0 -1 12461 1904341047 1090527249 289439763 -325058544
        -2147368791 -2004811768 -2013067198 -125284349</internalNodes>
      <leafValues>
        -4.2587319016456604e-01 5.5421417951583862e-01</leafValues></_>
    <_>
      <internalNodes>
        0 -1 41224 1544061594 -1160742843 149014113 85062515 715247984
        1817765330 1115459027 1807336605</internalNodes>
      <leafValues>
        -4.5524531602859497e-01 5.1850175857543945e-01</leafValues></_>
    <_>
      <internalNodes>
        0 -1 2080 1712013554 -1039793919 -1879015340 -972924800
        1099038882 33685508 5279876 1675468866</internalNodes>
      <leafValues>
        -5.8828067779541016e-01 4.0042182803153992e-01</leafValues></_>
    <_>
      <internalNodes>
        0 -1 43457 -334833597 -803717328 -566807407 1414788961
        -1878687583 1200665785 -1333947942 714019907</internalNodes>
      <leafValues>
        -3.8574481010437012e-01 6.1555707454681396e-01</leafValues></_>
    <_>
      <internalNodes>
        0 -1 19115 2083871772 -34009567 -319443651 1258417168 -332563899
        -2073007055 -278655963 -884486518</internalNodes>
      <leafValues>
        -4.3604621291160583e-01 5.4761743545532227e-01</leafValues></_>
    <_>
      <internalNodes>
        0 -1 50876 310411712 -226459392 8470544 -1995669311 1207994515
        134742016 -805306199 143854081</internalNodes>
      <leafValues>
        -5.4619920253753662e-01 4.4991728663444519e-01</leafValues></_>
    <_>
      <internalNodes>
        0 -1 34037 -1862281024 -231577081 1328467965 -1781940353
        -2046827122 91504434 620727306 168543447</internalNodes>
      <leafValues>
        -4.2409697175025940e-01 5.7748037576675415e-01</leafValues></_>
    <_>
      <internalNodes>
        0 -1 67537 -381726517 -443337042 -17387992 100668082 -8641516
        -1536331906 -289409376 -397433713</internalNodes>
      <leafValues>
        -4.3253001570701599e-01 5.5790954828262329e-01</leafValues></_>
    <_>
      <internalNodes>
        0 -1 24713 -2064807864 -1279791504 -135385952 623341203 15918532
        -771986908 121753806 -1162787676</internalNodes>
      <leafValues>
        -4.4449529051780701e-01 5.6169104576110840e-01</leafValues></_>
    <_>
      <internalNodes>
        0 -1 17250 268653317 -1056374782 134745225 1346373653 32784
        8388610 -2130654720 -1304526569</internalNodes>
      <leafValues>
        -4.3743449449539185e-01 5.7128936052322388e-01</leafValues></_>
    <_>
      <internalNodes>
        0 -1 41217 -710737830 2023235221 1488455467 1496446881 217549305
        -1617920079 1121223770 -619917685</internalNodes>
      <leafValues>
        -3.4766769409179688e-01 7.7463638782501221e-01</leafValues></_></weakClassifiers></stage13>
</opencv_storage>
