<?xml version="1.0"?>
<opencv_storage>
<cascade>
  <stageType>BOOST</stageType>
  <featureType>LBP</featureType>
  <height>40</height>
  <width>40</width>
  <stageParams>
    <boostType>GAB</boostType>
    <minHitRate>9.9900001287460327e-01</minHitRate>
    <maxFalseAlarm>5.0000000000000000e-01</maxFalseAlarm>
    <weightTrimRate>9.4999999999999996e-01</weightTrimRate>
    <maxDepth>1</maxDepth>
    <maxWeakCount>100</maxWeakCount></stageParams>
  <featureParams>
    <maxCatCount>256</maxCatCount>
    <featSize>1</featSize></featureParams>
  <stageNum>20</stageNum>
  <stages>
    <!-- stage 0 -->
    <_>
      <maxWeakCount>6</maxWeakCount>
      <stageThreshold>-1.7278482913970947e+00</stageThreshold>
      <weakClassifiers>
        <_>
          <internalNodes>
            0 -1 29 -686097414 -577166973 37336 -539131765 -1038095877
            990183440 -964125029 -1884296566</internalNodes>
          <leafValues>
            -7.1700108051300049e-01 5.6823819875717163e-01</leafValues></_>
        <_>
          <internalNodes>
            0 -1 43 1557635822 -682016454 16795778 -678084544 -132132662
            715129000 -1018954801 1464063558</internalNodes>
          <leafValues>
            -6.5647053718566895e-01 5.7221114635467529e-01</leafValues></_>
        <_>
          <internalNodes>
            0 -1 78 -255688024 -249976523 277020957 2033664134
            -1920221009 -98496065 -1433800550 35356815</internalNodes>
          <leafValues>
            -6.2570154666900635e-01 5.7666021585464478e-01</leafValues></_>
        <_>
          <internalNodes>
            0 -1 100 1406398720 1427241483 1107825280 -1265335452
            -2012622584 -486235776 -1052401408 -1986547262</internalNodes>
          <leafValues>
            -7.2727578878402710e-01 4.7922885417938232e-01</leafValues></_>
        <_>
          <internalNodes>
            0 -1 42 -1990839809 -251313959 423645260 272646484
            -1073571446 -878477169 -1450541488 -61449374</internalNodes>
          <leafValues>
            -7.0228362083435059e-01 5.0220030546188354e-01</leafValues></_>
        <_>
          <internalNodes>
            0 -1 71 -266698498 1442529552 1342181401 2144725641
            -1031239527 471859344 746816203 1230573759</internalNodes>
          <leafValues>
            -6.7890250682830811e-01 4.9437955021858215e-01</leafValues></_></weakClassifiers></_>
    <!-- stage 1 -->
    <_>
      <maxWeakCount>7</maxWeakCount>
      <stageThreshold>-1.2852627038955688e+00</stageThreshold>
      <weakClassifiers>
        <_>
          <internalNodes>
            0 -1 33 804759551 -1141024050 -1748241953 -553596472
            -350053126 1054425217 -351667461 2130965391</internalNodes>
          <leafValues>
            -7.5350821018218994e-01 3.1573987007141113e-01</leafValues></_>
        <_>
          <internalNodes>
            0 -1 69 -572530722 -141372586 352473489 -574237356
            -628450408 -82278325 -418378760 -74948072</internalNodes>
          <leafValues>
            -6.3817948102951050e-01 4.8473742604255676e-01</leafValues></_>
        <_>
          <internalNodes>
            0 -1 59 1901330202 291053826 -1811891750 2101788931
            1510714367 2010316866 17021610 924080904</internalNodes>
          <leafValues>
            -7.5876277685165405e-01 3.7737515568733215e-01</leafValues></_>
        <_>
          <internalNodes>
            0 -1 122 1876887551 1989924942 2132012247 -88406690
            -154418181 -690307057 -470028307 1977557237</internalNodes>
          <leafValues>
            -6.6228020191192627e-01 4.4958692789077759e-01</leafValues></_>
        <_>
          <internalNodes>
            0 -1 82 2027687112 1003520328 369099865 2034848601 152086953
            -179306096 164899546 2142972171</internalNodes>
          <leafValues>
            -6.9537025690078735e-01 4.4483977556228638e-01</leafValues></_>
        <_>
          <internalNodes>
            0 -1 45 -548339844 -546111337 286265596 -677703289
            -1031344449 -1437958141 -1761031438 -1708933278</internalNodes>
          <leafValues>
            -5.8157628774642944e-01 5.8818399906158447e-01</leafValues></_>
        <_>
          <internalNodes>
            0 -1 73 -556007497 1590493168 -38420677 -16744843
            -1078394984 -567148903 -293765219 1799903639</internalNodes>
          <leafValues>
            -5.2796047925949097e-01 5.8963274955749512e-01</leafValues></_></weakClassifiers></_>
    <!-- stage 2 -->
    <_>
      <maxWeakCount>6</maxWeakCount>
      <stageThreshold>-1.7954357862472534e+00</stageThreshold>
      <weakClassifiers>
        <_>
          <internalNodes>
            0 -1 48 -1426063361 -285285505 -1030762085 -824249686
            -87556113 -75267493 -67386945 -83955969</internalNodes>
          <leafValues>
            -6.8517518043518066e-01 4.3905326724052429e-01</leafValues></_>
        <_>
          <internalNodes>
            0 -1 32 1860075263 -8398850 -653276169 -11677688 -1716526401
            -1148482632 -1148194897 1560402578</internalNodes>
          <leafValues>
            -6.2835717201232910e-01 4.7320294380187988e-01</leafValues></_>
        <_>
          <internalNodes>
            0 -1 95 -1545388265 720371647 -647458433 -1474502817
            994819381 -80235457 -1090609674 -327103020</internalNodes>
          <leafValues>
            -7.2671896219253540e-01 4.0367516875267029e-01</leafValues></_>
        <_>
          <internalNodes>
            0 -1 101 -671352865 -11340824 -556540676 -73793963
            -1680916482 -809319891 -338800528 -1917166116</internalNodes>
          <leafValues>
            -5.8421373367309570e-01 5.0195854902267456e-01</leafValues></_>
        <_>
          <internalNodes>
            0 -1 75 -925391879 -715415091 319256377 1419924240
            -1383859806 -578441321 453997497 319848634</internalNodes>
          <leafValues>
            -7.2024244070053101e-01 4.5183578133583069e-01</leafValues></_>
        <_>
          <internalNodes>
            0 -1 4 -46203138 -548275233 1112194974 -671644738
            -1618215565 -69009390 -1964253766 465404752</internalNodes>
          <leafValues>
            -7.4289792776107788e-01 3.7719345092773438e-01</leafValues></_></weakClassifiers></_>
    <!-- stage 3 -->
    <_>
      <maxWeakCount>7</maxWeakCount>
      <stageThreshold>-1.3959459066390991e+00</stageThreshold>
      <weakClassifiers>
        <_>
          <internalNodes>
            0 -1 17 -444600321 -491876657 -1811361313 -253049202
            2054904655 229911 -223872849 -731907857</internalNodes>
          <leafValues>
            -7.2124165296554565e-01 2.6963102817535400e-01</leafValues></_>
        <_>
          <internalNodes>
            0 -1 109 -336107770 1934974239 -980364866 1945362839
            -668403456 1126910036 -1014500224 -1047004750</internalNodes>
          <leafValues>
            -6.9027650356292725e-01 3.4417065978050232e-01</leafValues></_>
        <_>
          <internalNodes>
            0 -1 111 1994383231 -3155593 -248406018 1351802271
            -231214306 -114036725 -158347526 -1472589254</internalNodes>
          <leafValues>
            -5.7552325725555420e-01 4.8557901382446289e-01</leafValues></_>
        <_>
          <internalNodes>
            0 -1 68 2059436248 1460359624 -1518235307 2112828639
            -1189751857 -170917712 2133037214 2137850227</internalNodes>
          <leafValues>
            -6.3778275251388550e-01 4.3523761630058289e-01</leafValues></_>
        <_>
          <internalNodes>
            0 -1 90 -1024471409 -443851661 -2003726061 -263566733
            -1285090481 -606879353 537008938 -531218096</internalNodes>
          <leafValues>
            -7.2660154104232788e-01 4.0819051861763000e-01</leafValues></_>
        <_>
          <internalNodes>
            0 -1 31 -96479697 -889460745 -67184926 -9837832 1207934809
            -949256835 -1040992557 -7074</internalNodes>
          <leafValues>
            -4.7532153129577637e-01 6.0779702663421631e-01</leafValues></_>
        <_>
          <internalNodes>
            0 -1 27 1351001194 -40775540 1342228425 -40779637 -530920498
            -74889216 -1451046900 1850918916</internalNodes>
          <leafValues>
            -7.0432364940643311e-01 4.0548154711723328e-01</leafValues></_></weakClassifiers></_>
    <!-- stage 4 -->
    <_>
      <maxWeakCount>5</maxWeakCount>
      <stageThreshold>-1.2634381055831909e+00</stageThreshold>
      <weakClassifiers>
        <_>
          <internalNodes>
            0 -1 35 -297613194 -862203683 -1719373530 -6629245
            1731611647 -351594110 1266869247 -834926</internalNodes>
          <leafValues>
            -7.5698506832122803e-01 2.2825150191783905e-01</leafValues></_>
        <_>
          <internalNodes>
            0 -1 92 285802462 1489273669 1367396312 -543903008 570589935
            884998180 -576861201 978307847</internalNodes>
          <leafValues>
            -6.4275103807449341e-01 3.8556501269340515e-01</leafValues></_>
        <_>
          <internalNodes>
            0 -1 14 -1592431106 -1107823196 -804130493 -175707512
            -117322774 159491017 -1459250550 1963061474</internalNodes>
          <leafValues>
            -6.9177639484405518e-01 3.7817558646202087e-01</leafValues></_>
        <_>
          <internalNodes>
            0 -1 106 -243270675 -543498095 1573082480 -1076760428
            -996412936 1296108337 1346871520 1072419241</internalNodes>
          <leafValues>
            -5.9521573781967163e-01 4.5209825038909912e-01</leafValues></_>
        <_>
          <internalNodes>
            0 -1 10 -140510223 1084473752 1325588805 -1143744382
            -1978418286 1267163941 -525892509 1744293591</internalNodes>
          <leafValues>
            -5.9026241302490234e-01 5.0753515958786011e-01</leafValues></_></weakClassifiers></_>
    <!-- stage 5 -->
    <_>
      <maxWeakCount>5</maxWeakCount>
      <stageThreshold>-9.9650633335113525e-01</stageThreshold>
      <weakClassifiers>
        <_>
          <internalNodes>
            0 -1 47 -1421606945 -453583009 -536750369 -938860232
            1103684543 -846487073 -712672069 -17106245</internalNodes>
          <leafValues>
            -6.9931662082672119e-01 3.4745761752128601e-01</leafValues></_>
        <_>
          <internalNodes>
            0 -1 5 -76028045 1456718222 -1258176005 -174902653
            -915942949 -659861373 -1032601513 926107187</internalNodes>
          <leafValues>
            -5.2353411912918091e-01 5.8133089542388916e-01</leafValues></_>
        <_>
          <internalNodes>
            0 -1 76 -1951432809 -405809633 -2013233673 -266809441
            176929013 -109061993 -1076535087 -25134768</internalNodes>
          <leafValues>
            -6.1536180973052979e-01 4.7190377116203308e-01</leafValues></_>
        <_>
          <internalNodes>
            0 -1 79 -452228606 289084039 21853266 329195299 1324475605
            1896907912 -1752790532 2134872462</internalNodes>
          <leafValues>
            -6.5532183647155762e-01 4.3314218521118164e-01</leafValues></_>
        <_>
          <internalNodes>
            0 -1 72 1165951735 -288554659 587774407 -695060975
            -570163990 -134217701 522881208 -1954352616</internalNodes>
          <leafValues>
            -6.3821023702621460e-01 4.5403283834457397e-01</leafValues></_></weakClassifiers></_>
    <!-- stage 6 -->
    <_>
      <maxWeakCount>6</maxWeakCount>
      <stageThreshold>-1.7267025709152222e+00</stageThreshold>
      <weakClassifiers>
        <_>
          <internalNodes>
            0 -1 65 -1811615041 -1626433134 -2079653837 2097520913
            991601808 -1087885296 -1449092867 -32978024</internalNodes>
          <leafValues>
            -7.7735370397567749e-01 2.8546097874641418e-01</leafValues></_>
        <_>
          <internalNodes>
            0 -1 40 -438862897 -623295087 -1441484551 -1127819499
            1002778165 -1315758943 -608441544 1172978490</internalNodes>
          <leafValues>
            -6.7913317680358887e-01 4.1922086477279663e-01</leafValues></_>
        <_>
          <internalNodes>
            0 -1 113 -4195329 721399551 -16908650 -25297181 -54526105
            1341062989 -9440201 -134481929</internalNodes>
          <leafValues>
            -4.9390050768852234e-01 6.4389717578887939e-01</leafValues></_>
        <_>
          <internalNodes>
            0 -1 97 1117577694 1429232784 -1827470418 -136273680
            18252508 1487708352 -116881185 1122882011</internalNodes>
          <leafValues>
            -6.2814450263977051e-01 4.8084908723831177e-01</leafValues></_>
        <_>
          <internalNodes>
            0 -1 58 -1906325793 -1462232770 -1655552261 -937161406
            -240627383 -1375483573 -291249173 -361827851</internalNodes>
          <leafValues>
            -5.5402827262878418e-01 5.3348779678344727e-01</leafValues></_>
        <_>
          <internalNodes>
            0 -1 44 270820042 -149562027 1345536029 -612865798
            1443081131 2088782473 310496831 865130788</internalNodes>
          <leafValues>
            -7.4447304010391235e-01 4.0531671047210693e-01</leafValues></_></weakClassifiers></_>
    <!-- stage 7 -->
    <_>
      <maxWeakCount>6</maxWeakCount>
      <stageThreshold>-1.6379112005233765e+00</stageThreshold>
      <weakClassifiers>
        <_>
          <internalNodes>
            0 -1 53 -1434983921 -465518329 -2137492833 -498302125
            -959864435 -107467390 -664548771 -118560122</internalNodes>
          <leafValues>
            -7.6506388187408447e-01 3.3774834871292114e-01</leafValues></_>
        <_>
          <internalNodes>
            0 -1 13 -268445458 1854899113 -1876901014 -92198641
            -521304741 1097703490 394658113 2008234803</internalNodes>
          <leafValues>
            -7.7178102731704712e-01 3.6800631880760193e-01</leafValues></_>
        <_>
          <internalNodes>
            0 -1 118 -276829325 1873803838 -1073807383 -1347159042
            -1200300 2135816823 -287328924 -4194989</internalNodes>
          <leafValues>
            -4.9468326568603516e-01 6.1375588178634644e-01</leafValues></_>
        <_>
          <internalNodes>
            0 -1 23 -522223697 836710753 -2099131686 -1764440176
            -375964623 -369899335 159982025 1114058539</internalNodes>
          <leafValues>
            -6.3304734230041504e-01 4.7145974636077881e-01</leafValues></_>
        <_>
          <internalNodes>
            0 -1 51 1364266744 1532049346 570740766 -645553687
            1389807794 402702482 2084184093 1407013787</internalNodes>
          <leafValues>
            -5.9836781024932861e-01 4.8079562187194824e-01</leafValues></_>
        <_>
          <internalNodes>
            0 -1 98 -1055918627 2022715481 297958757 -31432941
            -1445252417 -5223287 1084732159 -1355283888</internalNodes>
          <leafValues>
            -5.9391862154006958e-01 5.2870148420333862e-01</leafValues></_></weakClassifiers></_>
    <!-- stage 8 -->
    <_>
      <maxWeakCount>5</maxWeakCount>
      <stageThreshold>-1.4501100778579712e+00</stageThreshold>
      <weakClassifiers>
        <_>
          <internalNodes>
            0 -1 91 -2071475665 -648440421 420482051 -531875395
            974724643 -1647210233 -1560057297 -185932473</internalNodes>
          <leafValues>
            -7.9698753356933594e-01 2.7024722099304199e-01</leafValues></_>
        <_>
          <internalNodes>
            0 -1 57 162012979 -1547484806 -2130491955 -2161067
            -1810935071 -1194292080 -938812687 7836141</internalNodes>
          <leafValues>
            -7.3808676004409790e-01 3.8886746764183044e-01</leafValues></_>
        <_>
          <internalNodes>
            0 -1 87 -389600629 -150392629 -1761539764 -712109556
            176462520 -888585712 -492263223 1903874521</internalNodes>
          <leafValues>
            -7.0775663852691650e-01 3.7412947416305542e-01</leafValues></_>
        <_>
          <internalNodes>
            0 -1 22 -203694409 -1203723337 -865009588 1813686818
            -340811795 -9779701 1102897884 -155124415</internalNodes>
          <leafValues>
            -6.5804195404052734e-01 4.5431745052337646e-01</leafValues></_>
        <_>
          <internalNodes>
            0 -1 50 -1541460217 1711852649 1992573020 -831727200
            285922462 -880277333 1663062655 -292914008</internalNodes>
          <leafValues>
            -6.9835805892944336e-01 4.3813359737396240e-01</leafValues></_></weakClassifiers></_>
    <!-- stage 9 -->
    <_>
      <maxWeakCount>6</maxWeakCount>
      <stageThreshold>-1.5344382524490356e+00</stageThreshold>
      <weakClassifiers>
        <_>
          <internalNodes>
            0 -1 86 252130303 -1358233515 1090785484 1973305378
            -121311021 -1288666945 -928333430 231734202</internalNodes>
          <leafValues>
            -7.4682080745697021e-01 4.0412372350692749e-01</leafValues></_>
        <_>
          <internalNodes>
            0 -1 39 127354741 89330140 -644497075 -847055474 -259058400
            250319050 -939290758 1091277818</internalNodes>
          <leafValues>
            -6.9806754589080811e-01 3.9059498906135559e-01</leafValues></_>
        <_>
          <internalNodes>
            0 -1 80 -881568588 2039546119 1409646781 529503972
            -1689727824 -1819467552 674809559 -32518397</internalNodes>
          <leafValues>
            -5.7775390148162842e-01 5.1854509115219116e-01</leafValues></_>
        <_>
          <internalNodes>
            0 -1 103 2147483643 -84934657 1870528511 -85574145 -263206
            -1101333421 -518 -530131201</internalNodes>
          <leafValues>
            -4.6086743474006653e-01 6.4177185297012329e-01</leafValues></_>
        <_>
          <internalNodes>
            0 -1 105 -136481760 -1029982441 1342750784 -471322183
            -263496447 -1492418553 1860403936 -519318902</internalNodes>
          <leafValues>
            -6.0775578022003174e-01 4.8632642626762390e-01</leafValues></_>
        <_>
          <internalNodes>
            0 -1 93 1192741633 -79065045 1562450245 -1576542961
            -653696079 2065797259 -1026617441 114523957</internalNodes>
          <leafValues>
            -6.1028915643692017e-01 4.6816471219062805e-01</leafValues></_></weakClassifiers></_>
    <!-- stage 10 -->
    <_>
      <maxWeakCount>6</maxWeakCount>
      <stageThreshold>-1.2958498001098633e+00</stageThreshold>
      <weakClassifiers>
        <_>
          <internalNodes>
            0 -1 1 -606143489 -134314788 1573046365 -6489141 242407855
            -1413447110 -947682401 -290930753</internalNodes>
          <leafValues>
            -7.1575343608856201e-01 3.7341773509979248e-01</leafValues></_>
        <_>
          <internalNodes>
            0 -1 63 1427500798 2103251073 -1770521826 -108296939
            382335474 2114021524 -775032865 2132383739</internalNodes>
          <leafValues>
            -6.4537030458450317e-01 4.1958364844322205e-01</leafValues></_>
        <_>
          <internalNodes>
            0 -1 24 -855640101 -35651617 -4162 -353501756 -51380296
            -143130804 -671093300 -2097208</internalNodes>
          <leafValues>
            -4.9768638610839844e-01 6.1294263601303101e-01</leafValues></_>
        <_>
          <internalNodes>
            0 -1 66 -220252801 -287311425 -687355393 -293968513
            -557961349 -24400361 -360120977 -186722684</internalNodes>
          <leafValues>
            -5.5909609794616699e-01 5.0688862800598145e-01</leafValues></_>
        <_>
          <internalNodes>
            0 -1 85 -1342238947 -9519121 -285278661 -16810057
            -1879052321 1610612715 117403582 -1930395652</internalNodes>
          <leafValues>
            -4.8411682248115540e-01 6.0917431116104126e-01</leafValues></_>
        <_>
          <internalNodes>
            0 -1 12 -293667841 -690838134 352604177 -687177084
            1078518444 -74577782 567264211 -576726782</internalNodes>
          <leafValues>
            -5.2476549148559570e-01 5.5286747217178345e-01</leafValues></_></weakClassifiers></_>
    <!-- stage 11 -->
    <_>
      <maxWeakCount>7</maxWeakCount>
      <stageThreshold>-2.2363958358764648e+00</stageThreshold>
      <weakClassifiers>
        <_>
          <internalNodes>
            0 -1 7 455030261 -167852645 -1924984931 -582225569 -91628101
            -214703181 -68214273 -6291521</internalNodes>
          <leafValues>
            -6.2742173671722412e-01 5.2838426828384399e-01</leafValues></_>
        <_>
          <internalNodes>
            0 -1 36 1522597597 -683555873 -637344595 -264068392
            -802407764 -337995711 -89064721 -584779283</internalNodes>
          <leafValues>
            -6.5709537267684937e-01 4.5339742302894592e-01</leafValues></_>
        <_>
          <internalNodes>
            0 -1 2 1119016903 60027409 -913125089 -673332911 10983833
            -1291870042 1384244195 261421493</internalNodes>
          <leafValues>
            -6.4900559186935425e-01 4.3347930908203125e-01</leafValues></_>
        <_>
          <internalNodes>
            0 -1 104 -171182753 2064767249 -250264169 -767248637
            -121374213 -1120042567 -895538179 -198137738</internalNodes>
          <leafValues>
            -5.7479947805404663e-01 5.1104384660720825e-01</leafValues></_>
        <_>
          <internalNodes>
            0 -1 89 89333979 512685151 -787935096 -16400316 -1341067815
            1913930123 -1718361669 1342558715</internalNodes>
          <leafValues>
            -6.3614696264266968e-01 5.0937312841415405e-01</leafValues></_>
        <_>
          <internalNodes>
            0 -1 81 -389814321 -800747109 473272522 -535133901
            1502038956 -23355392 593692908 -1157738758</internalNodes>
          <leafValues>
            -6.5106618404388428e-01 4.4498422741889954e-01</leafValues></_>
        <_>
          <internalNodes>
            0 -1 94 228424266 -39907060 -2130327050 -15006701 126176493
            -91682687 198900 -1313085310</internalNodes>
          <leafValues>
            -6.7222386598587036e-01 4.3659761548042297e-01</leafValues></_></weakClassifiers></_>
    <!-- stage 12 -->
    <_>
      <maxWeakCount>5</maxWeakCount>
      <stageThreshold>-1.0972219705581665e+00</stageThreshold>
      <weakClassifiers>
        <_>
          <internalNodes>
            0 -1 84 -96995373 -13643635 -733637665 -560050117 -608726017
            -71580625 -1448101633 -21337864</internalNodes>
          <leafValues>
            -6.9265031814575195e-01 3.8053098320960999e-01</leafValues></_>
        <_>
          <internalNodes>
            0 -1 18 -472415273 1717737766 1350911003 -1030438588
            -811631637 -1073233446 1236261011 -1070409221</internalNodes>
          <leafValues>
            -6.5581494569778442e-01 4.3446981906890869e-01</leafValues></_>
        <_>
          <internalNodes>
            0 -1 110 -2392193 -725897725 1225777339 -1835805307
            -1031548451 -36444017 -276880471 1375780798</internalNodes>
          <leafValues>
            -6.5517580509185791e-01 4.4021031260490417e-01</leafValues></_>
        <_>
          <internalNodes>
            0 -1 11 819897343 -1107509174 1476874422 -246875704
            1879316989 819462477 -108547650 453237467</internalNodes>
          <leafValues>
            -6.2607955932617188e-01 4.3747019767761230e-01</leafValues></_>
        <_>
          <internalNodes>
            0 -1 26 -508380430 1594939731 1510166591 -36516028
            -528287024 -373522293 -1428615008 -1073742316</internalNodes>
          <leafValues>
            -6.0423237085342407e-01 5.0136888027191162e-01</leafValues></_></weakClassifiers></_>
    <!-- stage 13 -->
    <_>
      <maxWeakCount>7</maxWeakCount>
      <stageThreshold>-2.2987711429595947e+00</stageThreshold>
      <weakClassifiers>
        <_>
          <internalNodes>
            0 -1 99 -351815045 -48245795 -1207860908 -49113549
            -1399160641 -1087747398 -698312504 -1074998602</internalNodes>
          <leafValues>
            -6.9230771064758301e-01 3.9305710792541504e-01</leafValues></_>
        <_>
          <internalNodes>
            0 -1 6 105991937 1542434959 1364924369 -2317634 -1962155825
            -80377841 60277411 1165219443</internalNodes>
          <leafValues>
            -6.9141292572021484e-01 3.6012846231460571e-01</leafValues></_>
        <_>
          <internalNodes>
            0 -1 46 1225195134 1804809190 33788083 -206185257
            -1316013874 -133545848 -228336486 2103144954</internalNodes>
          <leafValues>
            -6.1378288269042969e-01 4.7547221183776855e-01</leafValues></_>
        <_>
          <internalNodes>
            0 -1 114 -304154689 -1509303349 -2133457963 -321914063
            -443812332 -385558877 -1056717840 -167972672</internalNodes>
          <leafValues>
            -6.3118678331375122e-01 4.3126982450485229e-01</leafValues></_>
        <_>
          <internalNodes>
            0 -1 77 -1001658107 -687140421 269045860 -257664102
            -2092375165 -427016061 -876025169 -751848448</internalNodes>
          <leafValues>
            -6.1510109901428223e-01 4.6360146999359131e-01</leafValues></_>
        <_>
          <internalNodes>
            0 -1 9 1326936917 -1949109162 -1056865317 1304613021
            1118540007 -2004836222 29585889 1470231539</internalNodes>
          <leafValues>
            -6.1829847097396851e-01 4.4818833470344543e-01</leafValues></_>
        <_>
          <internalNodes>
            0 -1 112 2090561649 -891957108 -45970982 -32517228
            -1430010526 -1243422719 -1528037750 -376516164</internalNodes>
          <leafValues>
            -5.8839291334152222e-01 4.7852310538291931e-01</leafValues></_></weakClassifiers></_>
    <!-- stage 14 -->
    <_>
      <maxWeakCount>6</maxWeakCount>
      <stageThreshold>-1.3443577289581299e+00</stageThreshold>
      <weakClassifiers>
        <_>
          <internalNodes>
            0 -1 120 -67178529 873693426 -752167333 -113000217
            -1164049491 -1551267830 -918468460 -46141442</internalNodes>
          <leafValues>
            -6.7591083049774170e-01 3.9837399125099182e-01</leafValues></_>
        <_>
          <internalNodes>
            0 -1 116 -403905569 -1042286888 -1048346340 -527128517
            -796149589 -1673275349 -71108165 -1064706887</internalNodes>
          <leafValues>
            -5.5978077650070190e-01 5.2353078126907349e-01</leafValues></_>
        <_>
          <internalNodes>
            0 -1 74 -1411006531 -499068223 -779530197 -28556786
            -889076327 -1701920403 -2120120262 -662965318</internalNodes>
          <leafValues>
            -5.7319039106369019e-01 5.3445088863372803e-01</leafValues></_>
        <_>
          <internalNodes>
            0 -1 60 1430581990 1900143579 -1479421862 -115748797
            1574896302 1654096431 1225634303 2133320826</internalNodes>
          <leafValues>
            -5.7942056655883789e-01 4.9105450510978699e-01</leafValues></_>
        <_>
          <internalNodes>
            0 -1 41 -1711542593 -1443364867 1879015349 -1157840914
            117407998 -1153564868 -536879525 -1075053088</internalNodes>
          <leafValues>
            -5.0192326307296753e-01 5.7755196094512939e-01</leafValues></_>
        <_>
          <internalNodes>
            0 -1 15 222502743 -1407500120 -1861127269 -651232504
            1075991125 -129406621 135892046 -11578038</internalNodes>
          <leafValues>
            -6.0789191722869873e-01 4.7976949810981750e-01</leafValues></_></weakClassifiers></_>
    <!-- stage 15 -->
    <_>
      <maxWeakCount>6</maxWeakCount>
      <stageThreshold>-2.0329854488372803e+00</stageThreshold>
      <weakClassifiers>
        <_>
          <internalNodes>
            0 -1 30 1495087125 -741631353 -1493086985 -208669703
            -536633089 1389821983 -1065096909 -62920985</internalNodes>
          <leafValues>
            -6.7703217267990112e-01 3.9331027865409851e-01</leafValues></_>
        <_>
          <internalNodes>
            0 -1 64 249529841 714379400 -1341287937 1929871717
            -1145003948 -1082032111 1830846763 140235775</internalNodes>
          <leafValues>
            -6.8375235795974731e-01 3.9224734902381897e-01</leafValues></_>
        <_>
          <internalNodes>
            0 -1 25 -606289 -174394882 -748970132 -88041074 -4474821
            1831020302 -1463732288 1607744892</internalNodes>
          <leafValues>
            -7.7410244941711426e-01 3.3051618933677673e-01</leafValues></_>
        <_>
          <internalNodes>
            0 -1 54 -1491208773 -1600991766 -516845065 -1975725373
            1460391773 -514637109 -752628941 -285410390</internalNodes>
          <leafValues>
            -6.0478901863098145e-01 4.6791806817054749e-01</leafValues></_>
        <_>
          <internalNodes>
            0 -1 52 908471918 1536266587 1342742735 -770584274
            1648419026 805683369 1922438895 1459704148</internalNodes>
          <leafValues>
            -8.7637305259704590e-01 3.1186947226524353e-01</leafValues></_>
        <_>
          <internalNodes>
            0 -1 102 532625275 937394627 -1809767945 -577433314
            -653027238 1524910221 1374259646 -2068819480</internalNodes>
          <leafValues>
            -7.0926308631896973e-01 3.9482116699218750e-01</leafValues></_></weakClassifiers></_>
    <!-- stage 16 -->
    <_>
      <maxWeakCount>6</maxWeakCount>
      <stageThreshold>-1.3981500864028931e+00</stageThreshold>
      <weakClassifiers>
        <_>
          <internalNodes>
            0 -1 8 -78055629 -978342453 -526704461 -572590574
            -1207450767 1510196297 -1222383049 -1605</internalNodes>
          <leafValues>
            -6.7721182107925415e-01 4.3473052978515625e-01</leafValues></_>
        <_>
          <internalNodes>
            0 -1 16 35125503 -936476426 -804761255 1886945538 1405347047
            -918312955 1923738275 -266669409</internalNodes>
          <leafValues>
            -6.8750423192977905e-01 3.8457271456718445e-01</leafValues></_>
        <_>
          <internalNodes>
            0 -1 37 1831632748 -9834497 2133769854 -1 1048573951
            -25182217 -134283364 -1192289093</internalNodes>
          <leafValues>
            -5.1847612857818604e-01 5.4251939058303833e-01</leafValues></_>
        <_>
          <internalNodes>
            0 -1 70 -1896971009 1071808383 -1224802433 -167804931
            -838930567 1052540797 -1073813585 -207364</internalNodes>
          <leafValues>
            -4.6624007821083069e-01 5.7852619886398315e-01</leafValues></_>
        <_>
          <internalNodes>
            0 -1 49 2099230386 387645730 -1743773292 958497683
            -484324896 -349110264 -1996313909 -1612739337</internalNodes>
          <leafValues>
            -5.4291379451751709e-01 5.3680253028869629e-01</leafValues></_>
        <_>
          <internalNodes>
            0 -1 119 -1613509073 -802437369 -200432510 1304348136
            -29140097 -1622952789 -1946955712 -19399359</internalNodes>
          <leafValues>
            -6.1156582832336426e-01 4.6792903542518616e-01</leafValues></_></weakClassifiers></_>
    <!-- stage 17 -->
    <_>
      <maxWeakCount>7</maxWeakCount>
      <stageThreshold>-1.4094148874282837e+00</stageThreshold>
      <weakClassifiers>
        <_>
          <internalNodes>
            0 -1 38 -820910161 2060533776 407970013 -1790935010
            -1598503524 531900553 612483755 818249818</internalNodes>
          <leafValues>
            -7.9017263650894165e-01 2.4288107454776764e-01</leafValues></_>
        <_>
          <internalNodes>
            0 -1 56 600508383 717804430 -753204109 -858213363 1224845311
            261327515 -1446417493 -285413444</internalNodes>
          <leafValues>
            -6.9893455505371094e-01 3.5185712575912476e-01</leafValues></_>
        <_>
          <internalNodes>
            0 -1 108 -607150265 -67889975 420837759 1623365723
            -502316545 -1272864254 -242918783 1085319914</internalNodes>
          <leafValues>
            -7.3489212989807129e-01 3.7994867563247681e-01</leafValues></_>
        <_>
          <internalNodes>
            0 -1 0 -285315337 -1541 2147481445 1317893111 -1074006017
            -536903682 -537133057 -1444981522</internalNodes>
          <leafValues>
            -4.5848634839057922e-01 6.3607722520828247e-01</leafValues></_>
        <_>
          <internalNodes>
            0 -1 83 1178240762 1468035151 8442069 -16429023 -1551848967
            -1962933103 536969363 2065269377</internalNodes>
          <leafValues>
            -6.6152417659759521e-01 4.6969974040985107e-01</leafValues></_>
        <_>
          <internalNodes>
            0 -1 88 256213983 1125319175 16909715 -649264883 -2054756181
            -922058620 -242696502 1346426850</internalNodes>
          <leafValues>
            -6.8244260549545288e-01 4.3515959382057190e-01</leafValues></_>
        <_>
          <internalNodes>
            0 -1 21 -668566443 -682639017 3440 849586832 -786316427
            -249462655 25854629 -146650829</internalNodes>
          <leafValues>
            -6.2818193435668945e-01 4.5518252253532410e-01</leafValues></_></weakClassifiers></_>
    <!-- stage 18 -->
    <_>
      <maxWeakCount>7</maxWeakCount>
      <stageThreshold>-1.2989360094070435e+00</stageThreshold>
      <weakClassifiers>
        <_>
          <internalNodes>
            0 -1 107 2098699203 -640169175 -1987258027 -2272913
            1016662718 -1918168936 -1953654028 -539335705</internalNodes>
          <leafValues>
            -6.9891244173049927e-01 3.3683106303215027e-01</leafValues></_>
        <_>
          <internalNodes>
            0 -1 3 -1073294090 -248477933 -1038298855 -618707993
            -519885382 -1060534119 -32785937 1963918313</internalNodes>
          <leafValues>
            -5.7734507322311401e-01 4.1887131333351135e-01</leafValues></_>
        <_>
          <internalNodes>
            0 -1 19 -74450117 -1057111639 -535522030 -365391800
            -108777181 -112631286 -75003163 -270091293</internalNodes>
          <leafValues>
            -5.3700321912765503e-01 5.0113320350646973e-01</leafValues></_>
        <_>
          <internalNodes>
            0 -1 115 -690028769 566600095 -1853881950 -40904265
            -356106206 -411199339 -1104961532 -10093260</internalNodes>
          <leafValues>
            -6.1755204200744629e-01 4.2010596394538879e-01</leafValues></_>
        <_>
          <internalNodes>
            0 -1 61 -594511185 -1333735422 -1777839925 -2058878381
            139467 -401989568 -1744789286 -1896166769</internalNodes>
          <leafValues>
            -5.4152768850326538e-01 5.0260746479034424e-01</leafValues></_>
        <_>
          <internalNodes>
            0 -1 117 -1802171971 -268238827 77059545 1783518857
            -33447231 -374204029 -125787505 1089080285</internalNodes>
          <leafValues>
            -6.8406993150711060e-01 3.9341554045677185e-01</leafValues></_>
        <_>
          <internalNodes>
            0 -1 67 -182738772 1393568064 -1996386166 1364398096
            814064613 939548697 -1961249969 957677923</internalNodes>
          <leafValues>
            -7.2053509950637817e-01 4.2971193790435791e-01</leafValues></_></weakClassifiers></_>
    <!-- stage 19 -->
    <_>
      <maxWeakCount>7</maxWeakCount>
      <stageThreshold>-1.3598066568374634e+00</stageThreshold>
      <weakClassifiers>
        <_>
          <internalNodes>
            0 -1 28 -187242513 -10318697 1947091357 -32180544 -90390050
            -105377368 -132453445 -24346721</internalNodes>
          <leafValues>
            -7.0883053541183472e-01 2.8125000000000000e-01</leafValues></_>
        <_>
          <internalNodes>
            0 -1 55 -732496641 -4130808 345388830 -954576756 1267902637
            -1662871410 -883892753 -829931443</internalNodes>
          <leafValues>
            -6.1259472370147705e-01 3.9287650585174561e-01</leafValues></_>
        <_>
          <internalNodes>
            0 -1 121 -1999115274 -300374993 -1375646511 530567930
            -1311779663 -593079168 765436448 -1680107313</internalNodes>
          <leafValues>
            -5.7980906963348389e-01 4.8729300498962402e-01</leafValues></_>
        <_>
          <internalNodes>
            0 -1 96 -1363702409 47692119 2038485081 -271451149
            -226022025 -347963381 -211328928 -51054832</internalNodes>
          <leafValues>
            -6.3017576932907104e-01 4.0973404049873352e-01</leafValues></_>
        <_>
          <internalNodes>
            0 -1 34 -50952990 353890823 403862802 -792706870 158128287
            -1602191359 -1098773817 1530022336</internalNodes>
          <leafValues>
            -7.8760957717895508e-01 3.2264178991317749e-01</leafValues></_>
        <_>
          <internalNodes>
            0 -1 62 2115514062 1225843979 151179355 -612368373 170510031
            554903043 -662680945 2012214271</internalNodes>
          <leafValues>
            -5.6533932685852051e-01 4.4231152534484863e-01</leafValues></_>
        <_>
          <internalNodes>
            0 -1 20 -172267051 1280704851 -2130640364 1612738560
            -360202100 -696196903 -1023360260 -29889763</internalNodes>
          <leafValues>
            -5.3810149431228638e-01 4.8278078436851501e-01</leafValues></_></weakClassifiers></_></stages>
  <features>
    <_>
      <rect>
        0 0 1 1</rect></_>
    <_>
      <rect>
        0 0 1 2</rect></_>
    <_>
      <rect>
        0 0 4 2</rect></_>
    <_>
      <rect>
        0 0 10 4</rect></_>
    <_>
      <rect>
        0 0 13 8</rect></_>
    <_>
      <rect>
        0 1 1 3</rect></_>
    <_>
      <rect>
        0 3 2 2</rect></_>
    <_>
      <rect>
        0 4 1 1</rect></_>
    <_>
      <rect>
        0 4 1 2</rect></_>
    <_>
      <rect>
        0 4 3 2</rect></_>
    <_>
      <rect>
        0 6 2 1</rect></_>
    <_>
      <rect>
        0 7 8 6</rect></_>
    <_>
      <rect>
        0 8 4 9</rect></_>
    <_>
      <rect>
        0 9 1 1</rect></_>
    <_>
      <rect>
        0 11 8 7</rect></_>
    <_>
      <rect>
        0 14 10 5</rect></_>
    <_>
      <rect>
        0 16 3 4</rect></_>
    <_>
      <rect>
        0 18 3 3</rect></_>
    <_>
      <rect>
        0 19 2 3</rect></_>
    <_>
      <rect>
        0 25 1 1</rect></_>
    <_>
      <rect>
        0 25 1 2</rect></_>
    <_>
      <rect>
        0 30 2 2</rect></_>
    <_>
      <rect>
        0 33 1 2</rect></_>
    <_>
      <rect>
        0 34 3 2</rect></_>
    <_>
      <rect>
        0 36 1 1</rect></_>
    <_>
      <rect>
        0 37 1 1</rect></_>
    <_>
      <rect>
        1 0 2 2</rect></_>
    <_>
      <rect>
        1 0 12 5</rect></_>
    <_>
      <rect>
        1 1 1 1</rect></_>
    <_>
      <rect>
        1 1 13 7</rect></_>
    <_>
      <rect>
        1 3 1 2</rect></_>
    <_>
      <rect>
        1 7 1 1</rect></_>
    <_>
      <rect>
        1 7 8 11</rect></_>
    <_>
      <rect>
        1 9 8 6</rect></_>
    <_>
      <rect>
        1 16 6 6</rect></_>
    <_>
      <rect>
        1 20 8 5</rect></_>
    <_>
      <rect>
        1 28 5 4</rect></_>
    <_>
      <rect>
        2 0 2 1</rect></_>
    <_>
      <rect>
        2 0 9 1</rect></_>
    <_>
      <rect>
        2 16 12 4</rect></_>
    <_>
      <rect>
        2 34 2 2</rect></_>
    <_>
      <rect>
        2 37 1 1</rect></_>
    <_>
      <rect>
        3 7 11 7</rect></_>
    <_>
      <rect>
        3 11 6 8</rect></_>
    <_>
      <rect>
        3 18 6 3</rect></_>
    <_>
      <rect>
        4 0 12 10</rect></_>
    <_>
      <rect>
        5 15 7 6</rect></_>
    <_>
      <rect>
        5 17 2 2</rect></_>
    <_>
      <rect>
        5 20 1 2</rect></_>
    <_>
      <rect>
        6 2 11 6</rect></_>
    <_>
      <rect>
        6 17 2 2</rect></_>
    <_>
      <rect>
        6 17 5 5</rect></_>
    <_>
      <rect>
        6 18 5 4</rect></_>
    <_>
      <rect>
        6 20 2 2</rect></_>
    <_>
      <rect>
        6 22 1 1</rect></_>
    <_>
      <rect>
        6 31 7 3</rect></_>
    <_>
      <rect>
        7 13 2 1</rect></_>
    <_>
      <rect>
        7 18 10 4</rect></_>
    <_>
      <rect>
        7 25 1 1</rect></_>
    <_>
      <rect>
        8 15 6 4</rect></_>
    <_>
      <rect>
        8 17 5 4</rect></_>
    <_>
      <rect>
        9 1 4 5</rect></_>
    <_>
      <rect>
        9 17 4 4</rect></_>
    <_>
      <rect>
        9 18 5 5</rect></_>
    <_>
      <rect>
        9 19 9 3</rect></_>
    <_>
      <rect>
        9 24 8 5</rect></_>
    <_>
      <rect>
        9 29 1 1</rect></_>
    <_>
      <rect>
        10 19 5 4</rect></_>
    <_>
      <rect>
        10 21 6 4</rect></_>
    <_>
      <rect>
        10 25 10 5</rect></_>
    <_>
      <rect>
        11 0 2 1</rect></_>
    <_>
      <rect>
        11 22 6 4</rect></_>
    <_>
      <rect>
        12 12 7 4</rect></_>
    <_>
      <rect>
        12 24 7 5</rect></_>
    <_>
      <rect>
        13 13 8 5</rect></_>
    <_>
      <rect>
        13 14 6 4</rect></_>
    <_>
      <rect>
        13 37 2 1</rect></_>
    <_>
      <rect>
        14 17 5 2</rect></_>
    <_>
      <rect>
        14 17 5 4</rect></_>
    <_>
      <rect>
        14 20 4 3</rect></_>
    <_>
      <rect>
        15 0 6 6</rect></_>
    <_>
      <rect>
        15 15 5 2</rect></_>
    <_>
      <rect>
        15 21 4 4</rect></_>
    <_>
      <rect>
        15 21 5 4</rect></_>
    <_>
      <rect>
        15 37 2 1</rect></_>
    <_>
      <rect>
        16 0 4 1</rect></_>
    <_>
      <rect>
        16 14 8 4</rect></_>
    <_>
      <rect>
        16 15 4 4</rect></_>
    <_>
      <rect>
        17 8 5 7</rect></_>
    <_>
      <rect>
        17 15 5 5</rect></_>
    <_>
      <rect>
        18 16 3 2</rect></_>
    <_>
      <rect>
        18 17 3 2</rect></_>
    <_>
      <rect>
        18 18 5 5</rect></_>
    <_>
      <rect>
        18 19 3 2</rect></_>
    <_>
      <rect>
        18 37 7 1</rect></_>
    <_>
      <rect>
        19 19 1 1</rect></_>
    <_>
      <rect>
        19 20 1 1</rect></_>
    <_>
      <rect>
        20 20 4 3</rect></_>
    <_>
      <rect>
        20 34 3 2</rect></_>
    <_>
      <rect>
        21 37 5 1</rect></_>
    <_>
      <rect>
        25 15 5 6</rect></_>
    <_>
      <rect>
        26 33 3 2</rect></_>
    <_>
      <rect>
        28 0 1 1</rect></_>
    <_>
      <rect>
        28 0 4 1</rect></_>
    <_>
      <rect>
        28 0 4 2</rect></_>
    <_>
      <rect>
        28 17 4 4</rect></_>
    <_>
      <rect>
        28 28 4 3</rect></_>
    <_>
      <rect>
        28 37 3 1</rect></_>
    <_>
      <rect>
        31 0 3 2</rect></_>
    <_>
      <rect>
        31 14 3 4</rect></_>
    <_>
      <rect>
        32 0 2 2</rect></_>
    <_>
      <rect>
        33 1 2 2</rect></_>
    <_>
      <rect>
        36 4 1 1</rect></_>
    <_>
      <rect>
        36 24 1 1</rect></_>
    <_>
      <rect>
        36 27 1 2</rect></_>
    <_>
      <rect>
        36 29 1 1</rect></_>
    <_>
      <rect>
        37 2 1 2</rect></_>
    <_>
      <rect>
        37 3 1 1</rect></_>
    <_>
      <rect>
        37 21 1 2</rect></_>
    <_>
      <rect>
        37 27 1 1</rect></_>
    <_>
      <rect>
        37 31 1 3</rect></_>
    <_>
      <rect>
        37 34 1 1</rect></_>
    <_>
      <rect>
        37 37 1 1</rect></_></features></cascade>
</opencv_storage>
