<?xml version="1.0"?>
<opencv_storage>
<stage6>
  <maxWeakCount>6</maxWeakCount>
  <stageThreshold>-1.7267025709152222e+00</stageThreshold>
  <weakClassifiers>
    <_>
      <internalNodes>
        0 -1 29539 -1811615041 -1626433134 -2079653837 2097520913
        991601808 -1087885296 -1449092867 -32978024</internalNodes>
      <leafValues>
        -7.7735370397567749e-01 2.8546097874641418e-01</leafValues></_>
    <_>
      <internalNodes>
        0 -1 9823 -438862897 -623295087 -1441484551 -1127819499
        1002778165 -1315758943 -608441544 1172978490</internalNodes>
      <leafValues>
        -6.7913317680358887e-01 4.1922086477279663e-01</leafValues></_>
    <_>
      <internalNodes>
        0 -1 67300 -4195329 721399551 -16908650 -25297181 -54526105
        1341062989 -9440201 -134481929</internalNodes>
      <leafValues>
        -4.9390050768852234e-01 6.4389717578887939e-01</leafValues></_>
    <_>
      <internalNodes>
        0 -1 52422 1117577694 1429232784 -1827470418 -136273680 18252508
        1487708352 -116881185 1122882011</internalNodes>
      <leafValues>
        -6.2814450263977051e-01 4.8084908723831177e-01</leafValues></_>
    <_>
      <internalNodes>
        0 -1 24315 -1906325793 -1462232770 -1655552261 -937161406
        -240627383 -1375483573 -291249173 -361827851</internalNodes>
      <leafValues>
        -5.5402827262878418e-01 5.3348779678344727e-01</leafValues></_>
    <_>
      <internalNodes>
        0 -1 12113 270820042 -149562027 1345536029 -612865798 1443081131
        2088782473 310496831 865130788</internalNodes>
      <leafValues>
        -7.4447304010391235e-01 4.0531671047210693e-01</leafValues></_></weakClassifiers></stage6>
</opencv_storage>
