<?xml version="1.0"?>
<opencv_storage>
<stage8>
  <maxWeakCount>5</maxWeakCount>
  <stageThreshold>-1.4501100778579712e+00</stageThreshold>
  <weakClassifiers>
    <_>
      <internalNodes>
        0 -1 48827 -2071475665 -648440421 420482051 -531875395 974724643
        -1647210233 -1560057297 -185932473</internalNodes>
      <leafValues>
        -7.9698753356933594e-01 2.7024722099304199e-01</leafValues></_>
    <_>
      <internalNodes>
        0 -1 23919 162012979 -1547484806 -2130491955 -2161067
        -1810935071 -1194292080 -938812687 7836141</internalNodes>
      <leafValues>
        -7.3808676004409790e-01 3.8886746764183044e-01</leafValues></_>
    <_>
      <internalNodes>
        0 -1 44987 -389600629 -150392629 -1761539764 -712109556
        176462520 -888585712 -492263223 1903874521</internalNodes>
      <leafValues>
        -7.0775663852691650e-01 3.7412947416305542e-01</leafValues></_>
    <_>
      <internalNodes>
        0 -1 3290 -203694409 -1203723337 -865009588 1813686818
        -340811795 -9779701 1102897884 -155124415</internalNodes>
      <leafValues>
        -6.5804195404052734e-01 4.5431745052337646e-01</leafValues></_>
    <_>
      <internalNodes>
        0 -1 20924 -1541460217 1711852649 1992573020 -831727200
        285922462 -880277333 1663062655 -292914008</internalNodes>
      <leafValues>
        -6.9835805892944336e-01 4.3813359737396240e-01</leafValues></_></weakClassifiers></stage8>
</opencv_storage>
