<?xml version="1.0"?>
<opencv_storage>
<stage15>
  <maxWeakCount>6</maxWeakCount>
  <stageThreshold>-2.0329854488372803e+00</stageThreshold>
  <weakClassifiers>
    <_>
      <internalNodes>
        0 -1 3875 1495087125 -741631353 -1493086985 -208669703
        -536633089 1389821983 -1065096909 -62920985</internalNodes>
      <leafValues>
        -6.7703217267990112e-01 3.9331027865409851e-01</leafValues></_>
    <_>
      <internalNodes>
        0 -1 29258 249529841 714379400 -1341287937 1929871717
        -1145003948 -1082032111 1830846763 140235775</internalNodes>
      <leafValues>
        -6.8375235795974731e-01 3.9224734902381897e-01</leafValues></_>
    <_>
      <internalNodes>
        0 -1 3367 -606289 -174394882 -748970132 -88041074 -4474821
        1831020302 -1463732288 1607744892</internalNodes>
      <leafValues>
        -7.7410244941711426e-01 3.3051618933677673e-01</leafValues></_>
    <_>
      <internalNodes>
        0 -1 21279 -1491208773 -1600991766 -516845065 -1975725373
        1460391773 -514637109 -752628941 -285410390</internalNodes>
      <leafValues>
        -6.0478901863098145e-01 4.6791806817054749e-01</leafValues></_>
    <_>
      <internalNodes>
        0 -1 21024 908471918 1536266587 1342742735 -770584274 1648419026
        805683369 1922438895 1459704148</internalNodes>
      <leafValues>
        -8.7637305259704590e-01 3.1186947226524353e-01</leafValues></_>
    <_>
      <internalNodes>
        0 -1 61880 532625275 937394627 -1809767945 -577433314 -653027238
        1524910221 1374259646 -2068819480</internalNodes>
      <leafValues>
        -7.0926308631896973e-01 3.9482116699218750e-01</leafValues></_></weakClassifiers></stage15>
</opencv_storage>
