<?xml version="1.0"?>
<opencv_storage>
<stage11>
  <maxWeakCount>7</maxWeakCount>
  <stageThreshold>-2.2363958358764648e+00</stageThreshold>
  <weakClassifiers>
    <_>
      <internalNodes>
        0 -1 650 455030261 -167852645 -1924984931 -582225569 -91628101
        -214703181 -68214273 -6291521</internalNodes>
      <leafValues>
        -6.2742173671722412e-01 5.2838426828384399e-01</leafValues></_>
    <_>
      <internalNodes>
        0 -1 6493 1522597597 -683555873 -637344595 -264068392 -802407764
        -337995711 -89064721 -584779283</internalNodes>
      <leafValues>
        -6.5709537267684937e-01 4.5339742302894592e-01</leafValues></_>
    <_>
      <internalNodes>
        0 -1 40 1119016903 60027409 -913125089 -673332911 10983833
        -1291870042 1384244195 261421493</internalNodes>
      <leafValues>
        -6.4900559186935425e-01 4.3347930908203125e-01</leafValues></_>
    <_>
      <internalNodes>
        0 -1 61920 -171182753 2064767249 -250264169 -767248637
        -121374213 -1120042567 -895538179 -198137738</internalNodes>
      <leafValues>
        -5.7479947805404663e-01 5.1104384660720825e-01</leafValues></_>
    <_>
      <internalNodes>
        0 -1 46916 89333979 512685151 -787935096 -16400316 -1341067815
        1913930123 -1718361669 1342558715</internalNodes>
      <leafValues>
        -6.3614696264266968e-01 5.0937312841415405e-01</leafValues></_>
    <_>
      <internalNodes>
        0 -1 42913 -389814321 -800747109 473272522 -535133901 1502038956
        -23355392 593692908 -1157738758</internalNodes>
      <leafValues>
        -6.5106618404388428e-01 4.4498422741889954e-01</leafValues></_>
    <_>
      <internalNodes>
        0 -1 49399 228424266 -39907060 -2130327050 -15006701 126176493
        -91682687 198900 -1313085310</internalNodes>
      <leafValues>
        -6.7222386598587036e-01 4.3659761548042297e-01</leafValues></_></weakClassifiers></stage11>
</opencv_storage>
