<?xml version="1.0"?>
<opencv_storage>
<stage17>
  <maxWeakCount>7</maxWeakCount>
  <stageThreshold>-1.4094148874282837e+00</stageThreshold>
  <weakClassifiers>
    <_>
      <internalNodes>
        0 -1 6864 -820910161 2060533776 407970013 -1790935010
        -1598503524 531900553 612483755 818249818</internalNodes>
      <leafValues>
        -7.9017263650894165e-01 2.4288107454776764e-01</leafValues></_>
    <_>
      <internalNodes>
        0 -1 23422 600508383 717804430 -753204109 -858213363 1224845311
        261327515 -1446417493 -285413444</internalNodes>
      <leafValues>
        -6.9893455505371094e-01 3.5185712575912476e-01</leafValues></_>
    <_>
      <internalNodes>
        0 -1 64507 -607150265 -67889975 420837759 1623365723 -502316545
        -1272864254 -242918783 1085319914</internalNodes>
      <leafValues>
        -7.3489212989807129e-01 3.7994867563247681e-01</leafValues></_>
    <_>
      <internalNodes>
        0 -1 0 -285315337 -1541 2147481445 1317893111 -1074006017
        -536903682 -537133057 -1444981522</internalNodes>
      <leafValues>
        -4.5848634839057922e-01 6.3607722520828247e-01</leafValues></_>
    <_>
      <internalNodes>
        0 -1 43251 1178240762 1468035151 8442069 -16429023 -1551848967
        -1962933103 536969363 2065269377</internalNodes>
      <leafValues>
        -6.6152417659759521e-01 4.6969974040985107e-01</leafValues></_>
    <_>
      <internalNodes>
        0 -1 46471 256213983 1125319175 16909715 -649264883 -2054756181
        -922058620 -242696502 1346426850</internalNodes>
      <leafValues>
        -6.8244260549545288e-01 4.3515959382057190e-01</leafValues></_>
    <_>
      <internalNodes>
        0 -1 3189 -668566443 -682639017 3440 849586832 -786316427
        -249462655 25854629 -146650829</internalNodes>
      <leafValues>
        -6.2818193435668945e-01 4.5518252253532410e-01</leafValues></_></weakClassifiers></stage17>
</opencv_storage>
