<?xml version="1.0"?>
<opencv_storage>
<stage10>
  <maxWeakCount>6</maxWeakCount>
  <stageThreshold>-1.2958498001098633e+00</stageThreshold>
  <weakClassifiers>
    <_>
      <internalNodes>
        0 -1 1 -606143489 -134314788 1573046365 -6489141 242407855
        -1413447110 -947682401 -290930753</internalNodes>
      <leafValues>
        -7.1575343608856201e-01 3.7341773509979248e-01</leafValues></_>
    <_>
      <internalNodes>
        0 -1 29162 1427500798 2103251073 -1770521826 -108296939
        382335474 2114021524 -775032865 2132383739</internalNodes>
      <leafValues>
        -6.4537030458450317e-01 4.1958364844322205e-01</leafValues></_>
    <_>
      <internalNodes>
        0 -1 3354 -855640101 -35651617 -4162 -353501756 -51380296
        -143130804 -671093300 -2097208</internalNodes>
      <leafValues>
        -4.9768638610839844e-01 6.1294263601303101e-01</leafValues></_>
    <_>
      <internalNodes>
        0 -1 29720 -220252801 -287311425 -687355393 -293968513
        -557961349 -24400361 -360120977 -186722684</internalNodes>
      <leafValues>
        -5.5909609794616699e-01 5.0688862800598145e-01</leafValues></_>
    <_>
      <internalNodes>
        0 -1 43719 -1342238947 -9519121 -285278661 -16810057 -1879052321
        1610612715 117403582 -1930395652</internalNodes>
      <leafValues>
        -4.8411682248115540e-01 6.0917431116104126e-01</leafValues></_>
    <_>
      <internalNodes>
        0 -1 1273 -293667841 -690838134 352604177 -687177084 1078518444
        -74577782 567264211 -576726782</internalNodes>
      <leafValues>
        -5.2476549148559570e-01 5.5286747217178345e-01</leafValues></_></weakClassifiers></stage10>
</opencv_storage>
