<?xml version="1.0"?>
<opencv_storage>
<stage16>
  <maxWeakCount>6</maxWeakCount>
  <stageThreshold>-1.3981500864028931e+00</stageThreshold>
  <weakClassifiers>
    <_>
      <internalNodes>
        0 -1 651 -78055629 -978342453 -526704461 -572590574 -1207450767
        1510196297 -1222383049 -1605</internalNodes>
      <leafValues>
        -6.7721182107925415e-01 4.3473052978515625e-01</leafValues></_>
    <_>
      <internalNodes>
        0 -1 2203 35125503 -936476426 -804761255 1886945538 1405347047
        -918312955 1923738275 -266669409</internalNodes>
      <leafValues>
        -6.8750423192977905e-01 3.8457271456718445e-01</leafValues></_>
    <_>
      <internalNodes>
        0 -1 6773 1831632748 -9834497 2133769854 -1 1048573951 -25182217
        -134283364 -1192289093</internalNodes>
      <leafValues>
        -5.1847612857818604e-01 5.4251939058303833e-01</leafValues></_>
    <_>
      <internalNodes>
        0 -1 32513 -1896971009 1071808383 -1224802433 -167804931
        -838930567 1052540797 -1073813585 -207364</internalNodes>
      <leafValues>
        -4.6624007821083069e-01 5.7852619886398315e-01</leafValues></_>
    <_>
      <internalNodes>
        0 -1 19391 2099230386 387645730 -1743773292 958497683 -484324896
        -349110264 -1996313909 -1612739337</internalNodes>
      <leafValues>
        -5.4291379451751709e-01 5.3680253028869629e-01</leafValues></_>
    <_>
      <internalNodes>
        0 -1 67574 -1613509073 -802437369 -200432510 1304348136
        -29140097 -1622952789 -1946955712 -19399359</internalNodes>
      <leafValues>
        -6.1156582832336426e-01 4.6792903542518616e-01</leafValues></_></weakClassifiers></stage16>
</opencv_storage>
