<?xml version="1.0"?>
<opencv_storage>
<stage1>
  <maxWeakCount>7</maxWeakCount>
  <stageThreshold>-1.2852627038955688e+00</stageThreshold>
  <weakClassifiers>
    <_>
      <internalNodes>
        0 -1 4820 804759551 -1141024050 -1748241953 -553596472
        -350053126 1054425217 -351667461 2130965391</internalNodes>
      <leafValues>
        -7.5350821018218994e-01 3.1573987007141113e-01</leafValues></_>
    <_>
      <internalNodes>
        0 -1 32199 -572530722 -141372586 352473489 -574237356 -628450408
        -82278325 -418378760 -74948072</internalNodes>
      <leafValues>
        -6.3817948102951050e-01 4.8473742604255676e-01</leafValues></_>
    <_>
      <internalNodes>
        0 -1 26343 1901330202 291053826 -1811891750 2101788931
        1510714367 2010316866 17021610 924080904</internalNodes>
      <leafValues>
        -7.5876277685165405e-01 3.7737515568733215e-01</leafValues></_>
    <_>
      <internalNodes>
        0 -1 67599 1876887551 1989924942 2132012247 -88406690 -154418181
        -690307057 -470028307 1977557237</internalNodes>
      <leafValues>
        -6.6228020191192627e-01 4.4958692789077759e-01</leafValues></_>
    <_>
      <internalNodes>
        0 -1 43245 2027687112 1003520328 369099865 2034848601 152086953
        -179306096 164899546 2142972171</internalNodes>
      <leafValues>
        -6.9537025690078735e-01 4.4483977556228638e-01</leafValues></_>
    <_>
      <internalNodes>
        0 -1 13152 -548339844 -546111337 286265596 -677703289
        -1031344449 -1437958141 -1761031438 -1708933278</internalNodes>
      <leafValues>
        -5.8157628774642944e-01 5.8818399906158447e-01</leafValues></_>
    <_>
      <internalNodes>
        0 -1 36854 -556007497 1590493168 -38420677 -16744843 -1078394984
        -567148903 -293765219 1799903639</internalNodes>
      <leafValues>
        -5.2796047925949097e-01 5.8963274955749512e-01</leafValues></_></weakClassifiers></stage1>
</opencv_storage>
