<?xml version="1.0"?>
<opencv_storage>
<stage19>
  <maxWeakCount>7</maxWeakCount>
  <stageThreshold>-1.3598066568374634e+00</stageThreshold>
  <weakClassifiers>
    <_>
      <internalNodes>
        0 -1 3549 -187242513 -10318697 1947091357 -32180544 -90390050
        -105377368 -132453445 -24346721</internalNodes>
      <leafValues>
        -7.0883053541183472e-01 2.8125000000000000e-01</leafValues></_>
    <_>
      <internalNodes>
        0 -1 21728 -732496641 -4130808 345388830 -954576756 1267902637
        -1662871410 -883892753 -829931443</internalNodes>
      <leafValues>
        -6.1259472370147705e-01 3.9287650585174561e-01</leafValues></_>
    <_>
      <internalNodes>
        0 -1 67595 -1999115274 -300374993 -1375646511 530567930
        -1311779663 -593079168 765436448 -1680107313</internalNodes>
      <leafValues>
        -5.7980906963348389e-01 4.8729300498962402e-01</leafValues></_>
    <_>
      <internalNodes>
        0 -1 50779 -1363702409 47692119 2038485081 -271451149 -226022025
        -347963381 -211328928 -51054832</internalNodes>
      <leafValues>
        -6.3017576932907104e-01 4.0973404049873352e-01</leafValues></_>
    <_>
      <internalNodes>
        0 -1 5609 -50952990 353890823 403862802 -792706870 158128287
        -1602191359 -1098773817 1530022336</internalNodes>
      <leafValues>
        -7.8760957717895508e-01 3.2264178991317749e-01</leafValues></_>
    <_>
      <internalNodes>
        0 -1 29084 2115514062 1225843979 151179355 -612368373 170510031
        554903043 -662680945 2012214271</internalNodes>
      <leafValues>
        -5.6533932685852051e-01 4.4231152534484863e-01</leafValues></_>
    <_>
      <internalNodes>
        0 -1 2926 -172267051 1280704851 -2130640364 1612738560
        -360202100 -696196903 -1023360260 -29889763</internalNodes>
      <leafValues>
        -5.3810149431228638e-01 4.8278078436851501e-01</leafValues></_></weakClassifiers></stage19>
</opencv_storage>
