<?xml version="1.0"?>
<opencv_storage>
<stage9>
  <maxWeakCount>6</maxWeakCount>
  <stageThreshold>-1.5344382524490356e+00</stageThreshold>
  <weakClassifiers>
    <_>
      <internalNodes>
        0 -1 44955 252130303 -1358233515 1090785484 1973305378
        -121311021 -1288666945 -928333430 231734202</internalNodes>
      <leafValues>
        -7.4682080745697021e-01 4.0412372350692749e-01</leafValues></_>
    <_>
      <internalNodes>
        0 -1 8867 127354741 89330140 -644497075 -847055474 -259058400
        250319050 -939290758 1091277818</internalNodes>
      <leafValues>
        -6.9806754589080811e-01 3.9059498906135559e-01</leafValues></_>
    <_>
      <internalNodes>
        0 -1 41670 -881568588 2039546119 1409646781 529503972
        -1689727824 -1819467552 674809559 -32518397</internalNodes>
      <leafValues>
        -5.7775390148162842e-01 5.1854509115219116e-01</leafValues></_>
    <_>
      <internalNodes>
        0 -1 61919 2147483643 -84934657 1870528511 -85574145 -263206
        -1101333421 -518 -530131201</internalNodes>
      <leafValues>
        -4.6086743474006653e-01 6.4177185297012329e-01</leafValues></_>
    <_>
      <internalNodes>
        0 -1 62608 -136481760 -1029982441 1342750784 -471322183
        -263496447 -1492418553 1860403936 -519318902</internalNodes>
      <leafValues>
        -6.0775578022003174e-01 4.8632642626762390e-01</leafValues></_>
    <_>
      <internalNodes>
        0 -1 48925 1192741633 -79065045 1562450245 -1576542961
        -653696079 2065797259 -1026617441 114523957</internalNodes>
      <leafValues>
        -6.1028915643692017e-01 4.6816471219062805e-01</leafValues></_></weakClassifiers></stage9>
</opencv_storage>
