<?xml version="1.0"?>
<opencv_storage>
<stage12>
  <maxWeakCount>5</maxWeakCount>
  <stageThreshold>-1.0972219705581665e+00</stageThreshold>
  <weakClassifiers>
    <_>
      <internalNodes>
        0 -1 43673 -96995373 -13643635 -733637665 -560050117 -608726017
        -71580625 -1448101633 -21337864</internalNodes>
      <leafValues>
        -6.9265031814575195e-01 3.8053098320960999e-01</leafValues></_>
    <_>
      <internalNodes>
        0 -1 2479 -472415273 1717737766 1350911003 -1030438588
        -811631637 -1073233446 1236261011 -1070409221</internalNodes>
      <leafValues>
        -6.5581494569778442e-01 4.3446981906890869e-01</leafValues></_>
    <_>
      <internalNodes>
        0 -1 65274 -2392193 -725897725 1225777339 -1835805307
        -1031548451 -36444017 -276880471 1375780798</internalNodes>
      <leafValues>
        -6.5517580509185791e-01 4.4021031260490417e-01</leafValues></_>
    <_>
      <internalNodes>
        0 -1 1174 819897343 -1107509174 1476874422 -246875704 1879316989
        819462477 -108547650 453237467</internalNodes>
      <leafValues>
        -6.2607955932617188e-01 4.3747019767761230e-01</leafValues></_>
    <_>
      <internalNodes>
        0 -1 3394 -508380430 1594939731 1510166591 -36516028 -528287024
        -373522293 -1428615008 -1073742316</internalNodes>
      <leafValues>
        -6.0423237085342407e-01 5.0136888027191162e-01</leafValues></_></weakClassifiers></stage12>
</opencv_storage>
